97 100
numpy 0.024424743 0.17581579 -0.08245507 0.069663644 -0.1617332 -0.00891976 -0.117286704 0.23891607 -0.20526676 0.0023416048 -0.2800615 0.07163347 0.104326524 0.082075894 0.07956372 -0.11654485 -0.06922771 -0.2617918 -0.03793519 -0.070233986 -0.044570528 0.22170167 0.24329223 0.16491786 0.12014014 0.07939616 -0.16259982 -0.0979814 -0.28354186 -0.06820771 -0.018660642 -0.021229377 0.032832578 0.03058479 0.028145127 -0.06340502 0.039251104 -0.118791945 0.039050493 0.17346969 0.009255991 -0.06239129 0.32630393 0.04258208 -0.095779635 -0.07825132 0.1311967 0.2660184 0.31018907 -0.036303807 -0.06611624 -0.2504932 -0.18962468 0.07038054 0.02044177 -0.19237137 0.04966392 0.100230806 -0.043426383 0.054118223 -0.0015797713 -0.09009088 0.019323556 0.07572589 0.06909 0.016973367 -0.055524204 -0.1498893 -0.0500496 0.06572498 -0.00913599 -0.08524295 0.0042815763 -0.0460929 0.12731984 -0.05710378 -0.037986774 -0.09526622 -0.06904547 -0.07038703 0.062035114 -0.20237619 -0.05050234 0.105773315 -0.09668061 0.11994588 -0.18043518 -0.1360083 -0.008611529 -0.037474398 -0.12577301 0.028902436 0.14943583 -0.07464491 -0.033364896 -0.09521218 0.059309244 0.07004837 -0.13983329 -0.13466594
pandas 0.036087576 0.16902086 -0.08531773 0.06759899 -0.16010062 0.0056935707 -0.095366746 0.22797334 -0.20099199 0.018733552 -0.26965925 0.07042492 0.10486371 0.06511678 0.07666102 -0.11378327 -0.0847728 -0.2531319 -0.05737032 -0.081501484 -0.040941417 0.22351372 0.26325357 0.15328322 0.12113667 0.0709681 -0.16032504 -0.1105961 -0.27551118 -0.080109276 -0.020170707 -0.018692369 0.025392449 0.03558482 0.02309132 -0.04854893 0.030567022 -0.12844867 0.030112749 0.17252836 0.0427357 -0.07207983 0.30284527 0.049722854 -0.07876767 -0.07552167 0.11536149 0.24839817 0.30919278 -0.054683253 -0.053128216 -0.2524212 -0.1718914 0.07164693 0.009628373 -0.17257145 0.03540729 0.090339646 -0.04758459 0.04418904 0.0053287307 -0.10160034 0.035876557 0.06910298 0.060022965 0.033831947 -0.07145238 -0.16216485 -0.04503526 0.05365414 -0.015411336 -0.08918256 0.0079198405 -0.039695483 0.11838172 -0.038443793 -0.041040484 -0.10325412 -0.040996723 -0.07300136 0.07799401 -0.21097052 -0.05063454 0.08798066 -0.08759786 0.10105286 -0.17774719 -0.1113942 -0.00042448533 -0.054730967 -0.1286186 0.027668288 0.15282278 -0.06894433 -0.03386696 -0.11296952 0.0637688 0.0591126 -0.13868134 -0.098695815
fastapi 0.029110651 0.18848363 -0.0728419 0.06430947 -0.16366614 -0.03190382 -0.10511987 0.26431367 -0.20447497 0.0073470855 -0.30090672 0.056464367 0.10402061 0.08461631 0.07540908 -0.13692583 -0.078587726 -0.2759708 -0.040208142 -0.057251025 -0.06324353 0.23615313 0.24663071 0.15495293 0.1241153 0.074239254 -0.16189268 -0.094354935 -0.29055747 -0.06554984 -0.01798795 0.0026204807 0.042516187 0.029281216 0.024128873 -0.050602328 0.04289037 -0.12805751 0.04963012 0.16456471 -0.009674635 -0.07065646 0.3307433 0.051873352 -0.087879844 -0.10351328 0.14748967 0.2555127 0.31112522 -0.059370015 -0.088316604 -0.23361258 -0.19575466 0.05987838 0.031408217 -0.1979148 0.045503847 0.11868956 -0.052219175 0.061840136 -0.0063619153 -0.10120348 0.0072786976 0.07058667 0.08606231 0.01981199 -0.06590529 -0.14793344 -0.046498224 0.07510235 -0.032723505 -0.08971139 0.0043408996 -0.021667337 0.12377356 -0.076456666 -0.028907094 -0.08178184 -0.097297944 -0.0782437 0.030258583 -0.19863577 -0.03222337 0.11142619 -0.118670076 0.14187753 -0.18311393 -0.14947376 -0.03514586 -0.04457255 -0.11137504 0.015200371 0.14439149 -0.08003701 -0.037457217 -0.07206323 0.073607355 0.062046193 -0.15404916 -0.15855801
hashlib 0.030764116 0.18723612 -0.07904567 0.07516273 -0.15975806 -0.030596053 -0.11145666 0.25254512 -0.20315656 -0.0073351054 -0.28138217 0.052542772 0.08841412 0.07826439 0.060447257 -0.12927206 -0.06394106 -0.2520825 -0.02679957 -0.060897853 -0.055904917 0.22188272 0.24200898 0.1697714 0.13046448 0.06728774 -0.1705754 -0.115085274 -0.28956166 -0.06604012 -0.014442964 -0.008513053 0.042495027 0.032105315 0.01718684 -0.043562066 0.050559063 -0.12811707 0.04207293 0.17093652 0.002806214 -0.075624056 0.33450297 0.045202777 -0.08595488 -0.09370433 0.15095477 0.26620364 0.29307565 -0.057863284 -0.08413691 -0.23726764 -0.18888691 0.06216565 0.03894193 -0.17435749 0.036922563 0.1351988 -0.06356316 0.05675659 -0.0027099946 -0.088099666 0.006566677 0.06948037 0.06352426 0.019213842 -0.06834467 -0.15120421 -0.060712926 0.07588104 -0.02802424 -0.07353957 0.006468833 -0.032849118 0.12751263 -0.08208895 -0.020857882 -0.08057701 -0.0829009 -0.08262948 0.02092536 -0.1857371 -0.026091468 0.100157335 -0.1317977 0.116367504 -0.17699625 -0.14069901 -0.022103427 -0.05124585 -0.11108515 0.012441812 0.13646461 -0.06693515 -0.031103833 -0.06396897 0.055243004 0.06003679 -0.14887325 -0.14870371
multiprocessing 0.043613818 0.18986255 -0.09636891 0.090079166 -0.17329963 -0.004052949 -0.104442574 0.23480502 -0.2024177 -0.0037840086 -0.2865801 0.058747575 0.09901492 0.061914336 0.0737138 -0.123651266 -0.06503096 -0.2580761 -0.05998968 -0.07860624 -0.030725157 0.23924614 0.27185747 0.16820095 0.114135265 0.07200044 -0.15285589 -0.11524183 -0.29769155 -0.081825 -0.030664962 -0.016868915 0.041633148 0.025518509 0.0099905785 -0.05528339 0.028955756 -0.109184094 0.027532171 0.183086 0.042117104 -0.07424486 0.3205023 0.058420062 -0.09619254 -0.081667356 0.13636908 0.2852259 0.31476855 -0.051657267 -0.063459724 -0.24690764 -0.19298953 0.06710721 0.012513323 -0.18714932 0.041937497 0.09699761 -0.049682666 0.026048057 -0.00577238 -0.11781686 0.042401653 0.06597486 0.05346233 0.03611856 -0.075518794 -0.16022363 -0.048148707 0.07466948 -0.006099124 -0.074187376 -0.0011943632 -0.04391129 0.122896306 -0.03550941 -0.042404946 -0.10179741 -0.04837512 -0.090424 0.053748764 -0.21196587 -0.051335536 0.09148632 -0.09343967 0.101468354 -0.18232533 -0.119870044 0.005160271 -0.052471004 -0.13025925 0.03593561 0.15999047 -0.060736954 -0.048620235 -0.106726244 0.06126054 0.0702874 -0.13680948 -0.1261942
transformers 0.029456006 0.18007079 -0.055830367 0.075036615 -0.16293912 -0.021784907 -0.10643555 0.24257903 -0.20641704 0.0002101587 -0.28315556 0.05954075 0.10503457 0.09272238 0.08171433 -0.1467419 -0.058988407 -0.27404416 -0.044919126 -0.06637108 -0.051960614 0.23223831 0.2387749 0.17426424 0.11876449 0.07169113 -0.15776052 -0.11005236 -0.28234237 -0.05248442 -0.011357295 -0.021490725 0.043312516 0.019626012 0.01930912 -0.06857644 0.03439496 -0.13499093 0.053308118 0.15367728 0.010563004 -0.08093654 0.33288985 0.043538827 -0.08226531 -0.09614574 0.13814172 0.26942867 0.3143389 -0.03481268 -0.074149266 -0.24488854 -0.1825538 0.06668153 0.043423988 -0.19261286 0.05442901 0.13646127 -0.04420666 0.06432466 -0.008680199 -0.10324887 0.012950942 0.053818073 0.08250767 0.0145575 -0.074934795 -0.15558864 -0.040661845 0.06912861 -0.008418354 -0.07585583 -0.0025678473 -0.042626355 0.11570427 -0.067538016 -0.012410335 -0.088425525 -0.070003286 -0.08626792 0.028204428 -0.20012192 -0.046175376 0.10096824 -0.1181707 0.13515003 -0.16878395 -0.161149 -0.024127372 -0.03679742 -0.11227059 0.035286736 0.13836208 -0.059509553 -0.045753017 -0.07587621 0.07039282 0.073765814 -0.14608714 -0.14207433
torch 0.038018372 0.1803042 -0.0595486 0.050278217 -0.14788131 -0.021266274 -0.10999596 0.2484879 -0.1875668 0.010385014 -0.28457916 0.051657304 0.0996512 0.08155812 0.07071532 -0.1301928 -0.069574304 -0.26376534 -0.05232737 -0.073283896 -0.05395671 0.23484239 0.23098855 0.156927 0.122780725 0.07191693 -0.16738582 -0.09756962 -0.28738666 -0.060502093 -0.011157394 -0.014596566 0.050645716 0.022504635 0.013444292 -0.05374213 0.031218784 -0.12783347 0.05832898 0.16958241 0.005397956 -0.057735477 0.3421094 0.045694344 -0.0806477 -0.09321879 0.13808128 0.2578126 0.31407675 -0.035732687 -0.08012393 -0.22877605 -0.19151424 0.0724475 0.03053825 -0.18714896 0.049274515 0.12879609 -0.054909345 0.053334277 -0.019045163 -0.08401444 -0.004030486 0.054341808 0.07472991 0.024556996 -0.06561929 -0.136936 -0.031206975 0.05947347 -0.016009677 -0.07191674 0.007948415 -0.038907398 0.12630725 -0.06431405 -0.02010429 -0.094751894 -0.084537424 -0.063453056 0.037598528 -0.20833643 -0.022164552 0.12017305 -0.12370765 0.13607353 -0.17290224 -0.14989093 -0.037881564 -0.03567199 -0.104578696 0.028697578 0.14216508 -0.061406054 -0.04531794 -0.07691394 0.06884144 0.064307794 -0.1567933 -0.15477051
redis 0.030649494 0.20927714 -0.12482309 0.07877294 -0.21081436 -0.0105227 -0.12943256 0.27702188 -0.23104443 0.0036456897 -0.30638227 0.076141834 0.12411753 0.07726392 0.1044681 -0.12823722 -0.08431666 -0.29340532 -0.064310156 -0.08621205 -0.05715727 0.27406758 0.3103594 0.17378086 0.12885901 0.07413814 -0.16807435 -0.14205864 -0.32886836 -0.09153329 -0.020862998 -0.01864116 0.053658646 0.046396833 0.01415535 -0.056545634 0.033166543 -0.13593484 0.04921025 0.21227077 0.036532514 -0.08345587 0.35979068 0.06618597 -0.097000524 -0.106880285 0.15627468 0.29975116 0.33805445 -0.06145129 -0.06044646 -0.29187492 -0.22660336 0.097734556 0.015082983 -0.21060269 0.061142553 0.10446176 -0.06091737 0.050042406 -0.030331882 -0.1281879 0.05468427 0.086965516 0.067114785 0.030113664 -0.07326038 -0.17987587 -0.058138322 0.07529437 -0.008223051 -0.078684926 -0.004673769 -0.04537785 0.14771944 -0.039529342 -0.061492663 -0.11948028 -0.07443101 -0.07363173 0.07964109 -0.22812152 -0.064632356 0.08421174 -0.10974597 0.13458502 -0.21110651 -0.12253592 0.0015291949 -0.0696895 -0.16682951 0.026841069 0.17733848 -0.06477852 -0.055845376 -0.12793928 0.092951834 0.07776607 -0.16474374 -0.13942271
matplotlib 0.015271812 0.14417651 -0.07872055 0.07393059 -0.13440473 0.0033934915 -0.08885449 0.1876624 -0.17602183 0.025100203 -0.24887785 0.064788975 0.093837306 0.054432657 0.06922899 -0.09675846 -0.07404312 -0.22364867 -0.039071165 -0.04953201 -0.048181437 0.19863321 0.21723661 0.13922009 0.10573822 0.0550423 -0.13471128 -0.084707536 -0.23933804 -0.079234384 -0.024987284 -0.017828375 0.034819882 0.017430233 0.025805661 -0.03515429 0.034391325 -0.11169575 0.021328434 0.15678509 0.01896772 -0.05354674 0.2810555 0.03306579 -0.08931754 -0.081303574 0.100123435 0.20955573 0.26949465 -0.03325358 -0.043123994 -0.20412254 -0.1462509 0.05590196 0.007057306 -0.14506519 0.028534599 0.06849489 -0.034472864 0.047359083 0.0051965243 -0.074220866 0.017565932 0.06424307 0.06378108 0.028454121 -0.052908514 -0.12509772 -0.040297806 0.04402382 -0.0132095 -0.07760195 -0.0068755085 -0.04424485 0.105865195 -0.03456043 -0.03467837 -0.076286405 -0.045774747 -0.061099432 0.04509941 -0.1683214 -0.041128654 0.073556185 -0.07130945 0.097095124 -0.15845495 -0.11200555 -0.015823912 -0.04339632 -0.12299149 0.024367537 0.12814371 -0.052296355 -0.03103974 -0.080776066 0.056262586 0.044388812 -0.13338266 -0.09802095
asyncio 0.021535628 0.18169843 -0.09134023 0.08563386 -0.17925264 -0.010890968 -0.113875985 0.25168937 -0.21499106 -0.0035256308 -0.28792858 0.050985683 0.103558235 0.09146755 0.080383696 -0.13180585 -0.07511389 -0.26308554 -0.053151347 -0.07069714 -0.039672635 0.24301504 0.26332015 0.15916891 0.11643171 0.08209614 -0.16396242 -0.1203289 -0.29672167 -0.07983756 -0.015684657 -0.0059016696 0.035160214 0.034739777 0.015404112 -0.0360421 0.030441532 -0.13762163 0.045007255 0.18259569 0.018393869 -0.07132443 0.35115516 0.052292805 -0.10897004 -0.10019925 0.15669908 0.2649809 0.33397937 -0.05831202 -0.091364734 -0.26039973 -0.19294633 0.07384289 0.030330606 -0.19252276 0.05065735 0.12704007 -0.048766907 0.048096806 -0.015236957 -0.117903166 0.03567014 0.06472233 0.08190706 0.025484575 -0.06822912 -0.16610622 -0.040992837 0.06431834 -0.0182191 -0.08451171 0.007162047 -0.03597243 0.11882746 -0.075749174 -0.047339853 -0.0913132 -0.07954498 -0.07698239 0.05485669 -0.21158211 -0.048009172 0.10305684 -0.11600096 0.12827423 -0.17696108 -0.1396164 -0.023622166 -0.04515164 -0.13665181 0.026134834 0.14857355 -0.070413046 -0.04078669 -0.08986711 0.07103338 0.06863239 -0.13873278 -0.13817605
psutil 0.02978984 0.21787411 -0.12499199 0.11669367 -0.21950407 0.020182557 -0.10066658 0.26028854 -0.22449408 0.009421223 -0.2812814 0.084582165 0.12089228 0.058140814 0.09852893 -0.10767802 -0.09239716 -0.26904064 -0.0753281 -0.10393025 -0.03914035 0.23406017 0.31563133 0.1829383 0.11998116 0.05811846 -0.16460624 -0.16223183 -0.29303265 -0.12703766 -0.017174715 -0.033320177 0.026684014 0.04551146 -0.0031686425 -0.027531693 0.029406121 -0.13404141 0.025992466 0.2291998 0.052887093 -0.06516131 0.33625558 0.06473364 -0.1055368 -0.1026823 0.14617789 0.30137706 0.35265827 -0.06694184 -0.0662634 -0.2977948 -0.20932095 0.10975083 -0.007421593 -0.18487245 0.06543331 0.10274838 -0.07915827 0.017538818 -0.0052957493 -0.15033002 0.064450584 0.09334505 0.061613705 0.023740025 -0.06736764 -0.18813805 -0.050433587 0.06893399 0.018212415 -0.09944368 0.014337587 -0.05640327 0.123700924 -0.050639965 -0.064702846 -0.11620961 -0.04455733 -0.08039113 0.104344346 -0.22798541 -0.06222334 0.06845732 -0.10685623 0.11552588 -0.18373767 -0.07798365 0.0381598 -0.07435415 -0.16700447 0.030920628 0.20077981 -0.05451187 -0.05590526 -0.15819457 0.08970498 0.09062154 -0.14933154 -0.1145421
spacy 0.030385297 0.17040792 -0.06644584 0.056194182 -0.16011718 -0.023174483 -0.10843591 0.24241084 -0.18338594 -0.0028030646 -0.2667818 0.051705666 0.08686089 0.06918436 0.06312556 -0.12558207 -0.05581037 -0.24510661 -0.036579117 -0.06814767 -0.055794254 0.21548815 0.23358662 0.14835553 0.11973917 0.07871583 -0.14550707 -0.09663581 -0.27279344 -0.061812453 -0.017114304 -0.009728043 0.049861662 0.03662414 0.021718321 -0.062219862 0.036036666 -0.1199488 0.049600866 0.16112684 0.017315941 -0.07162514 0.32476074 0.054537475 -0.089193895 -0.08433942 0.13038944 0.2537643 0.29708025 -0.035765167 -0.07387069 -0.23133646 -0.18160746 0.07532781 0.020202165 -0.17578486 0.03658793 0.11719309 -0.050056543 0.046149056 -0.008679321 -0.09065274 0.027693715 0.063342705 0.06461258 0.009383638 -0.075946614 -0.14561886 -0.03022358 0.075206585 -0.0132619105 -0.069536455 0.003937758 -0.041810494 0.11012404 -0.0602739 -0.032775477 -0.094207205 -0.07558223 -0.078844965 0.048079435 -0.18683466 -0.03635725 0.095732525 -0.107402764 0.11174669 -0.17317815 -0.12794209 -0.017880669 -0.05335335 -0.1217477 0.016742764 0.13156211 -0.061629318 -0.039648857 -0.08140202 0.07035137 0.073894046 -0.13151714 -0.12778343
elasticsearch 0.04156202 0.17674403 -0.057107884 0.07428917 -0.15627171 -0.00350791 -0.10515571 0.24685244 -0.2046675 0.015084713 -0.28124353 0.056488212 0.09909058 0.08955625 0.059373274 -0.13997616 -0.06733992 -0.24773397 -0.0326216 -0.06474873 -0.04355989 0.22876662 0.2557767 0.16470242 0.12142922 0.08344781 -0.16723149 -0.09026052 -0.2885716 -0.07966322 -0.004189455 -0.0013646293 0.054091543 0.035431832 0.023293663 -0.052649073 0.026877958 -0.13198142 0.042291842 0.15290618 0.00738249 -0.05556427 0.34591585 0.0444605 -0.08886411 -0.07524941 0.14400011 0.25593123 0.3103661 -0.030339364 -0.08735157 -0.2438319 -0.19351628 0.074554235 0.03134321 -0.1963971 0.0428971 0.12728433 -0.05282342 0.061173614 -0.0058820387 -0.09001348 0.020132847 0.0735514 0.06507401 0.008628192 -0.082337484 -0.15540315 -0.03683194 0.060413953 -0.01555147 -0.08476419 0.016435204 -0.027948167 0.12992218 -0.06536263 -0.019851323 -0.08069832 -0.084800005 -0.0661239 0.05144393 -0.2044531 -0.049861275 0.11467901 -0.11970128 0.111670144 -0.15969226 -0.14613734 -0.034716655 -0.04029221 -0.12605095 0.033444688 0.1443676 -0.08013116 -0.027819585 -0.07941827 0.059298 0.06943219 -0.14526 -0.1475733
dataclasses 0.034658376 0.20106976 -0.11882605 0.11233076 -0.2024959 0.009862692 -0.11427341 0.24704635 -0.22521265 0.0160878 -0.27703688 0.07334064 0.12873617 0.07116749 0.10574445 -0.11901052 -0.079991646 -0.26241598 -0.06339973 -0.093815625 -0.041180685 0.23493125 0.301091 0.180056 0.118399985 0.061257076 -0.15460476 -0.15949368 -0.29445097 -0.11830302 -0.020886442 -0.020438418 0.025371158 0.052127108 0.008104965 -0.025938405 0.0203529 -0.12573925 0.036755953 0.21335289 0.04853747 -0.08454666 0.32184967 0.07189605 -0.11783674 -0.08176074 0.15841116 0.29940206 0.34027827 -0.0489875 -0.0795608 -0.28628513 -0.20717923 0.10425106 -0.0040950943 -0.19732493 0.054795854 0.08250508 -0.07674353 0.021560906 -0.022544913 -0.15885273 0.06201409 0.076677546 0.05921729 0.01648329 -0.078637555 -0.18414097 -0.028952269 0.07834604 0.017466648 -0.09232707 0.0049499846 -0.056308385 0.13381302 -0.03177587 -0.0569689 -0.094345145 -0.044061664 -0.08395198 0.09977732 -0.2371481 -0.069962345 0.077690646 -0.09566277 0.10040404 -0.18583448 -0.095770836 0.03922789 -0.053606853 -0.17107657 0.031514876 0.19338974 -0.051716592 -0.05681905 -0.13900313 0.0805656 0.08730446 -0.15392998 -0.12184069
abc 0.040066354 0.17485225 -0.09578086 0.07001136 -0.17913121 -0.01938422 -0.108096026 0.2539583 -0.21431157 -0.0025920365 -0.28979316 0.06056156 0.09570023 0.079906106 0.0833501 -0.11839455 -0.06994365 -0.25753605 -0.042050753 -0.07660108 -0.0336655 0.24381167 0.2606574 0.16767511 0.10572255 0.0822152 -0.15563725 -0.10422229 -0.28986767 -0.07394151 -0.02149041 -0.021796634 0.0320336 0.030461773 0.011892131 -0.058994923 0.026425567 -0.114497766 0.039280366 0.18901122 0.027478216 -0.072248586 0.33472362 0.057957117 -0.10359761 -0.09841749 0.14975962 0.27943388 0.3117965 -0.05553545 -0.07979573 -0.25479528 -0.20142893 0.067859516 0.014835072 -0.19795534 0.058366474 0.10370698 -0.057656873 0.039300334 -0.009345922 -0.114801496 0.022080718 0.054953873 0.0734342 0.013394874 -0.062713206 -0.15825962 -0.036595166 0.059964813 -0.0066211172 -0.07452065 0.0048702615 -0.047003385 0.13146147 -0.05693264 -0.046073735 -0.09452894 -0.06784707 -0.07772359 0.043560438 -0.21827361 -0.046723988 0.08080556 -0.10215924 0.12511292 -0.18256019 -0.13606797 -0.019235421 -0.052212417 -0.13741282 0.025466595 0.13628864 -0.06885703 -0.04575276 -0.09897891 0.07008326 0.07773592 -0.14517587 -0.12318199
pydantic 0.042747825 0.17838325 -0.074211776 0.04724938 -0.15918678 -0.046044193 -0.11561691 0.27555463 -0.20168917 0.0051641287 -0.33330962 0.05086816 0.09948855 0.094321296 0.06341586 -0.14503784 -0.06684228 -0.3080785 -0.036200676 -0.064839594 -0.056886725 0.26880538 0.24201077 0.17128801 0.13652384 0.07863565 -0.19154234 -0.09662849 -0.3393097 -0.029849157 -0.029291485 -0.015451998 0.07991991 0.014587482 0.037316523 -0.09181077 0.035969894 -0.14716762 0.07211366 0.16241239 -0.015435223 -0.09222896 0.35876217 0.054406516 -0.09661004 -0.099197574 0.1554462 0.2902382 0.31756952 -0.058440343 -0.09285074 -0.23292895 -0.20362693 0.0658889 0.03983797 -0.21533024 0.047705162 0.15120906 -0.02605629 0.08259317 -0.029729469 -0.08485699 -0.015624962 0.067040324 0.08553005 0.011659465 -0.05609276 -0.14465047 -0.039397553 0.08549538 -0.050865088 -0.07873731 0.01377517 -0.02436528 0.13677618 -0.08503134 -0.013596339 -0.08686067 -0.11872572 -0.07014633 0.012074216 -0.2119511 -0.02454817 0.13249856 -0.12941661 0.15064394 -0.18401329 -0.19747768 -0.04771842 -0.04791114 -0.109359615 0.015294366 0.12507543 -0.10069127 -0.035511494 -0.07065635 0.07409819 0.071194515 -0.15973349 -0.17134555
sqlite3 0.021184215 0.22514267 -0.11449785 0.10265175 -0.22174655 0.017601822 -0.12025302 0.27211082 -0.24234582 -0.0014357297 -0.28637066 0.06593431 0.13170044 0.07209723 0.088213734 -0.13231225 -0.08624348 -0.27674043 -0.06720651 -0.081824005 -0.04465492 0.24320099 0.3280251 0.16999081 0.1250916 0.08486334 -0.16480938 -0.15073259 -0.31334972 -0.13529824 -0.01848834 -0.011360091 0.019749537 0.055249266 0.013524877 -0.036845386 0.018162305 -0.122806534 0.024291655 0.21009369 0.050714053 -0.089319274 0.3591313 0.07308598 -0.13007419 -0.09810195 0.15113932 0.3093065 0.3675949 -0.045901652 -0.07957708 -0.31028423 -0.22885692 0.09794713 0.0009961072 -0.21253438 0.070918605 0.10992226 -0.061837327 0.027780637 -0.00062928325 -0.15116134 0.064702 0.090599485 0.059082046 0.027501075 -0.07866922 -0.19074506 -0.054315273 0.089316264 0.015658066 -0.09287501 0.00018737314 -0.045666013 0.13790824 -0.035423644 -0.07426049 -0.11608077 -0.036768176 -0.090069704 0.103889704 -0.25641197 -0.08818219 0.08478151 -0.111516826 0.112756886 -0.19738768 -0.10249626 0.032245554 -0.07547001 -0.16377445 0.041328177 0.19959089 -0.06441899 -0.060305957 -0.13875648 0.0834296 0.077997 -0.15343587 -0.11026914
flask 0.027493643 0.1548913 -0.066238314 0.053587534 -0.13800433 -0.009223491 -0.0846516 0.23409732 -0.18828966 -0.004833339 -0.26694214 0.045448 0.097939186 0.07700582 0.07310031 -0.10965092 -0.061395396 -0.23239054 -0.04407771 -0.06353893 -0.054560263 0.22308397 0.23271659 0.1522598 0.109555304 0.076558955 -0.13730872 -0.09470148 -0.2628534 -0.07594765 -0.013037911 0.00077424163 0.044270698 0.033300668 0.023388332 -0.040473685 0.03413353 -0.12073511 0.030438542 0.1466912 0.0097368555 -0.057373095 0.30140778 0.036280237 -0.092700735 -0.06771422 0.14085467 0.23528107 0.2875748 -0.03812144 -0.06176851 -0.20724386 -0.17035465 0.059152093 0.024162367 -0.17675263 0.03996633 0.106352 -0.04458995 0.04291536 -0.011265977 -0.09134393 0.0036713867 0.060298603 0.06767405 0.033183448 -0.061667487 -0.13698733 -0.05382742 0.053080533 -0.024136268 -0.07278458 -0.00063346117 -0.032130167 0.1190657 -0.061296526 -0.034246143 -0.088705 -0.072101876 -0.06786115 0.025850968 -0.1915832 -0.046141542 0.102454685 -0.09618253 0.10324988 -0.16462079 -0.13528654 -0.025839891 -0.036822688 -0.10633738 0.03052444 0.12965594 -0.06589182 -0.03644028 -0.08055723 0.0743959 0.052727945 -0.13642882 -0.12763189
prometheus_client 0.026091151 0.18127981 -0.07673603 0.048939034 -0.16997454 -0.043421935 -0.13001563 0.26314938 -0.21593587 0.012709424 -0.31916696 0.062036227 0.09773754 0.088209085 0.08106029 -0.15466052 -0.07596755 -0.2902164 -0.04859405 -0.07221268 -0.064598076 0.26142818 0.248252 0.17819065 0.13296603 0.09634057 -0.18818618 -0.084473476 -0.3097396 -0.0398966 -0.027713655 0.005211935 0.062648304 0.015445671 0.023124743 -0.080404535 0.052045178 -0.134602 0.052770864 0.16384152 -0.006050086 -0.09412809 0.35710624 0.06163564 -0.085013926 -0.09559385 0.14175257 0.27182353 0.31152767 -0.054714847 -0.08994522 -0.24166352 -0.19595923 0.054714315 0.023096576 -0.19322585 0.03641393 0.12846869 -0.03866646 0.06669134 -0.015814064 -0.08751181 0.00743294 0.054755613 0.088442534 0.01981858 -0.07584248 -0.13986221 -0.057355862 0.07561969 -0.04849051 -0.08351939 0.0075772344 -0.025729947 0.13331246 -0.077574655 -0.031634077 -0.08431491 -0.087240204 -0.080572695 0.02206294 -0.20819788 -0.036468964 0.12785943 -0.11793618 0.13572557 -0.18477671 -0.16980325 -0.05828826 -0.04218181 -0.1260046 0.010386105 0.13989994 -0.07731468 -0.04975463 -0.061414044 0.07098923 0.067709066 -0.15631063 -0.1646181
onnxruntime 0.029389242 0.1530494 -0.05517856 0.05040044 -0.14236957 -0.025097718 -0.10338934 0.20813303 -0.18784025 0.016083714 -0.26463777 0.058626685 0.07601467 0.08143624 0.0560512 -0.11504058 -0.06477493 -0.2320396 -0.03554988 -0.056033395 -0.048855543 0.20524035 0.21930262 0.14176188 0.104577556 0.05555402 -0.149659 -0.09663173 -0.26297143 -0.04512015 -0.023602054 -0.008983044 0.05158639 0.034972753 0.009792079 -0.061727654 0.02934405 -0.10805436 0.054224692 0.13690434 -0.0061002867 -0.06700218 0.3039251 0.029480841 -0.08302469 -0.0875544 0.113678515 0.23743887 0.2600094 -0.04278437 -0.060853865 -0.2058217 -0.17464085 0.056956116 0.0358734 -0.16872503 0.037268452 0.10989721 -0.037612494 0.043855116 0.0031129841 -0.06930394 0.0014699536 0.064578086 0.07306369 0.022848137 -0.06136604 -0.12676871 -0.031061688 0.05549694 -0.010536256 -0.059708018 0.009775449 -0.032792334 0.11250565 -0.071609415 -0.009609047 -0.0794729 -0.07994241 -0.05824747 0.038687572 -0.17470586 -0.043808468 0.106253564 -0.09624777 0.11878459 -0.14413518 -0.13666736 -0.03010291 -0.02570981 -0.102313586 0.01583055 0.12081251 -0.0598963 -0.026974296 -0.082059816 0.060436927 0.069911614 -0.13386628 -0.13116473
celery 0.042047244 0.15738352 -0.07269983 0.05772635 -0.14423837 -0.03099886 -0.103395015 0.22573344 -0.18282887 0.003671404 -0.2748457 0.045082476 0.08226185 0.08899691 0.07246326 -0.1306161 -0.06354545 -0.23827414 -0.037665807 -0.06797886 -0.051900942 0.23075315 0.23749015 0.15379718 0.101891436 0.073632985 -0.15267082 -0.0860746 -0.27290276 -0.06446993 -0.01719581 -0.016122613 0.033673853 0.028371653 0.026936598 -0.045608677 0.036866456 -0.12981214 0.054937407 0.15703937 0.005776428 -0.05907975 0.32011592 0.052069988 -0.09200481 -0.07395015 0.13545467 0.24930237 0.29623604 -0.037528552 -0.08227186 -0.22872765 -0.18065168 0.073089845 0.029892715 -0.18333085 0.051724155 0.11903805 -0.047007315 0.04212959 -0.0030118916 -0.08954246 0.004442534 0.0595214 0.071623154 0.023027027 -0.058585346 -0.12944418 -0.045538735 0.06140409 -0.029805664 -0.0670454 0.0012206859 -0.03384309 0.122562505 -0.062135555 -0.029653318 -0.08214224 -0.08109675 -0.08112594 0.040889364 -0.20126821 -0.03960555 0.10327548 -0.11630952 0.12036905 -0.15882295 -0.13428766 -0.035749737 -0.051379986 -0.101156026 0.01794046 0.13842924 -0.072752 -0.046191484 -0.06656363 0.073620655 0.068301775 -0.13350019 -0.14225475
networkx 0.035969026 0.1353394 -0.07890375 0.052519746 -0.12000488 -0.0063734506 -0.075508654 0.16613407 -0.16163266 0.009606441 -0.22066456 0.0552431 0.09356546 0.06460503 0.06221457 -0.09969661 -0.045603316 -0.18879566 -0.039382268 -0.050523918 -0.025786875 0.18275112 0.20895194 0.12123231 0.09699564 0.05161032 -0.12880568 -0.08286708 -0.23145126 -0.06926116 -0.013169261 -0.004318183 0.029886652 0.019920291 0.015121421 -0.029449092 0.023214824 -0.110578805 0.029480983 0.13612513 0.031418573 -0.038685564 0.2496508 0.03733504 -0.07203052 -0.063108675 0.08695362 0.20351405 0.24796702 -0.025552271 -0.05288993 -0.19573854 -0.13224137 0.0579033 0.01265672 -0.13482104 0.031205457 0.068646565 -0.030373314 0.03050818 0.007020003 -0.081187055 0.025529873 0.06457466 0.064631894 0.03668676 -0.05816086 -0.11312938 -0.025188359 0.05921039 -0.016772399 -0.05751429 0.011676588 -0.029104881 0.08334328 -0.023892093 -0.044980854 -0.07611303 -0.034505293 -0.061762024 0.05977749 -0.16338497 -0.036662064 0.0725592 -0.063434556 0.07336871 -0.13643512 -0.0968728 -0.0028753944 -0.034466248 -0.10752956 0.022615502 0.11450081 -0.06747851 -0.028247928 -0.068937756 0.04364269 0.058138683 -0.106471576 -0.09152065
requests 0.023041485 0.15168868 -0.08574167 0.06275043 -0.15180705 -0.0016277841 -0.09853375 0.22385523 -0.1869332 0.0007521285 -0.2417971 0.05912656 0.090103164 0.055378158 0.055308882 -0.11516859 -0.06757564 -0.21442148 -0.047985572 -0.07297478 -0.026101073 0.1984515 0.21556018 0.14420946 0.10336622 0.06492616 -0.13232948 -0.09223905 -0.25547522 -0.06358562 -0.011429933 -0.020622186 0.042395793 0.019496357 0.014916261 -0.03606996 0.024764808 -0.114188045 0.034925926 0.16597737 0.010763999 -0.05640514 0.28677237 0.040357575 -0.081454635 -0.068263344 0.11886262 0.22918458 0.26589105 -0.045673143 -0.06592128 -0.21670981 -0.16735642 0.0665446 0.012774375 -0.1576842 0.050288696 0.10060797 -0.060817767 0.046953924 -0.01894266 -0.082196325 0.017776554 0.05716341 0.04751397 0.011300976 -0.05650076 -0.13748856 -0.04846968 0.06812947 -0.014727765 -0.07314875 0.0022365032 -0.034529924 0.097281255 -0.05023189 -0.040732637 -0.09103431 -0.057395186 -0.06370985 0.051991403 -0.187504 -0.041169718 0.08722074 -0.08943961 0.108552836 -0.14276536 -0.105244584 -0.00085124903 -0.045468394 -0.11777082 0.018935243 0.12615167 -0.05363438 -0.031448074 -0.08028742 0.05205337 0.061810184 -0.12977943 -0.10354727
streamlit 0.034620594 0.19691806 -0.09489966 0.073608965 -0.17168352 -0.028208977 -0.12549408 0.27630165 -0.23099759 0.012015362 -0.34136307 0.0578923 0.10578556 0.07044965 0.07241907 -0.17061144 -0.09155963 -0.30192742 -0.044679224 -0.07213519 -0.06984187 0.26897168 0.28241354 0.19536737 0.14788097 0.10210315 -0.19178917 -0.11421213 -0.35577053 -0.08040795 -0.035481445 0.004616384 0.056406423 0.037423253 0.03347517 -0.07159037 0.045046072 -0.13658987 0.04451487 0.17361741 0.0096006375 -0.09353328 0.3794345 0.07405172 -0.1026323 -0.106639095 0.14269741 0.30731457 0.3299045 -0.055475827 -0.07758211 -0.25989267 -0.20343506 0.07168496 0.021175848 -0.21394789 0.0395128 0.11556159 -0.03927373 0.05215882 -0.021172233 -0.088032246 0.029913746 0.053087965 0.07931769 0.013614982 -0.083469205 -0.1822741 -0.06317503 0.06449839 -0.049616043 -0.07810272 -0.005375439 -0.044279277 0.14410524 -0.042331498 -0.033026513 -0.116009034 -0.07230947 -0.07181003 0.03523356 -0.23132382 -0.029281083 0.117591485 -0.12500876 0.15063564 -0.19375701 -0.15774888 -0.025232295 -0.04551614 -0.14211491 0.01602886 0.14833106 -0.09702554 -0.049754556 -0.08634567 0.0863903 0.06423569 -0.18118589 -0.15210661
base64 0.0150341205 0.1665892 -0.07337459 0.06613922 -0.15888879 -0.0052057123 -0.09877339 0.22818735 -0.18374272 -0.00660814 -0.25062776 0.044732016 0.10044396 0.07103204 0.06183511 -0.11262112 -0.064724594 -0.23842283 -0.048747648 -0.07032714 -0.045322698 0.21664995 0.22399895 0.14897019 0.100794606 0.064517945 -0.15046759 -0.10972343 -0.24897975 -0.07561559 -0.02533211 -0.009557938 0.02661808 0.023880808 0.014092157 -0.036693055 0.03699169 -0.11070854 0.045256637 0.15139943 0.012516706 -0.07330815 0.27669486 0.03953263 -0.08080139 -0.07298806 0.12948763 0.23839281 0.28320265 -0.055388868 -0.057969898 -0.20857994 -0.17450014 0.06765166 0.025594408 -0.16493382 0.052880026 0.111460336 -0.05210873 0.028352082 -0.012284487 -0.10333959 0.021655494 0.06375414 0.059251066 0.015824996 -0.06546357 -0.13607778 -0.052846503 0.054077264 -0.006099466 -0.077868216 0.00426011 -0.044172246 0.096746035 -0.056439415 -0.036522895 -0.09226386 -0.07419118 -0.07628702 0.04984051 -0.17455974 -0.04511291 0.07779373 -0.10328518 0.10354204 -0.16207252 -0.1228838 -0.012267474 -0.047189374 -0.11862419 0.01498059 0.14279126 -0.057991505 -0.037337888 -0.08864966 0.06881628 0.0674768 -0.1365345 -0.10726694
stanza 0.03439192 0.14807482 -0.057132024 0.053152323 -0.14958444 -0.0205801 -0.09151675 0.21555166 -0.17670406 -0.0014803468 -0.2541714 0.055869803 0.09612644 0.07349268 0.052553624 -0.10648702 -0.05542771 -0.22220832 -0.046018485 -0.045874454 -0.04092491 0.18897133 0.20668031 0.14082372 0.09422233 0.060595945 -0.14156874 -0.08140336 -0.25679338 -0.06157914 -0.0005271935 -0.0056217657 0.04912622 0.015774008 0.021047786 -0.037540577 0.026230112 -0.10642865 0.042443223 0.14578867 0.0027759862 -0.04780998 0.3013924 0.03934174 -0.073933 -0.078914315 0.12495524 0.22900802 0.2691524 -0.04638052 -0.06597179 -0.21264945 -0.1694025 0.05181729 0.03438088 -0.16934459 0.04803846 0.11363492 -0.0557815 0.047810625 -0.007427242 -0.08594972 0.0202254 0.052847486 0.05966347 0.015320947 -0.05237262 -0.1298365 -0.04013363 0.07058509 -0.0073066466 -0.057891827 0.010258931 -0.031161306 0.111960195 -0.059991688 -0.028110722 -0.07592776 -0.053051844 -0.06525279 0.034496818 -0.18068053 -0.037210256 0.095701806 -0.0981674 0.106725 -0.15017243 -0.12828591 -0.009943739 -0.040850893 -0.11502028 0.019519903 0.12767832 -0.067690566 -0.039154604 -0.08279833 0.055343863 0.06559795 -0.115969166 -0.122344576
hanlp 0.04275495 0.15649767 -0.051041704 0.06125318 -0.13695937 -0.008107548 -0.093266524 0.21950132 -0.18251653 0.013357229 -0.24764238 0.057816766 0.07713051 0.076359026 0.051193375 -0.12133501 -0.05008101 -0.24065219 -0.03550894 -0.04856351 -0.031385873 0.20899807 0.20793124 0.16155402 0.12114292 0.06934234 -0.13664308 -0.1019211 -0.2570594 -0.07392634 0.0013612868 -0.0060413564 0.0508401 0.023955183 0.0021047976 -0.06363299 0.03031594 -0.107776314 0.033116125 0.1593718 -3.6888672e-05 -0.058459874 0.30118483 0.04202023 -0.08589143 -0.08840281 0.12710251 0.24476525 0.29300126 -0.04611691 -0.067470044 -0.20815164 -0.15695535 0.056465797 0.034996744 -0.1685899 0.033069666 0.11062686 -0.045611065 0.03776743 -0.008056315 -0.07577611 0.005749735 0.05527035 0.057037942 0.017663281 -0.06869151 -0.12698585 -0.050539076 0.072566256 -0.009053354 -0.059339873 0.0154391555 -0.0334621 0.12102292 -0.057648204 -0.010722313 -0.06654452 -0.06621311 -0.07348124 0.024934078 -0.19800612 -0.035589464 0.1067002 -0.10384555 0.11081191 -0.15854032 -0.13264082 -0.02294709 -0.028751463 -0.09992634 0.026614819 0.1400901 -0.06375487 -0.023708746 -0.077570684 0.048636295 0.06329211 -0.14084908 -0.1391649
boto3 0.037945464 0.16600549 -0.07175611 0.06671447 -0.15312645 -0.02101201 -0.08984843 0.21559137 -0.17336413 0.010418815 -0.26258528 0.039663963 0.09711055 0.071975134 0.062406432 -0.1127191 -0.06384314 -0.22193316 -0.035064057 -0.06696799 -0.043731175 0.20582598 0.21080843 0.13987032 0.111549936 0.068236515 -0.15143849 -0.10278792 -0.250986 -0.063152105 -0.0036165512 -0.0074244374 0.048769955 0.01846754 0.016494976 -0.05546748 0.034135874 -0.11517664 0.04180362 0.14367406 0.0004236588 -0.068946 0.29627657 0.050249297 -0.08762926 -0.08279391 0.11816343 0.2353857 0.26755077 -0.030428085 -0.07432405 -0.21915804 -0.16633166 0.06189393 0.03236209 -0.15769935 0.048499182 0.10664999 -0.048976094 0.043454703 -0.015240476 -0.08677149 0.013316502 0.04821784 0.05644237 0.01883694 -0.0620503 -0.121754244 -0.04269032 0.07227559 -0.0140016135 -0.07782265 -0.00035906996 -0.024812732 0.1095689 -0.060940795 -0.0262226 -0.07034061 -0.06832119 -0.07589444 0.033632584 -0.16936332 -0.028376281 0.098914154 -0.08870385 0.1007588 -0.15669401 -0.1323133 -0.029400034 -0.03326573 -0.09793037 0.014455193 0.13276827 -0.06088263 -0.042983193 -0.06372707 0.06564469 0.06177186 -0.12675448 -0.12472612
opencc 0.044729516 0.17797485 -0.051262524 0.050609313 -0.15936008 0.0028671864 -0.10102594 0.24311803 -0.19869271 0.0035703229 -0.291026 0.046017077 0.076116785 0.08604931 0.05687409 -0.1591329 -0.062651925 -0.23994073 -0.06104665 -0.06517022 -0.041233458 0.25067183 0.2268868 0.18586881 0.13179053 0.08662535 -0.16357064 -0.088086925 -0.288704 -0.07896804 -0.0026633705 -0.00725633 0.03998737 0.027684279 0.008392949 -0.06081634 0.048044134 -0.11820036 0.037834335 0.17674516 0.00944714 -0.061735053 0.3460116 0.053850472 -0.09400398 -0.081174836 0.14189024 0.2647777 0.30400264 -0.05247133 -0.09078874 -0.24068712 -0.18472773 0.05585913 0.02909293 -0.1930224 0.04762229 0.1278819 -0.048782084 0.038440783 -0.020779006 -0.06760808 0.020556042 0.048746765 0.05768374 0.007496541 -0.0752579 -0.16564307 -0.03614787 0.04920544 -0.032022674 -0.06218459 0.010108556 -0.034508027 0.116084374 -0.052688267 -0.020557873 -0.0711814 -0.05887457 -0.06726222 0.016745033 -0.22031587 -0.024911715 0.09965401 -0.11264302 0.11267344 -0.16322373 -0.1625547 -0.040514357 -0.05228974 -0.1205818 0.029584836 0.13337046 -0.055755764 -0.046078596 -0.08059144 0.06862548 0.068475336 -0.14047381 -0.1481976
ltp 0.036385197 0.17192097 -0.041747466 0.0586007 -0.1388771 -0.007673252 -0.093337856 0.2402712 -0.19856931 0.0003671867 -0.2817114 0.035215322 0.08432965 0.07416206 0.05818024 -0.13091648 -0.05587403 -0.22454649 -0.034160793 -0.060798526 -0.049873415 0.2222435 0.20797351 0.15606737 0.115764 0.06453954 -0.14969292 -0.093433484 -0.27325657 -0.05619628 -0.014775715 -0.0067992928 0.035619237 0.021394359 0.018828958 -0.058934715 0.0421548 -0.11310618 0.05540009 0.14295861 0.006587275 -0.046796862 0.32746875 0.03250736 -0.07628951 -0.0886273 0.134849 0.24079975 0.29107478 -0.04109278 -0.09311836 -0.21995653 -0.16283353 0.056652658 0.02536708 -0.16520981 0.033630997 0.12446402 -0.051129244 0.04840064 0.0041318713 -0.08073447 0.015676405 0.044955336 0.074076414 0.019939758 -0.07010596 -0.14285174 -0.03614656 0.06299044 -0.018572632 -0.07905924 0.007369879 -0.012815973 0.10510049 -0.06755195 -0.016230663 -0.06315589 -0.07982964 -0.07455682 0.0297923 -0.20346764 -0.020459322 0.116577946 -0.10409755 0.11989423 -0.15485243 -0.13963632 -0.026225692 -0.041147407 -0.103108026 0.02722784 0.123714015 -0.053750217 -0.027859723 -0.0630231 0.05234401 0.05982471 -0.1412156 -0.13533652
jieba 0.043669138 0.1800973 -0.057110414 0.075844936 -0.15235215 -0.014921141 -0.09683958 0.23900598 -0.19777821 0.011937549 -0.28631973 0.05109086 0.083984956 0.08156886 0.0693083 -0.13769467 -0.06534916 -0.25262368 -0.04587944 -0.06194178 -0.04545869 0.2241664 0.23833336 0.15796031 0.11894914 0.07907453 -0.16482201 -0.095583424 -0.28722158 -0.06354891 -0.006964212 -0.017946795 0.042502176 0.018540684 0.0025972533 -0.043654542 0.041965704 -0.13013582 0.039427 0.15936135 0.010569133 -0.06945742 0.32704794 0.050413102 -0.09856702 -0.07162337 0.14017092 0.26638338 0.30106714 -0.039105322 -0.07403506 -0.24638301 -0.17620234 0.064612515 0.032647826 -0.18741041 0.056458786 0.11086134 -0.05718377 0.039963856 -0.012724687 -0.096581414 0.015646758 0.05008989 0.07395185 0.022339206 -0.062006373 -0.14790265 -0.051078837 0.052527398 -0.019370623 -0.07339034 -0.0029172967 -0.023947453 0.12145884 -0.054461695 -0.034981668 -0.07351114 -0.07580844 -0.079446375 0.03702586 -0.20399122 -0.0423649 0.09709848 -0.11277261 0.11239104 -0.17727326 -0.14915675 -0.032479238 -0.04632544 -0.121767305 0.026100516 0.14664774 -0.07016899 -0.03157952 -0.07622878 0.05642715 0.06414671 -0.15135297 -0.14239673
sentence_transformers 0.03413195 0.17783007 -0.088331856 0.06213997 -0.16257328 -0.0244291 -0.10487227 0.26158997 -0.20372157 0.004524689 -0.30812025 0.06868679 0.087210484 0.0920113 0.069959104 -0.14943522 -0.06778449 -0.27815282 -0.056316428 -0.06630316 -0.04699636 0.2681065 0.256421 0.1806505 0.12684071 0.093008205 -0.16733597 -0.09092315 -0.3142128 -0.055910777 -0.020356111 -0.014640203 0.060205024 0.019795164 0.027891373 -0.082821906 0.03668085 -0.13389091 0.054284364 0.17361133 0.003999544 -0.082509056 0.35344613 0.059359625 -0.08730955 -0.09105731 0.14509338 0.289199 0.33276325 -0.05491024 -0.076592706 -0.25822273 -0.20152266 0.07831713 0.019160144 -0.19222572 0.052523583 0.13656652 -0.041377053 0.065812476 -0.028402481 -0.07997257 0.007058678 0.05440439 0.06493909 0.0128671 -0.06570937 -0.1661398 -0.037189994 0.07181366 -0.024522599 -0.07049894 0.006801067 -0.0398921 0.14379759 -0.06061661 -0.026055034 -0.09862853 -0.09009946 -0.08119383 0.033271752 -0.22209069 -0.030170722 0.106764264 -0.11412877 0.14595218 -0.18047594 -0.162555 -0.042807437 -0.037752673 -0.13767132 0.028421966 0.14470941 -0.08512451 -0.039775606 -0.09673867 0.0662197 0.07509664 -0.14556381 -0.1572761
subprocess 0.047819726 0.20357978 -0.082191125 0.0639694 -0.18108222 -0.0135803595 -0.09362503 0.2679342 -0.20933522 -0.008733089 -0.27882293 0.053075228 0.09928618 0.08711023 0.08396169 -0.1309034 -0.08965186 -0.2630638 -0.033966646 -0.079152934 -0.049405474 0.23417898 0.27189615 0.17534673 0.12000891 0.08981296 -0.1647864 -0.122680716 -0.28834358 -0.06810379 -0.018054668 -0.017196108 0.047453586 0.016248917 0.022242913 -0.05229461 0.031533774 -0.11024055 0.055695344 0.1670161 0.014051163 -0.09048222 0.3457072 0.061133545 -0.09103364 -0.08493118 0.15406011 0.2641012 0.29576746 -0.056764096 -0.08188215 -0.23361726 -0.20649679 0.06719938 0.006493042 -0.20015529 0.030700842 0.096129745 -0.052379917 0.037982862 -0.018715885 -0.108924046 0.032752063 0.07479898 0.06627354 0.02851889 -0.06626333 -0.15582924 -0.05643166 0.0840389 -0.032722294 -0.08129743 0.006885521 -0.042265907 0.11641305 -0.038562756 -0.05973106 -0.10295576 -0.054406215 -0.07589246 0.033736188 -0.19978158 -0.025572652 0.07923747 -0.10404021 0.11933118 -0.19079319 -0.14058864 -0.024805067 -0.06674042 -0.1377092 0.027012484 0.1416495 -0.07381659 -0.046147365 -0.080378935 0.059853446 0.08367011 -0.15444568 -0.12952001
scipy 0.03037858 0.12761134 -0.06924394 0.054794207 -0.13768122 -0.007711055 -0.08687699 0.16742906 -0.16670309 0.022173336 -0.21379635 0.05063453 0.094366394 0.047676697 0.05746566 -0.08422074 -0.05326013 -0.19120856 -0.044294193 -0.06705377 -0.040419832 0.16484155 0.21047474 0.12392226 0.08802151 0.062499832 -0.13141479 -0.09398021 -0.22254018 -0.054743625 -0.011745745 -0.0064988467 0.023675239 0.032927822 0.0041343835 -0.041148342 0.021841189 -0.10672984 0.037520815 0.1469565 0.024435274 -0.053868737 0.23165752 0.040418785 -0.06817832 -0.057732172 0.09940211 0.18911572 0.22915481 -0.02722091 -0.05706537 -0.18397239 -0.14825605 0.06235831 0.018016754 -0.13707459 0.021968232 0.07553985 -0.046554137 0.032012004 0.008589382 -0.07360823 0.016716173 0.06315539 0.043751527 0.028456142 -0.05042905 -0.12564792 -0.03539668 0.041982446 0.003498926 -0.068008415 -0.0014272048 -0.035029918 0.09452836 -0.032145713 -0.034938265 -0.07160679 -0.031228883 -0.06342088 0.059785224 -0.151954 -0.028155902 0.07727776 -0.060006965 0.07390554 -0.12743844 -0.0842139 -0.0033521177 -0.032356072 -0.10982065 0.022062719 0.12433701 -0.062534094 -0.03490192 -0.07030167 0.0488191 0.061018024 -0.118875496 -0.082561895
threading 0.030208582 0.22985543 -0.1472556 0.1223009 -0.22794269 0.004803452 -0.11964929 0.27311304 -0.235654 0.008832199 -0.30270982 0.09519123 0.12766561 0.052847516 0.10702177 -0.12496009 -0.08971173 -0.27860096 -0.07927425 -0.105337396 -0.032916706 0.26637393 0.32937995 0.1816524 0.11821949 0.08389737 -0.16427869 -0.15382986 -0.31244463 -0.13190058 -0.026230967 -0.020980297 0.02273481 0.047953878 0.003244871 -0.037439793 0.012834665 -0.12177734 0.03631299 0.23935333 0.062073544 -0.09373537 0.35153782 0.073406525 -0.10889081 -0.09545576 0.15504457 0.31996205 0.36444095 -0.053794008 -0.066990666 -0.3207654 -0.22584595 0.10230506 0.009529316 -0.2011401 0.0744741 0.08411848 -0.06313798 0.022889042 -0.01871922 -0.15402332 0.08553888 0.081343845 0.054073546 0.032702763 -0.07926341 -0.20243977 -0.04589876 0.0919985 0.009903566 -0.090024084 0.011144931 -0.053958695 0.13200109 -0.04663378 -0.074977614 -0.111558385 -0.04667367 -0.08186941 0.109111324 -0.25752836 -0.0728813 0.064552024 -0.10272058 0.1029225 -0.20465502 -0.079020575 0.038107596 -0.06350747 -0.18944514 0.036170598 0.19921257 -0.053072043 -0.050883427 -0.15947719 0.08199242 0.0885933 -0.15744595 -0.12186793
pyarrow 0.017432226 0.21993668 -0.14204675 0.102798045 -0.23112127 0.015729338 -0.10932306 0.27438593 -0.2485887 0.009460425 -0.28316683 0.090974614 0.124427296 0.055057555 0.09960512 -0.11116078 -0.096721336 -0.27992138 -0.06673435 -0.0911706 -0.027391434 0.25518307 0.33049724 0.17622994 0.10954612 0.0678243 -0.17279458 -0.16886628 -0.32675007 -0.12932946 -0.025274148 -0.040735234 0.02126858 0.06142058 -0.00079305854 -0.053844653 0.006080505 -0.1350011 0.029657725 0.23941112 0.057459116 -0.08293181 0.34023678 0.08281278 -0.12148528 -0.09992808 0.15571512 0.32552108 0.35429806 -0.052185293 -0.06534636 -0.30814958 -0.21404485 0.10923353 -0.0019592063 -0.2104672 0.07001363 0.0881475 -0.076660186 0.024285803 -0.030155644 -0.16494992 0.07008662 0.09702064 0.064885184 0.02326087 -0.08031871 -0.2016862 -0.032831203 0.075403 0.017927121 -0.0871855 0.010367214 -0.067469575 0.14380176 -0.032161377 -0.07255419 -0.10420062 -0.037488267 -0.095338635 0.107572384 -0.24298531 -0.07774052 0.06536623 -0.091144204 0.10969296 -0.20286892 -0.08952184 0.04092606 -0.059984364 -0.1900155 0.028009031 0.20679687 -0.05776787 -0.06390599 -0.16363022 0.08345221 0.09038116 -0.15542203 -0.11803361
heapq 0.02651578 0.19800216 -0.13217074 0.10164892 -0.19024038 -0.0013331996 -0.11159108 0.24632974 -0.2171706 0.017695928 -0.27040485 0.0851865 0.12585059 0.050963443 0.09866656 -0.1127941 -0.09112586 -0.2654253 -0.06601532 -0.100761116 -0.020019375 0.22837435 0.2910986 0.1672758 0.11550679 0.07494016 -0.14993773 -0.1516515 -0.2861687 -0.10059009 -0.019537864 -0.025604516 0.016330522 0.050108206 0.0184915 -0.041311614 0.017965987 -0.122714095 0.018361893 0.21665296 0.05314405 -0.06613587 0.3286444 0.06603389 -0.08926966 -0.09161159 0.1454896 0.2894376 0.3418424 -0.045153923 -0.06936762 -0.291872 -0.20259708 0.0962026 0.004180448 -0.18922625 0.058417927 0.09443037 -0.068309575 0.026013406 -0.01359015 -0.14101996 0.07248315 0.093957715 0.055352487 0.025445748 -0.0702628 -0.18544932 -0.040285677 0.06711951 0.00101537 -0.096363865 0.008422075 -0.06831629 0.12521163 -0.03788188 -0.07008408 -0.09489048 -0.040582206 -0.076649226 0.09799298 -0.23671418 -0.070892364 0.07024655 -0.07532554 0.096131034 -0.19316669 -0.07992299 0.043296006 -0.068544164 -0.16521044 0.033863977 0.1726674 -0.06358186 -0.0537025 -0.13807331 0.0716733 0.07972116 -0.14396578 -0.10301263
enum 0.024013024 0.19703509 -0.122401685 0.09624467 -0.18924448 -0.009434231 -0.12572634 0.2770933 -0.2260513 0.013448595 -0.30778426 0.088184446 0.12379628 0.06469601 0.09979285 -0.13654342 -0.08709682 -0.29374245 -0.05497064 -0.09486528 -0.043358713 0.26183972 0.30429772 0.19174226 0.10759257 0.09287465 -0.18268518 -0.13304856 -0.3258691 -0.08983602 -0.023024673 -0.011833009 0.042182144 0.049150657 0.014791209 -0.06315164 0.02199215 -0.12712361 0.049081597 0.21382284 0.023143847 -0.091945775 0.3599738 0.071756914 -0.111984156 -0.092092834 0.15279207 0.31535137 0.3460519 -0.046845447 -0.07219136 -0.26942363 -0.20378721 0.08204233 -0.004097924 -0.21089302 0.05263491 0.10017684 -0.06582978 0.040237464 -0.03170044 -0.12943365 0.047030434 0.08027408 0.06498595 0.021811886 -0.06898372 -0.17382772 -0.034338705 0.07391464 -0.014310582 -0.09376289 0.00753571 -0.0627979 0.13215412 -0.054132674 -0.060251176 -0.09925277 -0.053008966 -0.0807796 0.05927476 -0.23834224 -0.0601515 0.09390443 -0.09143674 0.12805384 -0.20526025 -0.13576719 0.014340275 -0.06459783 -0.16980605 0.02067187 0.16156481 -0.06800291 -0.04210916 -0.1286079 0.08290342 0.07018176 -0.1693848 -0.14752886
igraph 0.03541626 0.13109554 -0.062389508 0.048324652 -0.13623819 0.004322157 -0.08893018 0.16453624 -0.15227208 0.0148137435 -0.2169525 0.049739793 0.086471215 0.053917978 0.055296287 -0.10191284 -0.05517131 -0.18027547 -0.03770293 -0.04607128 -0.039040823 0.15899749 0.2021471 0.110082224 0.08888317 0.066280775 -0.1264413 -0.08176071 -0.21112934 -0.06991686 -0.0053651202 -0.019891951 0.035898212 0.025013737 0.007990414 -0.029160505 0.016057175 -0.09515782 0.03967957 0.14516784 0.031340457 -0.04769545 0.2372045 0.03142596 -0.05754099 -0.06265085 0.10015653 0.1864916 0.23921426 -0.03864615 -0.04474786 -0.19858113 -0.14641856 0.051724467 0.0081947595 -0.12957199 0.029422984 0.057132382 -0.041415967 0.03229815 -0.00015410803 -0.071283504 0.020146653 0.05545971 0.055409342 0.029304992 -0.051343977 -0.112459384 -0.03937977 0.053615768 -0.018476587 -0.06933597 0.009524228 -0.033755668 0.09011287 -0.02991119 -0.031400546 -0.07875609 -0.044975337 -0.07023302 0.05936234 -0.16011429 -0.03423678 0.06630128 -0.07333094 0.076828696 -0.13763873 -0.097456105 -0.01136148 -0.028419258 -0.09990442 0.031542856 0.11471588 -0.06457314 -0.029874394 -0.0646484 0.048453324 0.03953203 -0.10957039 -0.07555866
opencc-python-reimplemented 0.03773113 0.19522634 -0.07347546 0.054596353 -0.15285613 -0.00011327903 -0.092617854 0.25719348 -0.21368511 0.023189759 -0.29129273 0.06545761 0.08147374 0.06819581 0.0714553 -0.1572408 -0.080551274 -0.24010307 -0.0635286 -0.07270338 -0.029710937 0.24334098 0.24406667 0.17408234 0.12819853 0.07976409 -0.15874808 -0.11209835 -0.28530332 -0.072437085 -0.006291659 -0.023722658 0.044852287 0.03499666 0.003094571 -0.05084367 0.035831235 -0.12633838 0.045244496 0.17375302 0.017663846 -0.073675334 0.34321305 0.06930813 -0.102221966 -0.07206552 0.11693588 0.26670823 0.31817555 -0.058311556 -0.081558265 -0.24894506 -0.17268261 0.0670855 0.022414759 -0.17191692 0.05011713 0.1198191 -0.067130625 0.029866034 -0.0015139306 -0.076480724 0.02999818 0.04900548 0.053919476 0.02740174 -0.066874966 -0.17019266 -0.044499695 0.06192604 -0.021010093 -0.06328011 -0.0056137796 -0.03692159 0.10732415 -0.04174741 -0.028313909 -0.07539713 -0.0563012 -0.08594807 0.03718932 -0.22542904 -0.027689366 0.103784144 -0.09752668 0.11003876 -0.17490253 -0.1513904 -0.024097249 -0.051050052 -0.11614924 0.03387333 0.13658047 -0.07036524 -0.04380141 -0.094661415 0.054648045 0.078685 -0.13940135 -0.13199686
cv2 0.019202745 0.14102025 -0.07513152 0.05408776 -0.11824391 7.634506e-05 -0.086848415 0.18512717 -0.15850066 -0.0029245731 -0.21456233 0.053524844 0.079995394 0.054623786 0.051724747 -0.10232665 -0.059278492 -0.20004767 -0.041874994 -0.051418282 -0.042981688 0.16174822 0.19202197 0.11696714 0.08744491 0.046917472 -0.1293231 -0.08485728 -0.21262139 -0.059181076 -0.013138618 -0.009647343 0.027887488 0.017412692 0.010047015 -0.050643113 0.027778821 -0.08773085 0.028093798 0.12747578 0.008658927 -0.05119854 0.25297856 0.03097964 -0.07293892 -0.07888409 0.101589166 0.19276257 0.22646812 -0.034022335 -0.059717566 -0.18531047 -0.13543618 0.05926124 0.0028588844 -0.14071208 0.041570406 0.08217063 -0.043649282 0.037202474 -0.018204503 -0.0872178 0.020347485 0.04845556 0.057202537 0.0122230975 -0.040671386 -0.11532578 -0.028437283 0.042509988 -0.020722494 -0.05490222 0.010723384 -0.019168967 0.08762559 -0.05308782 -0.016742114 -0.06585457 -0.05440477 -0.0509115 0.046424493 -0.15662915 -0.025603743 0.079643905 -0.07768656 0.09253742 -0.13380235 -0.08929852 0.0015716399 -0.023563918 -0.09033641 0.0059344447 0.10744304 -0.05057342 -0.022762777 -0.06834683 0.051834706 0.042539824 -0.10312347 -0.10225888
jwt 0.021816794 0.21567015 -0.11361777 0.05943759 -0.20338064 -0.025310354 -0.13429737 0.29155278 -0.22006755 0.0015618702 -0.3304474 0.070483245 0.103276454 0.09445324 0.0743921 -0.14671606 -0.0933845 -0.31198445 -0.058750793 -0.097833194 -0.0497983 0.28035033 0.2988677 0.1746803 0.13400748 0.083279416 -0.19438827 -0.13041778 -0.327087 -0.07805074 -0.03650476 0.004567762 0.057573322 0.034220025 0.040225096 -0.049120307 0.04897204 -0.14968832 0.06496757 0.19468781 0.016772827 -0.08101094 0.34860706 0.0652279 -0.10972025 -0.11034014 0.14768392 0.3043891 0.34432167 -0.06331738 -0.08256955 -0.2628501 -0.19527246 0.09375418 0.014043044 -0.21379074 0.053616945 0.12076473 -0.059660826 0.041948598 -0.028527357 -0.11818249 0.025616288 0.060589135 0.07693373 0.025959413 -0.075861596 -0.18052532 -0.050503243 0.081190266 -0.03141024 -0.09321193 0.013505708 -0.052211855 0.1317428 -0.07040202 -0.051650275 -0.10727553 -0.087278835 -0.07668416 0.05736913 -0.22253203 -0.05167729 0.114603445 -0.13630766 0.14764923 -0.20309173 -0.15551819 -0.035134785 -0.044292595 -0.14437155 0.016005017 0.15808898 -0.09606157 -0.045212172 -0.098251 0.0805627 0.060047172 -0.15028837 -0.15701808
jinja2 0.033382006 0.16784771 -0.080351286 0.053243756 -0.15354215 -0.010084349 -0.086676665 0.23013845 -0.18546039 0.0028478904 -0.26083773 0.054752618 0.08654595 0.071157366 0.073228516 -0.10040128 -0.06660279 -0.23074542 -0.03988319 -0.070080854 -0.05444304 0.2074895 0.23622215 0.14229412 0.11161042 0.061716676 -0.14695305 -0.09621904 -0.2585077 -0.078324385 -0.030739343 0.0040889718 0.038838256 0.019351756 0.01061082 -0.054316573 0.04420532 -0.11841478 0.044534948 0.14739843 0.010266078 -0.071643464 0.29644158 0.036364343 -0.08516867 -0.08549012 0.11849086 0.22440094 0.27611598 -0.048391588 -0.067420706 -0.21232139 -0.1565349 0.056540255 0.013067898 -0.16807175 0.033595983 0.084732674 -0.043310963 0.027811313 -0.01663689 -0.096266024 0.015907152 0.06441788 0.06473259 0.034958556 -0.06234801 -0.1263003 -0.055640344 0.059268378 -0.015782757 -0.06845417 0.014266303 -0.035428055 0.09784758 -0.0424719 -0.04727961 -0.07636631 -0.05647889 -0.060582362 0.03998903 -0.16809113 -0.041568723 0.08069569 -0.104357064 0.11230369 -0.15034455 -0.10912126 -0.013083616 -0.048808426 -0.12134399 0.030021083 0.12988186 -0.07096459 -0.024156962 -0.063380584 0.05664589 0.062742464 -0.14187977 -0.1283412
tiktoken 0.036779944 0.23104107 -0.121392116 0.06507562 -0.20736083 -0.022582265 -0.1369439 0.33035582 -0.24441631 0.011064427 -0.3736212 0.08826734 0.11978647 0.08259891 0.095779695 -0.1827461 -0.077895135 -0.34798196 -0.049731273 -0.10238017 -0.061359588 0.3129728 0.32439 0.2044458 0.15980978 0.10076993 -0.20284742 -0.12337213 -0.3982468 -0.06841079 -0.034071703 -0.0125474725 0.08038528 0.04770689 0.045756545 -0.08372921 0.046713244 -0.16562729 0.0749426 0.20941822 -0.0015526142 -0.10530417 0.41697687 0.07351152 -0.115975164 -0.117220454 0.15968667 0.3334613 0.38654914 -0.06302671 -0.087892346 -0.30112076 -0.23731677 0.08767616 0.028525336 -0.23515418 0.06423185 0.13773885 -0.046776477 0.08152009 -0.04671775 -0.11033062 0.025802923 0.082760446 0.086159706 0.02617156 -0.09491897 -0.20582743 -0.04344408 0.08858497 -0.03431912 -0.10112291 0.0036073737 -0.043956682 0.15660837 -0.06883354 -0.04898854 -0.13025045 -0.110217854 -0.071540534 0.06317917 -0.26474217 -0.04936341 0.13232696 -0.14426263 0.17364138 -0.23331805 -0.19522013 -0.041257933 -0.054330755 -0.17282034 0.031003464 0.15512459 -0.1114217 -0.056677323 -0.10654779 0.08381536 0.07286462 -0.20180255 -0.17554305
openai 0.033309825 0.18844308 -0.09386881 0.06720533 -0.18449554 -0.02756855 -0.13558206 0.2805079 -0.22626083 -0.0011443968 -0.3448955 0.07058069 0.10104313 0.09414007 0.07844172 -0.15925555 -0.07483825 -0.3183364 -0.04096331 -0.08637207 -0.05862439 0.28861114 0.28194326 0.18143034 0.12799679 0.10242149 -0.19522507 -0.10122318 -0.33680567 -0.044397768 -0.01671014 -0.01632943 0.076628014 0.024595024 0.036226247 -0.07023476 0.04217806 -0.1315173 0.06350333 0.17452571 -0.006826093 -0.096746445 0.37710226 0.0624132 -0.08933396 -0.10822093 0.14858432 0.29055652 0.33494675 -0.041298084 -0.074779674 -0.266925 -0.21462955 0.07831837 0.03325988 -0.22544561 0.047123585 0.12376677 -0.047083586 0.074541055 -0.03941761 -0.095518366 0.010796726 0.066473216 0.078998126 0.006158878 -0.065747544 -0.15393503 -0.036274523 0.08573913 -0.041027464 -0.07380568 0.009095204 -0.049618658 0.1555137 -0.075444974 -0.021626031 -0.11112107 -0.095316015 -0.0699176 0.037224617 -0.22554964 -0.027176587 0.115162835 -0.12810655 0.152373 -0.20242758 -0.179607 -0.038561884 -0.04802575 -0.14417918 0.011537784 0.14379154 -0.09713019 -0.052277733 -0.08262909 0.07389281 0.06430768 -0.17583631 -0.17137045
datasets 0.040478043 0.1779453 -0.06262986 0.06547509 -0.169325 -0.023090333 -0.11434901 0.25672287 -0.20984489 0.018421814 -0.304752 0.05977688 0.083494194 0.08936877 0.0791679 -0.13822824 -0.07075866 -0.27948463 -0.041216403 -0.07054278 -0.03965115 0.25202253 0.24735118 0.18151611 0.13077919 0.07852646 -0.17941923 -0.103286594 -0.30468652 -0.056855183 -0.026971232 -0.020912234 0.058927808 0.032406725 0.011721175 -0.069046594 0.027535252 -0.12391154 0.062196173 0.17262168 0.0059669465 -0.072143205 0.35182866 0.055757355 -0.08912334 -0.08453331 0.138982 0.27823693 0.3102044 -0.03761649 -0.0880856 -0.25276068 -0.19698349 0.06903615 0.033746645 -0.19667754 0.0366245 0.13233203 -0.038309056 0.06082199 -0.019563582 -0.08482313 -0.0002546497 0.048453584 0.08128668 0.011676189 -0.06201892 -0.14882538 -0.0466248 0.060147163 -0.022205535 -0.08494982 0.0072736093 -0.025248846 0.13425796 -0.056758285 -0.032721415 -0.09798693 -0.08698393 -0.07638336 0.028662454 -0.1965521 -0.03954732 0.118396506 -0.1135129 0.13575153 -0.1841292 -0.16152942 -0.031549416 -0.046307545 -0.115451135 0.01180246 0.12471823 -0.069431506 -0.041111715 -0.09364932 0.077681474 0.054389667 -0.14135411 -0.14329192
difflib 0.04526502 0.18926567 -0.08375343 0.071316324 -0.16908233 -0.018908892 -0.10668773 0.24073574 -0.18312593 -0.0017216839 -0.28096756 0.049790468 0.10096011 0.07117923 0.07513252 -0.120977685 -0.07599542 -0.23947592 -0.03734526 -0.0602618 -0.049552646 0.23415938 0.25295007 0.14768001 0.10926134 0.07453689 -0.16824254 -0.112758555 -0.26712042 -0.0742946 -0.028986702 -0.009421646 0.037786532 0.018630955 0.00990995 -0.042695034 0.04347127 -0.11267006 0.047084212 0.17153244 0.021625834 -0.08512062 0.32553703 0.0437407 -0.10098505 -0.08954201 0.13843839 0.24090184 0.27906242 -0.054995272 -0.07393067 -0.21069619 -0.18575755 0.056446645 0.0076452536 -0.1850991 0.026979614 0.10182658 -0.05150551 0.036913943 -0.0066539557 -0.09475406 0.016978217 0.05707611 0.05713876 0.03139409 -0.07326077 -0.15535198 -0.042561322 0.067722164 -0.03266664 -0.0656228 -0.0032101257 -0.027520921 0.122138605 -0.053003095 -0.04010112 -0.088375814 -0.05928658 -0.084300786 0.034322556 -0.19696417 -0.029827429 0.078580074 -0.10098948 0.12043506 -0.15602455 -0.13106665 -0.032242976 -0.046318013 -0.13466099 0.013700253 0.14727053 -0.05632066 -0.031072993 -0.06771566 0.05183459 0.056540295 -0.14989516 -0.14062299
networkit 0.037793845 0.12187693 -0.06727051 0.068723805 -0.120901495 -0.008524103 -0.08154081 0.17731678 -0.14832161 0.011746712 -0.21745472 0.06043027 0.09315426 0.05598894 0.049790103 -0.093221106 -0.048361726 -0.17676282 -0.043734286 -0.065842055 -0.029479057 0.17883022 0.21461311 0.11029431 0.08475702 0.05958997 -0.13408113 -0.07697805 -0.22544229 -0.060510587 -0.0047529875 -0.011353891 0.034144916 0.015790805 0.022508578 -0.03582305 0.013242809 -0.1036939 0.024946226 0.14157349 0.020971451 -0.049096335 0.23751892 0.03101266 -0.05989111 -0.06569172 0.10279833 0.18870513 0.24910423 -0.03936407 -0.061348706 -0.20018524 -0.13237251 0.06512971 0.0017346584 -0.13132577 0.033088002 0.058516942 -0.040793356 0.035994045 0.010718945 -0.067642234 0.015756562 0.04924698 0.05052953 0.016552512 -0.05053334 -0.13241604 -0.044100165 0.03760482 -0.013368325 -0.05660269 -0.004661325 -0.024227094 0.084032774 -0.042760033 -0.039624494 -0.06967692 -0.04789663 -0.07404325 0.060058985 -0.15341875 -0.03897961 0.07251721 -0.057418868 0.07464615 -0.13100277 -0.103365876 -0.0057958066 -0.035733446 -0.1083913 0.036502 0.12950696 -0.06528177 -0.03129723 -0.082252525 0.04706774 0.04474045 -0.110800855 -0.08296802
works 0.028852593 0.14297651 -0.089043036 0.071716934 -0.13519542 0.0042018383 -0.08497407 0.19394892 -0.16651762 0.01817836 -0.22594409 0.05080929 0.0882832 0.054326214 0.07126836 -0.09814917 -0.051050924 -0.20487265 -0.042025793 -0.050895378 -0.029037809 0.18445562 0.22545664 0.13716958 0.08980696 0.05692684 -0.1318893 -0.095824435 -0.22057948 -0.07257377 -0.020204097 -0.023576617 0.025289096 0.02160549 0.023268607 -0.036112953 0.013432572 -0.109968044 0.03593237 0.1594519 0.034716267 -0.06236967 0.24015081 0.036044996 -0.06749162 -0.061514653 0.10989684 0.20223515 0.24120559 -0.027488051 -0.040729173 -0.19788337 -0.1578082 0.054369137 -0.0023990094 -0.13904557 0.04582436 0.07291924 -0.046451986 0.03516367 -0.01664254 -0.0799872 0.04131549 0.063459985 0.060313456 0.02577386 -0.05586101 -0.13287854 -0.025073463 0.055941723 -0.011783305 -0.055021305 -0.0069036097 -0.03554182 0.08688783 -0.025932407 -0.045336977 -0.08057094 -0.03669663 -0.057669606 0.056134157 -0.15433401 -0.041358493 0.057455372 -0.08051157 0.076703586 -0.13444965 -0.08795967 0.0013918041 -0.041007806 -0.10564314 0.025240822 0.11504782 -0.066839464 -0.034613922 -0.09182398 0.061205607 0.05805928 -0.105202936 -0.08700356
unicodedata 0.021467296 0.2066661 -0.10070791 0.10127605 -0.20365669 0.0037929865 -0.11389706 0.26855463 -0.21560761 0.0068711285 -0.27577767 0.06571932 0.10881319 0.07497756 0.095100544 -0.13700992 -0.09286506 -0.27101818 -0.04280961 -0.08158629 -0.03101134 0.25166816 0.29510164 0.17845765 0.11895111 0.06291199 -0.16421987 -0.13000832 -0.30559033 -0.118160926 -0.024156034 -0.01081515 0.043999553 0.04854451 0.015262551 -0.03859334 0.039210003 -0.12260838 0.035085104 0.19246702 0.034457963 -0.07332946 0.35910362 0.070733264 -0.12344887 -0.085120805 0.14500958 0.28718004 0.3354679 -0.050713617 -0.081331134 -0.29191738 -0.20050739 0.079249784 0.011517308 -0.20555142 0.052232847 0.10795743 -0.056839604 0.053422414 -0.0039986777 -0.13443464 0.069563545 0.0756866 0.07246245 0.01320807 -0.0841808 -0.18533672 -0.06574783 0.08943983 0.013481383 -0.09033894 0.013836841 -0.03855121 0.13657917 -0.050973773 -0.051184807 -0.116271555 -0.04465544 -0.081012584 0.08756288 -0.22117758 -0.076836236 0.08404944 -0.11814118 0.10588702 -0.17337793 -0.10273354 0.017488768 -0.051235143 -0.15068777 0.030628573 0.19081262 -0.0627467 -0.04765482 -0.13014013 0.08479941 0.086392306 -0.14177865 -0.12600754
rapidfuzz 0.018924048 0.19483021 -0.098226935 0.101497345 -0.18892641 0.009226136 -0.110098615 0.2695904 -0.21735838 0.001074756 -0.28029132 0.05364602 0.12313076 0.08511894 0.09025612 -0.12090618 -0.09280353 -0.26878998 -0.04209512 -0.07766916 -0.033982635 0.24104685 0.29639855 0.17119825 0.13063931 0.06314787 -0.16878873 -0.14028502 -0.29324675 -0.11692907 -0.013836289 -0.008326387 0.03230614 0.034090362 0.009256097 -0.04479556 0.040241525 -0.12781976 0.049508914 0.1878683 0.022440685 -0.07824331 0.35213065 0.0593415 -0.10801195 -0.09365458 0.15291062 0.28703094 0.34148186 -0.03960349 -0.080799885 -0.2896233 -0.19729762 0.09547535 0.008907103 -0.19199663 0.0715975 0.1272772 -0.07195777 0.049539097 0.0011223258 -0.13176458 0.059079535 0.08569627 0.06472654 0.025547463 -0.07870177 -0.19340475 -0.06563007 0.09487247 0.014467343 -0.087431185 0.001450348 -0.036227472 0.12260806 -0.0665616 -0.050655924 -0.1172633 -0.052256756 -0.083586596 0.07598519 -0.23197201 -0.0817206 0.08918098 -0.118562646 0.11607778 -0.17259046 -0.12241232 -0.0037626862 -0.05708729 -0.14329398 0.02808585 0.17291449 -0.05636372 -0.05142462 -0.1289694 0.08042357 0.07543655 -0.13634183 -0.13296232
tracemalloc 0.029910285 0.20158653 -0.12056325 0.09088674 -0.20619588 0.00288691 -0.104845546 0.2677035 -0.2239288 0.0041389302 -0.28268954 0.07911471 0.12686469 0.056668 0.08394364 -0.12708455 -0.08773833 -0.27176866 -0.05373909 -0.100548156 -0.03128709 0.24845181 0.29449987 0.17573735 0.1076683 0.077235416 -0.16727537 -0.14037605 -0.29716554 -0.100776255 -0.02466554 -0.02317193 0.032462593 0.030236622 0.018489994 -0.053837728 0.022339173 -0.12129141 0.026021944 0.21643941 0.03622109 -0.087195724 0.3370555 0.06811067 -0.10038392 -0.08762715 0.14488573 0.29821742 0.3305508 -0.051168304 -0.07596112 -0.27243546 -0.2093579 0.09513051 0.014955391 -0.18624046 0.067062505 0.09327314 -0.0703888 0.04135034 -0.01862181 -0.14366804 0.047181554 0.08540085 0.056325167 0.017280579 -0.06951931 -0.18414731 -0.047108274 0.061994325 0.0029079956 -0.08593033 0.014031735 -0.056468107 0.120356776 -0.051961474 -0.06644548 -0.106580466 -0.06117692 -0.0847662 0.08464621 -0.2202059 -0.056072745 0.08741098 -0.09572911 0.11781304 -0.17899382 -0.11384147 0.021690106 -0.06342754 -0.1510198 0.03837694 0.17372891 -0.07075543 -0.051871452 -0.13132778 0.08787152 0.08859629 -0.14269377 -0.112384945
tempfile 0.030264908 0.19155574 -0.09182588 0.09446528 -0.18815772 -0.0023675545 -0.099758014 0.2530294 -0.21465681 -0.008915057 -0.28601316 0.058381442 0.10903503 0.07157557 0.09575828 -0.12505645 -0.073068835 -0.24968754 -0.06821646 -0.086530074 -0.041848503 0.2445252 0.28891525 0.17508414 0.111228585 0.073524944 -0.16172631 -0.12845045 -0.29530534 -0.104949795 -0.028087547 -0.021580823 0.02527333 0.0316186 0.0034191464 -0.033551853 0.023754122 -0.10562779 0.043193724 0.2056535 0.035715643 -0.06640445 0.34030756 0.075428054 -0.108092174 -0.0943595 0.15036659 0.29375055 0.33073336 -0.045688212 -0.08099348 -0.26746312 -0.19577184 0.08556282 0.0036436468 -0.19736479 0.04446031 0.09033015 -0.06002739 0.02018417 0.0012872466 -0.14083205 0.051537283 0.07253443 0.067000076 0.03404586 -0.06952762 -0.16532753 -0.037876427 0.070168056 -0.008448781 -0.08192147 -0.005139124 -0.047513146 0.12571594 -0.049277615 -0.06118754 -0.08661002 -0.05114591 -0.09252104 0.07305762 -0.21958336 -0.04781877 0.08180494 -0.08498733 0.108806 -0.18685706 -0.09807181 0.0068755927 -0.06486001 -0.14266753 0.03914659 0.16642463 -0.04901102 -0.03608279 -0.11204263 0.06355083 0.08148483 -0.15160806 -0.11579457
string 0.012060547 0.23731127 -0.14226209 0.11353955 -0.23224153 0.017774707 -0.11753672 0.28044093 -0.2517629 0.005378483 -0.28297928 0.089806065 0.12934223 0.06113415 0.10204501 -0.124521665 -0.09273741 -0.2929313 -0.057032473 -0.1045074 -0.039866146 0.26533955 0.33473605 0.18232459 0.13164423 0.06890108 -0.16326772 -0.1675261 -0.32523915 -0.13703057 -0.013753982 -0.019155428 0.024775598 0.06189663 0.016042987 -0.046769828 0.025421547 -0.12713632 0.025235282 0.22777198 0.04584827 -0.07700553 0.36587515 0.07487577 -0.12846474 -0.09973506 0.15903303 0.31657138 0.366473 -0.050963767 -0.07694279 -0.3181487 -0.23636402 0.10487187 0.01354459 -0.20457757 0.07728178 0.109717146 -0.0842269 0.029027782 -0.0028257908 -0.15825836 0.084408656 0.10383163 0.052648142 0.01789558 -0.09434694 -0.20167574 -0.051888745 0.083623976 0.025368087 -0.09118807 0.004331765 -0.061943755 0.14448196 -0.043007668 -0.079303704 -0.12516083 -0.04558354 -0.090780035 0.099353336 -0.24600933 -0.08866379 0.07142796 -0.12092057 0.122802675 -0.20594966 -0.07944483 0.036685035 -0.061115876 -0.18702507 0.02654434 0.21645454 -0.052542347 -0.05935601 -0.1704275 0.10143834 0.08765047 -0.13986653 -0.11219718
statistics 0.02814839 0.22992927 -0.12199398 0.112105705 -0.232925 0.004093195 -0.11023669 0.2808586 -0.23608927 0.0127722565 -0.30282885 0.07602113 0.13387817 0.07766943 0.09169743 -0.13258167 -0.097735226 -0.29148972 -0.061427657 -0.0930567 -0.03112309 0.2646032 0.31168616 0.17524983 0.11892755 0.06516696 -0.1587363 -0.16553105 -0.31917208 -0.12199525 -0.0041408404 -0.027767247 0.02310078 0.050655097 0.01588432 -0.01931245 0.02241949 -0.14133549 0.029441684 0.22503604 0.044694684 -0.07714031 0.3676639 0.07761757 -0.12671211 -0.10225725 0.16076644 0.30520415 0.3651751 -0.06470549 -0.0790255 -0.30302805 -0.21213621 0.10774882 0.0044284663 -0.2162886 0.060520243 0.106754884 -0.076463275 0.04206722 0.0043270504 -0.17231604 0.08050943 0.088698834 0.05221618 0.027925795 -0.0933478 -0.20308286 -0.05297311 0.08413467 0.014958745 -0.09826007 0.0145944785 -0.062825255 0.12265392 -0.05519917 -0.07246244 -0.10909854 -0.057283826 -0.08784351 0.11023062 -0.2588546 -0.08400465 0.08361947 -0.11238193 0.10872903 -0.20318696 -0.09197314 0.036049213 -0.072142765 -0.17563261 0.038666986 0.19674362 -0.06862994 -0.05077673 -0.15269274 0.092219226 0.08645823 -0.13743179 -0.13205652
sortedcontainers 0.03627595 0.20684575 -0.14952126 0.11451634 -0.21730264 0.014851913 -0.1221291 0.2526089 -0.23238668 0.020200126 -0.28709742 0.09204549 0.13772465 0.065697856 0.1024392 -0.1128869 -0.08944718 -0.27700016 -0.06817822 -0.09936974 -0.032859135 0.25561145 0.32539305 0.18970734 0.116478294 0.06338945 -0.15967804 -0.16483212 -0.32420635 -0.13290949 -0.02134004 -0.019154608 0.027540535 0.04911027 -0.0012224055 -0.03875601 0.0049192347 -0.11570263 0.03193206 0.24136373 0.050385714 -0.089557454 0.3341888 0.08560974 -0.11763529 -0.090556204 0.14458011 0.30415827 0.3447457 -0.049562883 -0.0620554 -0.30521998 -0.21428826 0.10700842 0.0010652089 -0.20214422 0.055174284 0.08238326 -0.06766563 0.012773115 -0.01888068 -0.16611351 0.08033015 0.07975614 0.047103416 0.03126361 -0.0831374 -0.19549218 -0.04583642 0.0728785 0.01797477 -0.08843757 -0.0007333905 -0.058528744 0.13735706 -0.033717442 -0.0747405 -0.1003294 -0.041706264 -0.08905635 0.09957571 -0.23526569 -0.06577675 0.056773096 -0.09479817 0.11527202 -0.2026788 -0.07320392 0.048858248 -0.06144115 -0.18531837 0.032978166 0.19584505 -0.055284455 -0.049692888 -0.1615834 0.08717142 0.092427075 -0.14028467 -0.10897804
polars 0.014432411 0.22932886 -0.15180086 0.12176269 -0.22075963 0.0072750314 -0.106726564 0.25682974 -0.22800943 0.0031481297 -0.26802167 0.07623369 0.13976263 0.04783526 0.10506612 -0.102728635 -0.08391126 -0.27542153 -0.055433366 -0.10648184 -0.035911333 0.2288221 0.3136123 0.18140282 0.09844431 0.066733554 -0.15103 -0.17355184 -0.29262578 -0.15096723 -0.013225843 -0.02962302 0.018882902 0.050661433 0.013111477 -0.025712175 0.0044203303 -0.11819856 0.0069595566 0.23996763 0.065125845 -0.07700834 0.33654165 0.07986934 -0.11514185 -0.10318352 0.16126569 0.3141843 0.36250103 -0.04106289 -0.05084173 -0.30306348 -0.22475602 0.105423525 -0.008745581 -0.20622548 0.07904923 0.09433725 -0.07807264 0.026442392 -0.015907811 -0.1815796 0.10203046 0.09610091 0.04872784 0.025635997 -0.087683156 -0.19104984 -0.03805855 0.09031124 0.026020657 -0.09341938 0.019281447 -0.057873346 0.12697664 -0.044345368 -0.07880391 -0.11298789 -0.025196139 -0.09670748 0.107423835 -0.2375614 -0.09145388 0.05322813 -0.095370956 0.098432064 -0.18155609 -0.07154117 0.060018435 -0.078560404 -0.1850576 0.03647379 0.216996 -0.055462826 -0.0575902 -0.17849252 0.077433445 0.09609934 -0.12910576 -0.10530301
mmap 0.026866462 0.21313846 -0.14808038 0.11357215 -0.22717234 0.019159399 -0.11407933 0.25838307 -0.23618174 0.017166963 -0.2900147 0.098002434 0.13387343 0.060977943 0.11704947 -0.11794137 -0.09700999 -0.27677715 -0.08212481 -0.10157065 -0.020080902 0.2517884 0.33211243 0.1813843 0.10541368 0.06641979 -0.15915658 -0.17154525 -0.31578526 -0.1307029 -0.014261902 -0.039856907 0.03405111 0.051763687 0.010338278 -0.038760144 0.008325388 -0.11430409 0.020025538 0.22395495 0.061501183 -0.07981097 0.34966955 0.07776023 -0.12323035 -0.11050111 0.15375063 0.3093468 0.36524978 -0.062453795 -0.05386339 -0.31645852 -0.22918399 0.10200813 -0.010786877 -0.20694086 0.06386819 0.08616136 -0.07111987 0.011360772 -0.02599122 -0.17227636 0.07446308 0.08451987 0.052491777 0.02819415 -0.081085056 -0.20049694 -0.041818988 0.0826186 0.013991732 -0.101899534 0.004146856 -0.075459264 0.13311045 -0.025031798 -0.079858035 -0.121165276 -0.03456549 -0.09510638 0.10031332 -0.25380483 -0.070451684 0.072621204 -0.09219654 0.114350736 -0.19738178 -0.07864282 0.047417786 -0.0591466 -0.17683144 0.022855936 0.19879737 -0.04604657 -0.06220861 -0.17261513 0.09630182 0.09132896 -0.14391278 -0.113629594
rustworkx 0.019855525 0.12846127 -0.07417664 0.0719211 -0.1315726 -0.0076378686 -0.08224335 0.18243343 -0.15499704 0.010082217 -0.20605719 0.055073496 0.078867055 0.065248854 0.06165773 -0.100176044 -0.0575315 -0.17824921 -0.04356697 -0.054628894 -0.026257075 0.17401908 0.21305194 0.1115916 0.088815026 0.056686826 -0.12931871 -0.08469744 -0.22542524 -0.06676297 -0.019844575 -0.02409257 0.033776037 0.016697925 0.00829999 -0.025990322 0.030790726 -0.10898421 0.020107694 0.14466852 0.03536812 -0.034763534 0.23612203 0.02327553 -0.05821175 -0.0689005 0.08548962 0.19880539 0.24075161 -0.043858282 -0.05659666 -0.19004616 -0.14401619 0.06131226 0.004543066 -0.13146335 0.03270915 0.06238148 -0.04234082 0.035396747 -0.0017093437 -0.07554286 0.02986336 0.04969414 0.06234926 0.026682984 -0.048153035 -0.11191209 -0.023211112 0.0525275 0.0023728095 -0.061402835 0.0068517136 -0.039552253 0.09437604 -0.038446516 -0.02759262 -0.08052916 -0.03076755 -0.07217566 0.045867443 -0.14475955 -0.030495789 0.05795437 -0.0707073 0.08144563 -0.11836909 -0.09417913 0.007847254 -0.042577773 -0.09804687 0.021435717 0.11251324 -0.060922243 -0.03128926 -0.0721755 0.037060626 0.06284919 -0.10174716 -0.07536618
weaviate 0.052034043 0.23099208 -0.13231832 0.07966115 -0.22809288 -0.045493275 -0.15611543 0.3569654 -0.25644374 0.009622031 -0.41035733 0.083302595 0.13245828 0.09114928 0.09533544 -0.2034515 -0.095724836 -0.38598952 -0.0510002 -0.08505235 -0.080694824 0.34539944 0.34482712 0.2354511 0.16760114 0.10219299 -0.22193277 -0.11746968 -0.43071976 -0.07718301 -0.024482703 -0.002486672 0.08442733 0.03424655 0.05512602 -0.103337176 0.036749937 -0.16986112 0.09071369 0.20660163 -0.006094445 -0.12012689 0.4350038 0.090923965 -0.12122516 -0.13600299 0.17289814 0.37357014 0.40469682 -0.06190633 -0.09714894 -0.3076695 -0.2601829 0.09320863 0.037364744 -0.2541666 0.04548128 0.15731312 -0.038333517 0.093001805 -0.054463215 -0.1135998 0.026626864 0.06861602 0.09928275 0.00602909 -0.0848011 -0.20093802 -0.06206145 0.08692403 -0.040230453 -0.10593594 0.013730733 -0.06292838 0.18565707 -0.07670464 -0.03588575 -0.14120181 -0.1248213 -0.07620207 0.0511743 -0.25732532 -0.037007514 0.15268461 -0.15834408 0.18336932 -0.23481911 -0.20638971 -0.037949644 -0.05561831 -0.18160899 0.021579562 0.17182651 -0.114341006 -0.07045324 -0.1160044 0.102591254 0.09082089 -0.20041277 -0.20644118
qdrant_client 0.045140404 0.24067421 -0.115862206 0.06714791 -0.21601222 -0.045011554 -0.15888253 0.3468079 -0.2652097 -0.0021546504 -0.39766982 0.09008696 0.12554699 0.10114566 0.09342791 -0.19611564 -0.09225826 -0.38300487 -0.046193637 -0.08468861 -0.07833892 0.32490557 0.32484436 0.22488733 0.1520493 0.115303874 -0.22554298 -0.10965373 -0.4109229 -0.06639473 -0.022752676 0.0013643516 0.094771445 0.045967992 0.039334424 -0.10731032 0.046611525 -0.17183612 0.08050506 0.20131499 -0.0068292925 -0.119674295 0.42878303 0.0883772 -0.10843737 -0.12739973 0.16686976 0.35271648 0.37274134 -0.06563707 -0.09540609 -0.31188068 -0.25012112 0.08050267 0.039042294 -0.24512978 0.037244536 0.15386161 -0.037133746 0.0833201 -0.05053959 -0.102671035 0.010923383 0.060985267 0.08957614 0.007101692 -0.08675015 -0.20134138 -0.06086085 0.107218765 -0.056815848 -0.092384666 0.021603115 -0.04723857 0.18210983 -0.09124645 -0.047245473 -0.13515039 -0.11850344 -0.06995862 0.051711097 -0.25696093 -0.047326647 0.1521031 -0.14536259 0.1935438 -0.24174094 -0.20768692 -0.053538065 -0.048769202 -0.17234112 0.028764153 0.14686212 -0.115959 -0.06456185 -0.09859858 0.094171435 0.08524111 -0.1969346 -0.20335089
pinecone 0.034727316 0.23766425 -0.11832809 0.060093045 -0.20569585 -0.03424417 -0.16281793 0.34364623 -0.25211516 0.008916823 -0.38344374 0.08198335 0.12290134 0.09993246 0.08539167 -0.19311027 -0.0798051 -0.3752177 -0.052313708 -0.09654051 -0.077588476 0.32912868 0.33421528 0.21540762 0.14322343 0.10122851 -0.22863948 -0.10701803 -0.41206723 -0.06869197 -0.04095256 -0.0057922397 0.09467339 0.03490871 0.04804205 -0.10298694 0.03313738 -0.15961166 0.06763064 0.20580752 -0.006141584 -0.12532087 0.4282464 0.094031714 -0.12250829 -0.11897586 0.1757532 0.3554719 0.3728135 -0.052989308 -0.10344221 -0.2929878 -0.24205625 0.080688916 0.019151537 -0.24767675 0.03710032 0.15180844 -0.033692304 0.07673926 -0.051914092 -0.11904687 0.008786843 0.060546055 0.085735954 0.017322754 -0.08906885 -0.18855213 -0.04643214 0.099957116 -0.045498375 -0.1032479 0.024238534 -0.05786894 0.17032634 -0.07944295 -0.037554134 -0.12789953 -0.10878809 -0.06667947 0.0417856 -0.24567088 -0.050498575 0.15212038 -0.1534744 0.19089855 -0.23992105 -0.19227679 -0.054261163 -0.054107916 -0.15507184 0.008786483 0.15106323 -0.1213317 -0.064667486 -0.10687865 0.09515607 0.06958294 -0.20695311 -0.20057419
llama_index 0.05120595 0.23155376 -0.12084141 0.06112082 -0.21953093 -0.029908098 -0.14158814 0.3340677 -0.25172773 0.007896311 -0.3901475 0.082472146 0.12116552 0.0914429 0.09592473 -0.17435884 -0.087271325 -0.36362666 -0.061819762 -0.077993736 -0.07293064 0.3124201 0.31996867 0.20186596 0.14158821 0.10901863 -0.21246466 -0.10947709 -0.40662766 -0.06339158 -0.03138934 -0.0022206875 0.07194583 0.02703561 0.048819583 -0.086648144 0.047909968 -0.16761293 0.08993385 0.1981307 0.0013969404 -0.11455203 0.42366096 0.07560588 -0.10132189 -0.12851869 0.17771426 0.33860216 0.3603546 -0.06941025 -0.08808761 -0.3009357 -0.24513707 0.08492244 0.02710507 -0.25249976 0.051904865 0.14985134 -0.03461277 0.09130593 -0.053033203 -0.112423815 0.010427174 0.07658707 0.092348404 0.0045540803 -0.07559264 -0.20042075 -0.055326294 0.09558717 -0.043979973 -0.08967405 0.017836902 -0.041485332 0.16631661 -0.088030204 -0.054250825 -0.11990613 -0.12656601 -0.07613888 0.033974137 -0.25128338 -0.03745949 0.1274309 -0.1423973 0.1910152 -0.23816988 -0.20483233 -0.04985832 -0.046998344 -0.16171195 0.021763913 0.13997532 -0.10395914 -0.0666935 -0.09551051 0.08031821 0.083056405 -0.19775821 -0.19248302
tqdm 0.038440857 0.2169205 -0.11889545 0.070651814 -0.20918918 -0.027284151 -0.12890631 0.31401736 -0.25232482 0.00472489 -0.37708104 0.07366511 0.10350846 0.07467077 0.09509205 -0.19623195 -0.08065992 -0.33101064 -0.05975305 -0.09637621 -0.055573553 0.3278047 0.30562508 0.22827885 0.16483739 0.09841683 -0.21868092 -0.108707346 -0.39865223 -0.0728768 -0.037593283 -0.00092162756 0.06695697 0.026519842 0.025739055 -0.09510159 0.047856033 -0.16963561 0.0720839 0.20834924 0.0014813876 -0.094256654 0.41972953 0.08693702 -0.121268615 -0.10661653 0.16315207 0.35154524 0.37170938 -0.060633656 -0.092814274 -0.3072698 -0.23843133 0.08811265 0.031772666 -0.23963878 0.056283496 0.12744519 -0.057328247 0.065641016 -0.03461368 -0.09120197 0.029876411 0.056499835 0.08863564 0.0166879 -0.07926187 -0.20716521 -0.069291905 0.073166214 -0.03236926 -0.10330617 0.01910814 -0.039439168 0.14801325 -0.05477818 -0.053232 -0.12818979 -0.0937264 -0.085567854 0.036328018 -0.26405382 -0.038202543 0.121724725 -0.14084546 0.16821033 -0.22845785 -0.18848674 -0.04872978 -0.054353546 -0.15061188 0.021466274 0.15166755 -0.101414345 -0.056855198 -0.11409486 0.08795342 0.06686057 -0.1905362 -0.16880345
zhconv 0.03829856 0.1983056 -0.08898221 0.079744406 -0.1639852 0.004888513 -0.09341827 0.26022714 -0.2095213 0.022081666 -0.2847824 0.057020735 0.08338168 0.057290677 0.0625761 -0.15802294 -0.08228936 -0.2676248 -0.04383208 -0.0885319 -0.03895407 0.24577793 0.251656 0.1830389 0.13860394 0.086898044 -0.15189856 -0.10862986 -0.2968608 -0.09165353 -0.0066127414 -0.0066037625 0.03573873 0.027899055 0.017737774 -0.07098393 0.043353878 -0.13516253 0.031355288 0.17566954 0.027027361 -0.08097431 0.3418128 0.06891532 -0.1083563 -0.07991838 0.12894961 0.2819118 0.3089202 -0.064357616 -0.07059049 -0.24429688 -0.17197797 0.075401 0.01555664 -0.19476515 0.044823524 0.11540185 -0.05762725 0.03694671 -0.025446199 -0.09455411 0.025711564 0.04578275 0.053271916 0.019442357 -0.0792808 -0.1820816 -0.04885155 0.054427214 -0.034134146 -0.08596507 0.0044163284 -0.024593905 0.113796316 -0.05071603 -0.044283316 -0.0966778 -0.05585317 -0.081809364 0.04861168 -0.20975202 -0.025415365 0.09940143 -0.102804616 0.12944567 -0.17120935 -0.1455128 -0.026982844 -0.060860757 -0.120950036 0.02955985 0.14436741 -0.07348953 -0.050000668 -0.09028017 0.071494535 0.07953485 -0.15295611 -0.13439344
xml 0.021947198 0.19549718 -0.09559134 0.08262373 -0.17967515 -0.010376891 -0.09339821 0.24240324 -0.19947267 -0.008313251 -0.27404022 0.06994865 0.09544277 0.059229027 0.08973621 -0.12202048 -0.08122504 -0.24592726 -0.05727194 -0.08969867 -0.052261133 0.22050343 0.25701618 0.16617973 0.10513097 0.06512037 -0.16571225 -0.12270926 -0.27143344 -0.09238589 -0.03060767 -0.022135716 0.03303922 0.025230829 0.025853876 -0.038866837 0.02164173 -0.101819225 0.034512762 0.17544074 0.03916238 -0.06413338 0.31671673 0.06406246 -0.10684177 -0.08124388 0.14318268 0.27424586 0.3047985 -0.041538946 -0.071093574 -0.24033989 -0.19928053 0.07569327 0.006993942 -0.18471615 0.039526686 0.08956383 -0.046803094 0.024931274 -0.008507802 -0.114019156 0.042057153 0.05883214 0.046499837 0.018206997 -0.07760078 -0.16990337 -0.049745776 0.061865523 -0.0009259257 -0.07372266 -0.007675845 -0.041392677 0.11015442 -0.04622566 -0.06343029 -0.10248251 -0.059208974 -0.07991577 0.05867893 -0.21383312 -0.04580134 0.08302148 -0.08754303 0.10915173 -0.17306419 -0.11108064 -0.0037235795 -0.056297816 -0.15259439 0.039075848 0.1519136 -0.053594697 -0.031957373 -0.10549256 0.076841585 0.0734361 -0.1496358 -0.13212661
hanziconv 0.029789438 0.19095324 -0.070793726 0.06008828 -0.15711942 -0.010305158 -0.08630396 0.25866187 -0.21290883 0.017086307 -0.28770003 0.04374109 0.09456679 0.057780474 0.05874192 -0.1577455 -0.069988824 -0.24367267 -0.05522511 -0.081463866 -0.048832055 0.24831626 0.24608403 0.18577223 0.12656942 0.079280876 -0.1501754 -0.09694866 -0.2893063 -0.07995427 -0.009934419 -0.024836158 0.036332224 0.03307882 0.018804854 -0.07028375 0.027170718 -0.13381453 0.048482504 0.16466686 0.010183143 -0.0806058 0.3445409 0.056672823 -0.08525389 -0.07165855 0.120288424 0.27407038 0.30590457 -0.048704054 -0.08541368 -0.23180054 -0.16670537 0.06355178 0.011504351 -0.1720455 0.05702074 0.11638184 -0.05445283 0.034152597 -0.024534335 -0.070343345 0.022308648 0.043711454 0.06499729 0.0062436033 -0.081939004 -0.1687794 -0.047725074 0.055529445 -0.029378893 -0.07537244 -0.00077207095 -0.0282509 0.11866172 -0.03904693 -0.020885505 -0.091433346 -0.050522804 -0.077239625 0.027758466 -0.21522234 -0.023426462 0.10961283 -0.109151244 0.10771155 -0.17627819 -0.15354015 -0.020790787 -0.048542608 -0.119856775 0.032060113 0.14788282 -0.058421876 -0.051489133 -0.08802159 0.07402086 0.07712428 -0.14821257 -0.13756444
cjklib 0.027675522 0.10447418 -0.05297036 0.03785018 -0.09809086 -0.016132021 -0.07645857 0.15275893 -0.13667284 0.0031108267 -0.18223274 0.03582288 0.06567298 0.047400452 0.05755451 -0.079393856 -0.043756343 -0.15843078 -0.037435185 -0.041763242 -0.021761995 0.14264211 0.1551557 0.100682944 0.06951161 0.04727809 -0.09281378 -0.06889188 -0.1906525 -0.05409284 -0.007196047 -0.012092528 0.02839628 0.0237319 0.007938513 -0.030095575 0.0186775 -0.08641895 0.026268223 0.10852005 0.0004860023 -0.03496731 0.20853989 0.02167474 -0.049392913 -0.04855366 0.07673822 0.16001824 0.19227101 -0.030065907 -0.041155647 -0.15708818 -0.116333656 0.035563093 0.016835753 -0.10825172 0.02988099 0.06813784 -0.03804818 0.03934914 -0.018725527 -0.06879353 0.010370772 0.049752392 0.041843593 0.022783535 -0.03979786 -0.099308744 -0.028661493 0.035760723 -0.006698094 -0.045086157 0.014074226 -0.023755558 0.08590627 -0.024942579 -0.024351662 -0.061208937 -0.049461797 -0.05140577 0.041126143 -0.1373566 -0.029535966 0.06428716 -0.07205684 0.08502959 -0.10586708 -0.09146396 -0.012316406 -0.02563187 -0.07628489 0.026169324 0.10116343 -0.051481795 -0.020288466 -0.06928319 0.033370856 0.04817063 -0.091913916 -0.07910443
secrets 0.031147452 0.1640913 -0.08463411 0.07415882 -0.16789785 -0.008687025 -0.09850658 0.24071372 -0.19846348 0.013594987 -0.24757789 0.065868765 0.09246956 0.06869088 0.062281422 -0.11915108 -0.065104984 -0.24234274 -0.042971935 -0.08238595 -0.032669358 0.22029558 0.25186345 0.13846138 0.10652036 0.06456088 -0.14614798 -0.121376716 -0.26075417 -0.07957109 -0.015602665 -0.015592155 0.032268457 0.032025423 0.0071237544 -0.032434143 0.03797055 -0.12610357 0.030037295 0.17503768 0.012884276 -0.058083374 0.29255012 0.046968028 -0.09089735 -0.08046159 0.11508169 0.23993483 0.2810064 -0.061459523 -0.06904112 -0.22533984 -0.16597165 0.06380365 0.024618298 -0.15862912 0.050713483 0.112978935 -0.055798694 0.044083335 -0.007021028 -0.102353595 0.020893553 0.065225035 0.065934256 0.033064663 -0.06377617 -0.15367366 -0.038623616 0.054066718 -0.021246783 -0.0721738 0.01866141 -0.044423856 0.10361327 -0.058371697 -0.044569425 -0.102461785 -0.061008953 -0.0661983 0.0487981 -0.19256045 -0.033215247 0.07265381 -0.11118856 0.10139194 -0.15180296 -0.11493083 -0.01920561 -0.03986191 -0.13061643 0.018014628 0.12734254 -0.058725398 -0.03293965 -0.08319153 0.059462212 0.059466574 -0.11778138 -0.10633377
hmac 0.013636216 0.17797989 -0.08019695 0.068718426 -0.16590828 -0.022238597 -0.11032855 0.22144863 -0.19711323 0.016670328 -0.24942191 0.06634271 0.08956411 0.08055267 0.05985929 -0.103523694 -0.08431192 -0.25280574 -0.057181057 -0.068582274 -0.04116306 0.21654287 0.2425891 0.15188849 0.10282958 0.05358981 -0.14899145 -0.119914055 -0.25390974 -0.06984361 -0.027145889 -0.0033850463 0.023454173 0.032270923 0.013476963 -0.04230571 0.031114992 -0.1218022 0.045488745 0.18142451 0.02718826 -0.06698353 0.2920713 0.050747402 -0.08079621 -0.08194848 0.12335593 0.24101393 0.2830339 -0.051573146 -0.06385832 -0.23044954 -0.16308422 0.081545606 0.014665481 -0.1591135 0.039992135 0.11264827 -0.058531694 0.038468003 -0.015723126 -0.1075371 0.02785654 0.068164475 0.048101775 0.03185257 -0.054290593 -0.14651942 -0.042359997 0.07023008 -0.019572917 -0.0665498 0.0023550494 -0.036249388 0.10263918 -0.04800159 -0.038749713 -0.09750231 -0.058090694 -0.06909243 0.05063693 -0.18659917 -0.03035019 0.06656814 -0.09102239 0.1165647 -0.15922855 -0.10576226 -0.012115629 -0.056252338 -0.123945564 0.02875642 0.13408627 -0.058266226 -0.031176278 -0.08325243 0.058589626 0.06231622 -0.12617834 -0.10448451
pytest 0.05112337 0.21631382 -0.093941964 0.06571343 -0.20114323 -0.04630244 -0.13042158 0.31677184 -0.22136253 0.0054415916 -0.36848992 0.07133705 0.12136321 0.089564174 0.08459216 -0.15650281 -0.082313575 -0.32465762 -0.049503572 -0.0893488 -0.07237947 0.30920383 0.30456516 0.20189169 0.13184035 0.11221682 -0.20921326 -0.100480266 -0.36798364 -0.056793727 -0.021724463 0.004725724 0.08131009 0.032286763 0.049587525 -0.086796954 0.033612423 -0.14954467 0.07730253 0.19748546 0.0023162898 -0.103634335 0.39811152 0.0829397 -0.096373744 -0.12704049 0.16704422 0.31447446 0.35389784 -0.06353012 -0.07426873 -0.2724847 -0.22346662 0.0679632 0.035538416 -0.23730639 0.03773438 0.14130823 -0.031642415 0.06757146 -0.038601507 -0.1162727 0.027143579 0.055163126 0.070288695 0.018085632 -0.09092358 -0.1903317 -0.052831277 0.090957284 -0.0516352 -0.082348 0.013164403 -0.050931215 0.15631863 -0.06605891 -0.03799324 -0.12861924 -0.10845665 -0.081442006 0.03253984 -0.2218708 -0.027107446 0.12314739 -0.1340661 0.17671637 -0.21749553 -0.18877248 -0.05257526 -0.061144684 -0.14538814 0.022023821 0.14686155 -0.10071645 -0.040345117 -0.07643303 0.074502304 0.06316273 -0.19330141 -0.16752921
inspect 0.028361699 0.16280931 -0.07108926 0.06114334 -0.14778617 -0.016238691 -0.094855055 0.20899886 -0.1731293 -0.001215439 -0.2461214 0.05581162 0.094791844 0.061710365 0.06579973 -0.09640622 -0.061677836 -0.21340479 -0.039588664 -0.06038165 -0.040275402 0.20120423 0.22015107 0.13602634 0.089108415 0.07369618 -0.12713405 -0.10055368 -0.245443 -0.05413401 -0.020628912 -0.0018658143 0.04267333 0.032159902 0.0064198175 -0.04265425 0.030711595 -0.09605447 0.031327862 0.14219669 0.0073771495 -0.05866352 0.28393418 0.038673434 -0.08274671 -0.08040651 0.1236676 0.2188903 0.24936756 -0.047673713 -0.058695655 -0.20366788 -0.1668509 0.06597107 0.013623558 -0.16132353 0.040952496 0.09332146 -0.05044151 0.027459105 -0.021627957 -0.0812893 0.026759652 0.06150414 0.05741705 0.018198298 -0.05662323 -0.12774555 -0.04211698 0.06861949 -0.009157939 -0.058490135 0.015067198 -0.03451921 0.09343841 -0.044132445 -0.031110544 -0.07402877 -0.05856897 -0.06731057 0.03953912 -0.1639597 -0.04298435 0.0718129 -0.09456698 0.10675666 -0.14707293 -0.116411634 -0.018772783 -0.053554613 -0.110143304 0.03118539 0.12412424 -0.051453415 -0.029135436 -0.06733336 0.051970854 0.06602052 -0.1283475 -0.111618206
contextlib 0.029696217 0.18198031 -0.117895074 0.08266885 -0.19569027 0.0011419838 -0.09162659 0.2317466 -0.20797761 0.018720353 -0.25619793 0.05792144 0.111137144 0.052132946 0.07906596 -0.117614456 -0.07389497 -0.25897732 -0.060457896 -0.08890254 -0.034921292 0.23007187 0.27072927 0.15733944 0.10383517 0.0685396 -0.15882412 -0.12302505 -0.27001327 -0.09813328 -0.015910618 -0.016870184 0.027012084 0.035693984 0.0065700426 -0.04681233 0.026436932 -0.11923694 0.02308429 0.20718943 0.038158685 -0.06904415 0.30474117 0.059581358 -0.09507404 -0.089642525 0.12891874 0.28053612 0.30901235 -0.04553134 -0.06640862 -0.25830063 -0.18337937 0.0935973 -0.0008513231 -0.17852636 0.06469911 0.09523656 -0.0690487 0.02193204 -0.020951562 -0.14081673 0.060668595 0.0835784 0.055413783 0.026208842 -0.0632008 -0.16948232 -0.03874869 0.072325684 -0.0010914751 -0.090519264 0.00928921 -0.042573407 0.107533805 -0.0507697 -0.06307964 -0.08643575 -0.045267068 -0.07594614 0.07862874 -0.21779488 -0.05313471 0.05966988 -0.101322316 0.11188059 -0.16943254 -0.102214865 0.018104479 -0.06724317 -0.14368701 0.033259653 0.15806527 -0.06131394 -0.05267893 -0.12718423 0.06710088 0.07055762 -0.134144 -0.10395784
React 0.02786392 0.118180715 -0.051446572 0.043274418 -0.1054089 -0.011706032 -0.069367915 0.15855072 -0.13080455 -0.00058417366 -0.17953226 0.031820167 0.06918347 0.04045001 0.061900876 -0.086860016 -0.046120152 -0.16485438 -0.032447293 -0.058504388 -0.036229823 0.1509236 0.18488374 0.118703544 0.076620795 0.060052253 -0.11160532 -0.07236751 -0.19605498 -0.062028125 -0.018419424 -0.00883406 0.02338636 0.013911315 0.008274818 -0.04239384 0.031903945 -0.08401804 0.017472254 0.11951859 0.022317914 -0.05226262 0.22607772 0.040454697 -0.058909696 -0.063221715 0.08180421 0.17608742 0.21720342 -0.026281586 -0.041229524 -0.15550599 -0.12973896 0.044614494 0.020824302 -0.12384679 0.028076453 0.06448194 -0.02644114 0.016870933 -0.01859998 -0.06665755 0.009846149 0.037090704 0.056141727 0.014917766 -0.04058936 -0.10495747 -0.040854797 0.03855966 -0.0041787466 -0.06098241 0.0054778084 -0.030955154 0.07984287 -0.023049818 -0.02809792 -0.06087251 -0.04473568 -0.054098375 0.039151173 -0.1503963 -0.037260618 0.06281568 -0.06642417 0.06876122 -0.11061909 -0.08284358 -0.012712666 -0.02775078 -0.07791522 0.015048991 0.09793645 -0.05003033 -0.027483938 -0.07636145 0.046803072 0.035906866 -0.10609174 -0.08893133
sentencepiece 0.03675888 0.17126778 -0.07670305 0.058653936 -0.15129098 -0.0091887945 -0.08437098 0.22534956 -0.18072982 -0.004909946 -0.26603517 0.043691296 0.096115366 0.066615745 0.060558245 -0.11657866 -0.056280132 -0.23330678 -0.035275616 -0.059702974 -0.036075063 0.22056173 0.22338583 0.15220533 0.11762031 0.07906458 -0.1421259 -0.09062404 -0.25079387 -0.05962996 -0.0035618567 -0.0043188203 0.038561493 0.032384053 0.014797769 -0.038845256 0.035573963 -0.10313901 0.042567067 0.1520857 0.006371685 -0.05903688 0.30109158 0.048815038 -0.08067702 -0.0684657 0.1167952 0.23746073 0.28731796 -0.030641276 -0.063070886 -0.21727109 -0.16296932 0.07692096 0.025148915 -0.17807914 0.046757523 0.10990857 -0.057378907 0.05046878 -0.007988089 -0.08503994 0.017911455 0.06810434 0.05915735 0.019866362 -0.061251674 -0.14069596 -0.029963315 0.0548678 -0.007192755 -0.057710733 -0.002918838 -0.03885145 0.11082228 -0.04900175 -0.018843338 -0.075666375 -0.057692777 -0.06821558 0.048006646 -0.19801784 -0.042249445 0.08203017 -0.11063639 0.113558926 -0.15000793 -0.12255844 -0.028641488 -0.052074224 -0.12500657 0.030138746 0.12725556 -0.06725179 -0.030416792 -0.07201659 0.06648591 0.057581175 -0.1295093 -0.12835042
pkuseg 0.04431896 0.15930513 -0.053299904 0.0639989 -0.14254463 -0.015447448 -0.105554655 0.23916875 -0.18839625 0.0011306088 -0.27705598 0.044206657 0.09168001 0.0753231 0.06324837 -0.13440594 -0.07161016 -0.23180996 -0.049362082 -0.07061418 -0.05274999 0.23530753 0.23197001 0.15180273 0.11454965 0.062405035 -0.15680593 -0.10221282 -0.2638849 -0.07467769 -0.01407586 -0.0038841746 0.051752813 0.02567563 0.007354176 -0.05390679 0.027360182 -0.11408843 0.040678058 0.15801974 0.013429184 -0.052053697 0.31719133 0.056376334 -0.09201342 -0.07274108 0.14000987 0.2579697 0.2983214 -0.03036162 -0.08396651 -0.22851107 -0.17817593 0.06999013 0.03234654 -0.19240303 0.05457354 0.1261879 -0.05979571 0.06124746 -0.0024359252 -0.10310637 0.012029572 0.066928364 0.06399789 0.03136721 -0.06795193 -0.14833799 -0.044373922 0.062129997 -0.011070097 -0.060569864 -0.00609515 -0.017296515 0.11929037 -0.07265223 -0.011316759 -0.081301436 -0.07084786 -0.06998757 0.023035275 -0.20671324 -0.035169657 0.09962386 -0.121369295 0.10300728 -0.15718865 -0.14949647 -0.03869175 -0.04068853 -0.1213993 0.031907827 0.13683644 -0.06000838 -0.03729038 -0.066931814 0.06532552 0.06233376 -0.15336673 -0.14371125
airflow 0.02265588 0.1477839 -0.07134685 0.05507182 -0.1542791 -0.018016694 -0.093496054 0.21345896 -0.18697648 -0.007858526 -0.26857528 0.03907416 0.08792704 0.07529315 0.07429335 -0.11547496 -0.058729064 -0.2193233 -0.04822101 -0.05445128 -0.032727946 0.21273504 0.23018172 0.13856429 0.11428727 0.067515016 -0.15077817 -0.10167318 -0.25079912 -0.06907722 -0.018708102 -0.01008554 0.0494903 0.021654405 0.0016818455 -0.05045163 0.025235567 -0.106409125 0.04708388 0.15987869 0.011975707 -0.054725885 0.29465348 0.04700975 -0.094148636 -0.07534811 0.12919553 0.22663797 0.2809304 -0.03625323 -0.07662928 -0.21405493 -0.1713361 0.055871546 0.013965208 -0.17491822 0.051889837 0.11558653 -0.044983033 0.043229535 -0.004129492 -0.0927306 0.014287269 0.059142467 0.07315791 0.019771961 -0.058227655 -0.13398658 -0.04657903 0.0548395 -0.024711438 -0.07036226 0.009384415 -0.023357326 0.12120217 -0.06997852 -0.021877138 -0.06747749 -0.06794074 -0.073966056 0.03220516 -0.18266217 -0.029631555 0.096192874 -0.10088684 0.110886425 -0.16457891 -0.12418575 -0.032653056 -0.031028919 -0.09985779 0.022711419 0.12886061 -0.053695615 -0.032488633 -0.070356555 0.06013529 0.0543636 -0.14243233 -0.13209012
tensorflow 0.027509455 0.14990474 -0.068818755 0.05187714 -0.12968923 -0.020381967 -0.08937799 0.2100171 -0.17752984 0.008534901 -0.25818565 0.04828856 0.083421014 0.07787341 0.057184186 -0.11570935 -0.055726565 -0.22575235 -0.040269013 -0.07177267 -0.05396225 0.20665087 0.22432831 0.13118987 0.112112835 0.070786424 -0.15570405 -0.09170608 -0.2613136 -0.04410483 -0.015699318 -0.01932768 0.037902843 0.027525105 0.008058743 -0.05880941 0.021203458 -0.105162196 0.04666895 0.14554635 0.00054155465 -0.066457726 0.30015603 0.03735432 -0.08502069 -0.087064765 0.12655187 0.22139877 0.2715618 -0.023353927 -0.06135471 -0.21460162 -0.1722211 0.0520274 0.013873872 -0.15554237 0.032648563 0.08977518 -0.03226299 0.04559335 -0.014599294 -0.07527037 0.012799311 0.06351005 0.062401656 0.021197122 -0.04828618 -0.1276606 -0.038319524 0.06913553 -0.024592422 -0.07864139 0.0049571656 -0.023887837 0.10189402 -0.04309676 -0.017733807 -0.071135096 -0.06733696 -0.06930648 0.041125286 -0.18542646 -0.026796626 0.09724637 -0.093912825 0.109580286 -0.15070741 -0.12429452 -0.01285606 -0.028279752 -0.09810468 0.020343293 0.1280553 -0.06574867 -0.047734585 -0.07819975 0.070312954 0.048065417 -0.12690225 -0.12767477
lxml 0.03164092 0.17183496 -0.080739915 0.08525087 -0.16307068 -0.0034621344 -0.10299424 0.23773098 -0.20427261 -0.003242158 -0.26572815 0.06268121 0.09116126 0.07472723 0.07899888 -0.10406429 -0.07374856 -0.23799773 -0.044654075 -0.06698956 -0.05135154 0.2196577 0.24403393 0.157811 0.11370431 0.08257697 -0.15897553 -0.11907682 -0.27060333 -0.084471144 -0.03035439 -0.019107888 0.032946166 0.029589113 0.024501206 -0.04300544 0.022624353 -0.102104105 0.04419452 0.17298608 0.0271677 -0.07970877 0.32076806 0.068010285 -0.101141624 -0.08852867 0.13268904 0.27139297 0.2810376 -0.054472398 -0.07581223 -0.2329757 -0.19265306 0.07077606 0.013321354 -0.17253649 0.030612977 0.08215309 -0.061948925 0.040864095 -0.008741467 -0.111468166 0.042774335 0.066505454 0.050829377 0.023019742 -0.059453133 -0.16473082 -0.039082047 0.06714628 -0.02362493 -0.08114976 0.0008262516 -0.04494156 0.1095662 -0.038659826 -0.050677568 -0.08904006 -0.04478835 -0.08740083 0.04711597 -0.20824774 -0.030706702 0.070397384 -0.082563266 0.10050055 -0.17305319 -0.11059226 0.007598774 -0.063840255 -0.1386312 0.03753309 0.14213465 -0.06572484 -0.03133139 -0.10460365 0.07155163 0.07876912 -0.1327969 -0.12577471
gurobipy 0.010840666 0.11777517 -0.06759163 0.06149058 -0.111096315 0.0037595606 -0.064127274 0.16230987 -0.14205055 -0.003964569 -0.19069038 0.04501488 0.06205179 0.055333354 0.045300424 -0.07227473 -0.044795126 -0.17651588 -0.04213139 -0.052218053 -0.03027913 0.14893268 0.17387295 0.099330865 0.0664101 0.05140523 -0.094196565 -0.080077216 -0.17980586 -0.058422 -0.017712109 -0.019793827 0.023389831 0.02132313 0.015945077 -0.039052807 0.011696843 -0.08116464 0.016111884 0.11204162 0.02090234 -0.03682948 0.21232903 0.030186804 -0.052134834 -0.057834428 0.09274952 0.17044634 0.2044955 -0.03973914 -0.042296804 -0.17109545 -0.115294464 0.04044523 0.010445994 -0.12872635 0.034980934 0.06361187 -0.024429642 0.030761467 -0.011078879 -0.08138272 0.027999682 0.043561254 0.03332684 0.0167029 -0.05074448 -0.110958464 -0.03715464 0.042707544 -0.012602402 -0.061779484 0.0025299957 -0.03465909 0.07100357 -0.032147616 -0.040071428 -0.05241576 -0.037782554 -0.039378803 0.04780622 -0.1272226 -0.03139641 0.053746432 -0.059407804 0.065298304 -0.10757907 -0.08189277 -0.011624336 -0.03952454 -0.096138 0.0075351773 0.10248971 -0.05273174 -0.021684302 -0.06999973 0.049228042 0.042750668 -0.09935744 -0.087049164
yaml 0.040492415 0.21157788 -0.11290471 0.068514 -0.1807149 -0.011991164 -0.13191544 0.28346005 -0.23743854 0.014838474 -0.34286383 0.06826373 0.107366376 0.08177669 0.08985177 -0.16704932 -0.08811085 -0.32655331 -0.05857916 -0.07733322 -0.06470028 0.27795836 0.31134892 0.18548921 0.13507925 0.106986284 -0.1929965 -0.120171495 -0.35885555 -0.071408704 -0.033248264 -0.004899255 0.06830152 0.027133051 0.04334288 -0.07380911 0.052621037 -0.15840876 0.053887073 0.19441134 0.020755352 -0.09993807 0.39164034 0.06329702 -0.10511861 -0.10903488 0.14623041 0.3162928 0.35386387 -0.04773502 -0.0817342 -0.26908374 -0.21842843 0.08223499 0.027994838 -0.215319 0.046442058 0.1216679 -0.03755862 0.07714515 -0.031656384 -0.10220002 0.016580706 0.06576552 0.084390596 0.02433287 -0.08574907 -0.18016219 -0.046205178 0.07005701 -0.044843808 -0.09391856 0.010872869 -0.051688723 0.15359145 -0.049038935 -0.04329099 -0.11972632 -0.09684737 -0.064566836 0.06337403 -0.23806566 -0.044754423 0.12613474 -0.116486534 0.14220238 -0.20836478 -0.15931855 -0.025670271 -0.05224755 -0.15209039 0.01781532 0.15298975 -0.10536185 -0.056847163 -0.1039348 0.07509662 0.066192836 -0.18886675 -0.15151584
plotly 0.025431376 0.16990252 -0.08926302 0.06837316 -0.15453506 -0.0021975483 -0.09376336 0.2128704 -0.18100035 0.02082869 -0.26234248 0.06519612 0.08699918 0.055501748 0.061712433 -0.10519078 -0.07838459 -0.23480806 -0.045695823 -0.05428554 -0.04315773 0.22233526 0.24255767 0.15034597 0.118430294 0.0589948 -0.14683188 -0.09269661 -0.27148467 -0.0816947 -0.029747736 -2.1794036e-05 0.04316142 0.02193794 0.030589912 -0.03927974 0.038499504 -0.1039933 0.046676055 0.14240436 0.027085317 -0.06574118 0.2906197 0.05152835 -0.08454997 -0.076908216 0.124678075 0.22715014 0.26733512 -0.04954293 -0.049477633 -0.22300197 -0.16561383 0.06801449 0.014562728 -0.16131933 0.026689138 0.079620935 -0.028506642 0.045743797 -0.014972262 -0.08976426 0.023021853 0.054589022 0.054767247 0.030106781 -0.072647415 -0.14713912 -0.04453622 0.0574005 -0.00834495 -0.065480344 -0.00375828 -0.034280997 0.09704756 -0.034985974 -0.046016827 -0.09941431 -0.050090063 -0.07009321 0.053589884 -0.19717973 -0.037527632 0.09524293 -0.0863211 0.11003451 -0.1626019 -0.1248205 -0.020961037 -0.048772007 -0.12812328 0.017444124 0.12133837 -0.06582763 -0.045634292 -0.08182806 0.057223946 0.05869593 -0.13414808 -0.09790733
dash 0.024653502 0.14808773 -0.0759289 0.06654419 -0.14286475 -0.0015999384 -0.09136212 0.1967746 -0.18033698 0.023211863 -0.23861222 0.046716042 0.1022734 0.06307439 0.05355318 -0.10274138 -0.06436803 -0.2123012 -0.04121534 -0.059140313 -0.043786876 0.19418512 0.22810796 0.14823517 0.114866495 0.07323733 -0.1360527 -0.09010954 -0.25439352 -0.062338162 -0.02327415 -0.01471628 0.04592596 0.027009344 0.019111855 -0.03459302 0.040405188 -0.11176488 0.03304957 0.14631172 0.025738314 -0.04813223 0.2794007 0.053499047 -0.07945368 -0.061181795 0.104068846 0.22153379 0.26310423 -0.022758907 -0.05064555 -0.22110347 -0.1692539 0.06092055 0.021525124 -0.15848899 0.03695616 0.0888318 -0.036672737 0.053747594 -0.0024280548 -0.07771135 0.034245413 0.061537288 0.044948716 0.019976364 -0.07034075 -0.13548262 -0.051134553 0.0547859 -0.018032543 -0.0814807 -0.00760898 -0.035978384 0.094459355 -0.025900176 -0.030793611 -0.08103346 -0.057395443 -0.051866937 0.05666912 -0.18215537 -0.055819634 0.08327317 -0.07375617 0.08450977 -0.16407351 -0.11104245 -0.009435223 -0.039516814 -0.1198666 0.016153203 0.11451186 -0.07755245 -0.04552327 -0.07763726 0.06324412 0.0527266 -0.13865064 -0.10408173
