97 50
numpy -0.053327847 -0.26719388 0.008991628 0.03263128 -0.11153974 0.15624893 -0.15876083 0.053742066 -0.2359902 0.04253748 -0.08720858 0.33545363 -0.1987401 0.19083351 0.05446233 -0.018208353 -0.035012692 -0.046446614 -0.20497754 -0.018353108 -0.13526063 0.050210666 -0.102112465 0.107545435 0.4092133 0.043448605 -0.23705202 -0.021115212 -0.13203813 -0.076310396 0.11574745 -0.12021264 -0.14865007 0.056254126 -0.085287906 -0.13834417 -0.07477369 -0.58277756 -0.26279688 0.19440918 -0.15562536 -0.1180804 0.31885827 -0.13532922 0.0555623 -0.04872392 0.15228899 0.12755938 0.11638457 -0.2167311
pandas -0.03022354 -0.26151446 0.010805088 0.039193444 -0.112302855 0.096318424 -0.14807089 0.038527887 -0.20489116 0.05821563 -0.095113374 0.3261591 -0.19538498 0.19440286 0.033019725 -0.054001812 -0.022166632 -0.04173099 -0.24629463 -0.025291637 -0.10304769 0.07956308 -0.084508136 0.066645026 0.39372858 0.022294506 -0.23343906 -0.038525667 -0.097327285 -0.055384476 0.11274829 -0.08838704 -0.14027733 0.07175677 -0.08159685 -0.12606047 -0.09484498 -0.5677792 -0.24822998 0.20072487 -0.15074916 -0.1191546 0.33529273 -0.1278552 0.063991405 -0.090313494 0.14287552 0.09862522 0.116899 -0.24220291
fastapi 2.0396974e-05 -0.3208893 0.00987762 0.013799549 -0.07788733 0.18036033 -0.113773696 0.03506046 -0.23348346 0.0758801 -0.06369179 0.32474223 -0.22293255 0.18153259 0.042302687 -0.017332632 -0.045201384 -0.025307994 -0.21118538 -0.020190742 -0.13329762 0.025159461 -0.07646913 0.08053618 0.41523752 0.07040681 -0.26002762 -0.030499034 -0.17143206 -0.084950544 0.15380141 -0.11918065 -0.1587039 0.049755927 -0.10429309 -0.11193892 -0.12812275 -0.6390265 -0.25980523 0.17042202 -0.11679665 -0.15921715 0.27696386 -0.12575668 0.12353894 -0.040290713 0.1165742 0.11726976 0.120717466 -0.22803289
hashlib 0.015692461 -0.30202764 0.030885873 0.026662555 -0.09165761 0.15810779 -0.14033332 0.030436793 -0.23638813 0.087801054 -0.047769792 0.31488168 -0.21752538 0.17468627 0.040032964 -0.014700055 -0.04310199 -0.0253631 -0.19746943 -0.033348516 -0.14627352 0.006396165 -0.06505728 0.082280494 0.41290045 0.061867055 -0.22288936 -0.05429499 -0.13610305 -0.08897937 0.1631965 -0.13493682 -0.14137848 0.065637045 -0.11201788 -0.09982998 -0.14488225 -0.61797667 -0.2598273 0.16703402 -0.12371263 -0.1419399 0.3002427 -0.11817376 0.11880784 -0.07554921 0.13503015 0.11152451 0.09192648 -0.18982428
multiprocessing -0.04047005 -0.24299757 0.01710615 0.040258035 -0.121477254 0.10832895 -0.14653778 0.07640592 -0.24420366 0.08015286 -0.11526261 0.33328193 -0.19406238 0.18001993 0.05514747 -0.054811515 -0.06194544 -0.045789164 -0.23375782 0.00017236655 -0.14261949 0.0827243 -0.07204915 0.07019801 0.4241294 0.0253742 -0.22074623 -0.036271777 -0.10082278 -0.08550664 0.091375254 -0.08211935 -0.15634517 0.08365871 -0.1011272 -0.12527888 -0.08553767 -0.60019326 -0.2899903 0.20543948 -0.16326724 -0.14336047 0.31473795 -0.10816992 0.0527143 -0.109726384 0.1789164 0.09813357 0.13199227 -0.2612321
transformers -0.027347853 -0.29576722 -0.021106308 0.024971083 -0.09341992 0.118840195 -0.11468242 0.011618924 -0.25271028 0.08873813 -0.061643526 0.30222228 -0.22791268 0.20450152 0.07163955 -0.016170304 -0.030724874 -0.034549046 -0.18279344 -0.011661714 -0.14348876 -0.0023070946 -0.10194811 0.10598759 0.39437836 0.03912678 -0.23746379 -0.03579408 -0.18401252 -0.09568505 0.11616445 -0.12943953 -0.13180178 0.052386463 -0.11569667 -0.07623775 -0.1408807 -0.6226187 -0.24149437 0.19552846 -0.1356238 -0.15604809 0.30704707 -0.13096307 0.098905064 -0.07189767 0.17648388 0.118399784 0.08542908 -0.2547094
torch -0.014351937 -0.28299177 -0.026766827 0.049549427 -0.08531656 0.12639101 -0.12862438 0.030740226 -0.2355399 0.06347184 -0.049048796 0.31707677 -0.2392158 0.16702801 0.038378723 -0.006967849 -0.015365643 -0.008259152 -0.16193335 -0.00036323603 -0.14209132 7.007689e-05 -0.07479629 0.09875849 0.4088436 0.035165764 -0.24301551 -0.066633105 -0.18316378 -0.08268108 0.13162509 -0.13221215 -0.14983651 0.06476941 -0.1154187 -0.08326705 -0.11020919 -0.6215813 -0.25178775 0.20583953 -0.12899084 -0.14704858 0.27783594 -0.117961206 0.11923186 -0.07013221 0.16810988 0.14690799 0.088745214 -0.2306888
redis -0.047426656 -0.32842702 0.018428778 0.034820635 -0.09639651 0.1810138 -0.19275704 0.08430164 -0.26869407 0.07603601 -0.088405386 0.38306955 -0.2519317 0.22339763 0.024213076 -0.034424424 -0.053652205 -0.025353655 -0.304978 0.015852049 -0.14582168 0.09512016 -0.101323314 0.100867994 0.47642407 0.03698341 -0.27146375 -0.010526862 -0.13030156 -0.1106304 0.09045473 -0.08686017 -0.1315488 0.056387667 -0.13295361 -0.18387668 -0.13523784 -0.6651944 -0.30994833 0.19815515 -0.15923958 -0.18305783 0.36361778 -0.12614168 0.07422276 -0.06433179 0.15894651 0.09049887 0.12739132 -0.26725847
matplotlib -0.019379802 -0.22177155 -0.0015597641 0.061341517 -0.10408445 0.11639965 -0.13431895 0.03422753 -0.17995594 0.018596523 -0.10441261 0.2708266 -0.19379812 0.1426813 0.013957259 -0.031036267 -0.009512504 -0.04716406 -0.20848349 -0.01923751 -0.08998629 0.07735638 -0.06030499 0.07851956 0.3415315 0.007230131 -0.18864006 -0.01845518 -0.13104293 -0.052681804 0.072407775 -0.07403008 -0.09867566 0.040953618 -0.084686056 -0.12648289 -0.07231339 -0.48690644 -0.24406971 0.15986939 -0.10915735 -0.12805887 0.26654842 -0.11807675 0.048537478 -0.062249452 0.13243335 0.1178252 0.10591439 -0.21337794
asyncio 0.006708988 -0.28424364 0.018468827 0.01508543 -0.094690435 0.14968257 -0.15662882 0.037992302 -0.22364867 0.057102636 -0.09101128 0.3242863 -0.20790918 0.1908899 0.021365 -0.009574659 -0.053189635 -0.013492311 -0.2418294 0.0030505594 -0.11995448 0.0782059 -0.093311444 0.08501277 0.44301173 0.06837911 -0.23262964 -0.05439444 -0.12695602 -0.09678711 0.12638596 -0.104769595 -0.14971885 0.06985909 -0.10832989 -0.13965978 -0.12746514 -0.64689964 -0.2701428 0.20386945 -0.13528495 -0.13729618 0.34400803 -0.12594296 0.08104045 -0.07871044 0.14088106 0.109865166 0.12649341 -0.24552982
psutil -0.054119136 -0.25397435 0.07832855 0.04681486 -0.12351615 0.10552725 -0.18900172 0.05075689 -0.236071 0.05646347 -0.14710912 0.37678012 -0.17938523 0.21219946 0.052423213 -0.08407486 -0.0466459 -0.033741444 -0.29787183 -0.011885451 -0.12749767 0.13665378 -0.106442645 0.1150693 0.4591905 0.034203377 -0.2388454 -0.021944126 -0.02024509 -0.050007533 0.098529465 -0.10116493 -0.1560141 0.06797246 -0.08649025 -0.20401846 -0.07105691 -0.66799766 -0.34311116 0.20505147 -0.16361359 -0.17966233 0.39524165 -0.14676158 0.049973 -0.11315878 0.18471579 0.07562748 0.12635091 -0.25143814
spacy -0.0066218 -0.28859437 0.018062228 0.026777202 -0.0737824 0.14190091 -0.12435458 0.05561289 -0.21153222 0.082620315 -0.07887866 0.29377162 -0.21396913 0.16639656 0.060536418 -0.03118493 -0.044805422 -0.028691681 -0.19996434 -0.012358846 -0.10912121 0.038520277 -0.086018264 0.065581456 0.36990407 0.03933123 -0.21808597 -0.034744292 -0.12663902 -0.09261617 0.104534425 -0.09929379 -0.14981651 0.033667 -0.11002217 -0.09306204 -0.10219448 -0.6213947 -0.23692371 0.20175523 -0.13215272 -0.12187693 0.28349307 -0.10432206 0.07782081 -0.05136289 0.14917184 0.12244229 0.10494229 -0.21179946
elasticsearch -0.0027260988 -0.27732408 0.0206346 0.014735625 -0.08253849 0.13873792 -0.13678715 0.022418384 -0.20594046 0.09261697 -0.082805164 0.31563193 -0.19619389 0.18549998 0.058618527 -0.020649012 -0.045619506 -0.038162436 -0.20935456 -0.037190005 -0.12805286 0.041524682 -0.09645838 0.07696533 0.40750417 0.027845908 -0.23917076 -0.04620218 -0.14316475 -0.07778335 0.14794466 -0.1347848 -0.13301611 0.049231622 -0.11778097 -0.087000705 -0.1250002 -0.6299904 -0.23543343 0.21964484 -0.1454553 -0.11355966 0.31837004 -0.13639632 0.105131246 -0.079518706 0.14841193 0.12521748 0.1185011 -0.21542116
dataclasses -0.049201563 -0.2542919 0.034885954 0.04638079 -0.11155063 0.11065081 -0.17504711 0.06961258 -0.24647535 0.05148612 -0.17246658 0.35765034 -0.2214414 0.17419225 0.04356483 -0.053282157 -0.062066384 0.003625141 -0.27464512 -0.032184884 -0.09709573 0.14222267 -0.097059205 0.084939316 0.46315613 0.059242647 -0.25290573 -0.0347989 -0.050282016 -0.051997267 0.09609124 -0.10051327 -0.118440494 0.104205035 -0.103200816 -0.16548933 -0.08271641 -0.6314218 -0.34288475 0.23099631 -0.14046644 -0.14240725 0.41728526 -0.09801484 0.0066765733 -0.105804786 0.20099075 0.07916287 0.10900803 -0.2765814
abc -0.029501008 -0.27137068 0.0013909818 0.015173212 -0.123891994 0.14505525 -0.1704477 0.05496376 -0.23344034 0.06201695 -0.08217301 0.3253977 -0.20168097 0.19235899 0.05880439 -0.025013587 -0.040105205 -0.0158457 -0.24811958 0.004019535 -0.14415587 0.08075102 -0.06944242 0.072552316 0.4274527 0.03919299 -0.23122811 -0.050905034 -0.120882645 -0.07786235 0.12479251 -0.1045919 -0.12225147 0.07857913 -0.123172976 -0.12475329 -0.0957442 -0.61538917 -0.27541003 0.21019489 -0.12705666 -0.13591848 0.32820076 -0.12455481 0.07860322 -0.08319627 0.1607162 0.10104699 0.11239922 -0.24966522
pydantic 0.0024223675 -0.3691321 -0.04721288 0.058666077 -0.08773894 0.19413488 -0.10887792 0.03483575 -0.27783924 0.092129625 -0.028907072 0.3334725 -0.24020003 0.21163814 0.05094543 0.01710891 -0.019881206 -0.015189323 -0.21065834 -0.002180695 -0.151732 -0.009204853 -0.11013174 0.105457276 0.42654935 0.086595826 -0.2667434 -0.07164422 -0.25030577 -0.09279485 0.18057649 -0.14172322 -0.17768677 0.030201407 -0.13849644 -0.08254488 -0.18546866 -0.66445863 -0.24393946 0.15788172 -0.15840761 -0.15808532 0.2764194 -0.10771592 0.1293927 -0.05532193 0.17047374 0.15971716 0.10606297 -0.22937417
sqlite3 -0.056880724 -0.28185245 0.06294619 0.051834464 -0.10863902 0.14412811 -0.18769404 0.03119319 -0.2457123 0.08970848 -0.19771357 0.3835659 -0.19545916 0.20871538 0.049111407 -0.04542352 -0.08514043 -0.03693615 -0.28917703 0.01565523 -0.14143416 0.15186423 -0.110898025 0.09883571 0.4816324 0.019654173 -0.25518507 0.0046785246 -0.04101535 -0.10294917 0.09183345 -0.104498036 -0.13657197 0.05791318 -0.07827296 -0.16057265 -0.076085635 -0.68194216 -0.35938743 0.2511955 -0.2010157 -0.14820488 0.43186143 -0.16341996 0.015547767 -0.1212468 0.1598937 0.06248766 0.13917656 -0.26205206
flask 0.012470354 -0.24492113 0.029972687 0.01699102 -0.10395876 0.14982168 -0.13148041 0.015236544 -0.20791596 0.08207454 -0.04993638 0.3089236 -0.21103245 0.17927414 0.055924375 -0.016265959 -0.017168514 -0.00942545 -0.18805894 -0.035622645 -0.12263052 0.022584043 -0.08547081 0.0511457 0.38561523 0.04300594 -0.21447088 -0.028542886 -0.12966484 -0.07598251 0.09250624 -0.08441718 -0.13055551 0.03761501 -0.08918166 -0.0890164 -0.13456406 -0.56989443 -0.25685385 0.16111484 -0.14462677 -0.12063283 0.2731824 -0.08334499 0.08991957 -0.0652712 0.13877761 0.08402068 0.080510214 -0.2013017
prometheus_client -0.044629116 -0.3539527 -0.0299825 0.057327934 -0.10058392 0.1922288 -0.1321526 0.029659502 -0.25655177 0.054689545 -0.018142022 0.311881 -0.25429654 0.20293875 0.054205533 -0.008048714 -0.025207309 -0.0031085135 -0.21394104 0.0058010407 -0.1356081 0.0007090567 -0.08045408 0.071681514 0.39527825 0.07762934 -0.25764683 -0.052740183 -0.21334359 -0.10686101 0.14442769 -0.12204644 -0.1644868 0.058703743 -0.12890875 -0.079807855 -0.1657579 -0.6615483 -0.2599966 0.18000117 -0.12784655 -0.16266432 0.29804477 -0.12214071 0.09393918 -0.071425594 0.1651465 0.122679316 0.13986595 -0.23891425
onnxruntime -0.030690031 -0.27979207 0.0024872464 0.03133406 -0.06952948 0.13652225 -0.11970698 0.030468723 -0.18728854 0.06206114 -0.07867901 0.27442896 -0.18284442 0.15128647 0.06754559 -0.016345963 -0.017241964 -0.027494268 -0.15139107 -0.040598694 -0.12673351 0.015323891 -0.081734456 0.074095346 0.3444207 0.026698094 -0.22431235 -0.035232723 -0.15371852 -0.073684305 0.122960314 -0.0972342 -0.1257471 0.054287307 -0.09285479 -0.07782343 -0.1026229 -0.56178343 -0.2328142 0.17774512 -0.13388205 -0.120286256 0.24945125 -0.112012625 0.08399116 -0.050397173 0.13513818 0.10400971 0.11399905 -0.19580592
celery 0.0068924995 -0.26277727 0.0021760296 0.045145888 -0.110931166 0.15613453 -0.10059304 0.034318108 -0.206721 0.069615364 -0.07064282 0.30408704 -0.21896845 0.16105416 0.04537888 0.004947356 -0.033567395 -0.019696278 -0.20540494 -0.030718204 -0.14714764 0.0060702683 -0.059659395 0.089245625 0.39455533 0.024240376 -0.23791112 -0.0514729 -0.14806001 -0.09228282 0.11600634 -0.123435356 -0.11978865 0.040330335 -0.12848029 -0.08596943 -0.10228115 -0.5945323 -0.23843285 0.18881789 -0.116137385 -0.1114794 0.2670154 -0.11582499 0.0986858 -0.081948735 0.1341569 0.11394255 0.102200106 -0.23031375
networkx -0.04200541 -0.20558956 0.017954886 0.063160636 -0.120285064 0.116250254 -0.121549584 0.056063294 -0.1807455 0.02172346 -0.07854357 0.26098308 -0.17547138 0.1497164 0.045368757 -0.047040097 -0.004827597 -0.030131353 -0.18992105 -0.04576668 -0.08873234 0.065940335 -0.061102666 0.07100194 0.31046596 0.00088203204 -0.17570086 -0.04722685 -0.09234679 -0.03332556 0.094641365 -0.047910407 -0.08088822 0.061860666 -0.089198135 -0.09186882 -0.044350084 -0.41989884 -0.19038601 0.12956919 -0.11825615 -0.110030256 0.27945465 -0.11892031 0.027856154 -0.087595336 0.1427034 0.09611879 0.07095912 -0.18860738
requests -0.015530693 -0.246421 0.03232335 0.0184599 -0.09989679 0.09956758 -0.13476427 0.05639814 -0.1812406 0.039276253 -0.0833834 0.27513075 -0.19387767 0.1536968 0.023142925 -0.03165102 -0.012086214 -0.014537886 -0.1789825 -0.014591733 -0.12717588 0.047641788 -0.08122367 0.06762867 0.3737784 0.056477707 -0.19109948 -0.024020424 -0.10369476 -0.053099107 0.10389559 -0.08896865 -0.10984897 0.06284136 -0.08306864 -0.13206859 -0.077922374 -0.53901523 -0.22641918 0.1724658 -0.1171597 -0.13760215 0.29854745 -0.09490806 0.059238583 -0.06471547 0.14323062 0.11251637 0.10151628 -0.18640047
streamlit -0.048161656 -0.34531942 -0.014010842 0.06909034 -0.13238393 0.19623494 -0.1704231 0.08843705 -0.28217474 0.054376025 -0.052280992 0.3692106 -0.24881962 0.21179129 0.05215208 -0.039086718 -0.06520944 -0.035866015 -0.21400386 0.016759947 -0.14114471 0.051683888 -0.0829574 0.08250571 0.4221621 0.046406582 -0.29069573 -0.062332235 -0.21507825 -0.11989593 0.14920115 -0.11024567 -0.15759379 0.056901094 -0.13269007 -0.14172429 -0.15664555 -0.68171966 -0.29184064 0.18034361 -0.17041257 -0.18871215 0.3071906 -0.1219033 0.09552964 -0.06969538 0.17722444 0.18135536 0.15149042 -0.2549335
base64 0.0018906373 -0.2501263 0.038916077 0.05062812 -0.080158144 0.14401607 -0.1232989 0.050153695 -0.20908375 0.07748844 -0.070034795 0.30483174 -0.18789129 0.17365262 0.013777638 -0.04582542 -0.031703513 -0.0013173796 -0.18545815 -0.017183093 -0.108508915 0.056968134 -0.050437152 0.08541139 0.36363962 0.0691695 -0.23220673 -0.0022485594 -0.12490405 -0.084777966 0.12495803 -0.085894935 -0.1012925 0.06183605 -0.0872147 -0.12509322 -0.12422311 -0.55685467 -0.25001246 0.13928483 -0.12186567 -0.12466636 0.30192515 -0.11209529 0.09266169 -0.03836066 0.15238377 0.09701668 0.08909281 -0.17351393
stanza -0.02439842 -0.25260764 -0.015602147 0.039398614 -0.074053526 0.09196358 -0.12749004 0.026161466 -0.19888802 0.07895577 -0.08301007 0.2872356 -0.18303655 0.1725223 0.029551584 -0.04742038 -0.0479255 -0.028600104 -0.14671534 -0.034868177 -0.11900346 0.018716287 -0.054085515 0.080620155 0.36156806 0.046812464 -0.18740228 -0.025175568 -0.14327835 -0.045274854 0.1189045 -0.094884165 -0.12684958 0.062166367 -0.09408374 -0.11001079 -0.074605145 -0.5405223 -0.23433709 0.17344767 -0.13955982 -0.10806284 0.2535035 -0.12817952 0.092203796 -0.058066763 0.124395624 0.111505434 0.086908296 -0.21704462
hanlp 0.014021751 -0.26853937 0.009873836 0.04331346 -0.07970341 0.12144421 -0.121681 0.012888755 -0.2152378 0.091218084 -0.07161022 0.27288306 -0.17588346 0.18861218 0.06494741 -0.03258466 -0.016558455 -0.02620532 -0.16512391 -0.030244185 -0.13662998 0.018026453 -0.06926364 0.08952225 0.38795266 0.021036344 -0.19360994 -0.063498266 -0.13118306 -0.06838594 0.115710035 -0.10149557 -0.13461645 0.059908144 -0.09356458 -0.064429246 -0.09661136 -0.57270855 -0.20841825 0.17221315 -0.13214241 -0.14516868 0.24364322 -0.11205874 0.07318139 -0.04581979 0.1606696 0.12548962 0.099848844 -0.20202215
boto3 -0.035212312 -0.25843206 0.009127866 0.04237986 -0.0986066 0.12927794 -0.12799387 0.010358945 -0.2243602 0.055985123 -0.0837198 0.25773165 -0.19471344 0.15034732 0.046191454 -0.048858806 -0.038907405 -0.023318406 -0.15704663 -0.007496212 -0.102267615 0.022661118 -0.0739024 0.06866409 0.37734058 0.06340786 -0.18424013 -0.024677338 -0.12750587 -0.07245678 0.13570616 -0.11044837 -0.13005687 0.066424206 -0.101031385 -0.106106095 -0.099193096 -0.5470664 -0.21055116 0.1826262 -0.13233757 -0.12232353 0.2856556 -0.095145926 0.06368587 -0.05294482 0.13276014 0.109489575 0.07014333 -0.19892643
opencc 0.0321602 -0.29988387 -0.024606744 0.019056011 -0.121716164 0.09540605 -0.11691504 0.056978274 -0.25780535 0.07914108 -0.08572077 0.3156422 -0.23004442 0.1914118 0.055299994 -0.008257366 -0.01957953 -0.04090026 -0.14062881 -0.036717992 -0.10681447 0.059136096 -0.06351728 0.08036998 0.38647538 0.046372518 -0.20694895 -0.044468425 -0.17798659 -0.04029435 0.113105476 -0.14259648 -0.16584678 0.05153403 -0.11801121 -0.113129556 -0.11923382 -0.60708094 -0.25021768 0.22490089 -0.12876093 -0.1516874 0.2804554 -0.1184291 0.08181287 -0.10514155 0.18916693 0.15265869 0.11081038 -0.25251937
ltp 0.003163894 -0.2971461 -0.027493807 0.00862127 -0.084494054 0.09582344 -0.08792611 0.010450495 -0.22863145 0.08938607 -0.046137903 0.28078777 -0.22379602 0.14936616 0.06375935 -0.03762112 -0.016627507 -0.037628267 -0.13916917 -0.051215824 -0.10629493 0.022802914 -0.07569153 0.057240482 0.401255 0.02948892 -0.19891429 -0.056904655 -0.16440976 -0.066633634 0.10854355 -0.1458004 -0.14402735 0.03190259 -0.109122045 -0.062460996 -0.13150866 -0.6046832 -0.23917851 0.1917625 -0.13804793 -0.12623954 0.23279138 -0.12024171 0.09722852 -0.07262356 0.14483236 0.13055941 0.08593116 -0.19612439
jieba -0.00013053672 -0.29307708 -0.012129555 0.020633036 -0.09720564 0.10684105 -0.10420964 0.03168291 -0.21620962 0.09768536 -0.09377511 0.30070394 -0.19774175 0.17723976 0.039501663 -0.006757366 -0.033789866 -0.056124255 -0.17919818 -0.03141194 -0.112030715 0.05122467 -0.091568366 0.06271619 0.4073523 0.017941447 -0.23128262 -0.06324016 -0.16476303 -0.04566008 0.10036941 -0.14104871 -0.120039314 0.04207574 -0.08769269 -0.11988761 -0.12799124 -0.6293491 -0.23888543 0.20671917 -0.14896551 -0.1539001 0.2693593 -0.11773753 0.0770728 -0.0776783 0.17249046 0.13128021 0.10060478 -0.25689578
sentence_transformers -0.026588151 -0.3102521 -0.014997354 0.04163587 -0.10864407 0.14320359 -0.1113614 0.065446995 -0.2309473 0.0935171 -0.07380055 0.331976 -0.25624385 0.21401653 0.053810067 -0.011386418 -0.010283108 -0.018187633 -0.19540972 0.009269619 -0.16180368 0.02182109 -0.07655443 0.11082908 0.40451854 0.04360996 -0.25905856 -0.03577135 -0.20657574 -0.07798775 0.12641414 -0.14715414 -0.15566267 0.04410359 -0.11822738 -0.12356222 -0.11503968 -0.6854621 -0.25311074 0.18091491 -0.1465506 -0.16703238 0.29169187 -0.15453693 0.109523445 -0.07827186 0.17705442 0.1509481 0.1305832 -0.2330486
subprocess -0.048091788 -0.26626602 0.03691817 0.023294521 -0.12555979 0.17790173 -0.17101449 0.054975297 -0.26545244 0.044131827 -0.05332338 0.3023344 -0.21029063 0.1933949 0.018924141 -0.06045469 -0.031285565 -0.019777277 -0.25668526 0.033478405 -0.14114831 0.02642109 -0.053118564 0.04965924 0.429153 0.09122228 -0.24453533 -0.0431528 -0.13116074 -0.12083879 0.12612227 -0.07844888 -0.17028947 0.09423616 -0.121996626 -0.12822951 -0.14725977 -0.6005203 -0.30501938 0.17020102 -0.12365293 -0.18043402 0.3224313 -0.093668826 0.038047843 -0.09364083 0.13665424 0.12377193 0.14508781 -0.20227222
scipy -0.05234242 -0.22253132 -0.004581286 0.0409469 -0.11091057 0.07902938 -0.103267826 0.05778633 -0.15843849 0.024280827 -0.07821405 0.2550441 -0.17165807 0.13609019 0.033844236 -0.045529347 -0.015894817 -0.020684898 -0.1784831 -0.013384245 -0.08029539 0.07226012 -0.07853668 0.07935402 0.3125657 0.04181479 -0.19632415 -0.03050724 -0.06487128 -0.044595215 0.09535039 -0.09226663 -0.11831569 0.06867134 -0.08254496 -0.10579576 -0.06356322 -0.44146022 -0.18273968 0.1252772 -0.10360321 -0.0874375 0.265194 -0.105513655 0.018679596 -0.05496167 0.12609711 0.06588092 0.077237636 -0.15736005
threading -0.065465786 -0.29110357 0.06396422 0.02676665 -0.09897139 0.13032952 -0.18338145 0.08514614 -0.24458516 0.05511295 -0.18524832 0.37108034 -0.18996829 0.21467882 0.0449258 -0.044027478 -0.06389865 -0.0164651 -0.3209873 -0.0070646564 -0.14430831 0.16844232 -0.09995991 0.124037415 0.48189864 0.055419557 -0.25673348 0.003553251 -0.04838779 -0.09795223 0.09615091 -0.06710744 -0.13291864 0.092818126 -0.07531596 -0.18633093 -0.07554891 -0.6994328 -0.3906647 0.22326055 -0.19013071 -0.15554273 0.4238082 -0.1561159 0.012573426 -0.075047 0.22461922 0.06389123 0.15153447 -0.26696476
pyarrow -0.041244086 -0.2562747 0.050626863 0.03362854 -0.11150036 0.10018236 -0.20979783 0.079830885 -0.22743611 0.06699292 -0.16884221 0.3669644 -0.23492263 0.19935463 0.04107858 -0.043511298 -0.06592745 -0.014433147 -0.3329795 -0.025477188 -0.1334211 0.14983319 -0.10886195 0.11123636 0.48483825 0.025525626 -0.2816522 -0.019215582 -0.059722174 -0.07072109 0.058688708 -0.09064735 -0.16594692 0.09990447 -0.082586095 -0.20960227 -0.085607186 -0.68661714 -0.36610857 0.24415451 -0.17063183 -0.1497197 0.41067317 -0.13683754 0.023447325 -0.11090084 0.22455654 0.058389135 0.14060599 -0.2754076
heapq -0.07527356 -0.25228024 0.03730213 0.0291777 -0.13022454 0.08021027 -0.20293789 0.067019664 -0.23165292 0.071732104 -0.15731584 0.34733656 -0.18340737 0.18044885 0.051414378 -0.07845707 -0.06691458 -0.030901428 -0.29954 -0.02730857 -0.12510292 0.1493322 -0.10736133 0.12395404 0.44391257 0.056432176 -0.26286235 0.011394301 -0.04376915 -0.04296583 0.0771748 -0.057934836 -0.12622286 0.05847735 -0.09048292 -0.19533592 -0.04222816 -0.6084536 -0.33400086 0.21134727 -0.16098602 -0.16341092 0.39947057 -0.10971453 0.032309745 -0.08378331 0.18504992 0.07387146 0.12644286 -0.2629196
enum -0.07627832 -0.3065508 0.019775197 0.024623089 -0.13278355 0.16665822 -0.18571271 0.077965215 -0.245509 0.0698838 -0.08941639 0.34860072 -0.21321924 0.18176925 0.05763269 -0.047262408 -0.071103014 0.002419859 -0.30379498 0.017363196 -0.1561719 0.07932549 -0.088331066 0.12507398 0.44396228 0.044390287 -0.28692445 -0.010914462 -0.10360138 -0.11306108 0.10587719 -0.113396235 -0.16788112 0.0944351 -0.10753336 -0.18042828 -0.10038372 -0.6574604 -0.35287234 0.2043081 -0.17098385 -0.18021415 0.3827822 -0.107633606 0.03213094 -0.0671902 0.18106192 0.124041796 0.15454638 -0.26296943
igraph -0.037033908 -0.19275002 0.021191655 0.027416293 -0.10317235 0.07943244 -0.1217718 0.026554879 -0.18845712 0.04662262 -0.0991296 0.26059562 -0.17658024 0.14551724 0.022312952 -0.040664304 -0.034084626 -0.030367792 -0.17546637 -0.019388495 -0.09570219 0.07156464 -0.05510954 0.06437282 0.28772363 0.006818789 -0.18216698 -0.04356962 -0.096911564 -0.025679393 0.056526236 -0.07210636 -0.0817321 0.069368854 -0.09051016 -0.11597831 -0.058915433 -0.42052367 -0.17093645 0.12452791 -0.12635599 -0.11472329 0.26827696 -0.12680653 0.02946834 -0.077620625 0.10866284 0.098651126 0.05890212 -0.1819926
opencc-python-reimplemented 0.016057154 -0.28436348 -0.026445735 0.033139817 -0.0913968 0.10720696 -0.12043154 0.053989306 -0.22964053 0.0631754 -0.06625399 0.3447823 -0.23181047 0.19528459 0.06215159 -0.018646767 -0.039182547 -0.03904754 -0.1631491 -0.05031991 -0.10742652 0.08164982 -0.05991891 0.070457876 0.4045887 0.015428816 -0.20521161 -0.0573461 -0.16640294 -0.039263636 0.12079492 -0.112843685 -0.17397986 0.067907356 -0.09640922 -0.09726871 -0.086209156 -0.6281765 -0.27024347 0.22488216 -0.15076585 -0.15961878 0.27490515 -0.11635947 0.09467993 -0.10910067 0.17494866 0.14809051 0.093970895 -0.24748154
cv2 -0.0049483986 -0.23364776 0.001652765 0.024599457 -0.06509052 0.08775919 -0.11440216 0.017482333 -0.16478226 0.051948767 -0.06385021 0.23612882 -0.17667758 0.15420035 0.041115604 -0.03456038 -0.032994065 -0.003827278 -0.1544647 -0.008283277 -0.10723578 0.045889396 -0.058653772 0.07137052 0.28920335 0.03248584 -0.16930017 -0.008325634 -0.10041634 -0.06850736 0.091399655 -0.09800659 -0.12173183 0.056087755 -0.058127157 -0.07732551 -0.07745451 -0.4781073 -0.18086682 0.14244115 -0.11705078 -0.0912962 0.25356063 -0.07771041 0.044811692 -0.030573158 0.11911625 0.085371725 0.0919507 -0.16424887
jwt -0.051087663 -0.343263 0.004943544 0.07614955 -0.09618394 0.18303092 -0.13791037 0.07786441 -0.25655785 0.05383719 -0.041982133 0.36976495 -0.26724216 0.20129752 0.042020783 -0.021698369 -0.03247284 0.020760097 -0.26443115 0.004154124 -0.16312836 0.05934118 -0.08897523 0.1040394 0.44944412 0.07219539 -0.29235545 -0.031695504 -0.1811488 -0.126561 0.1697503 -0.14705266 -0.16522878 0.0706456 -0.14757648 -0.1437865 -0.124153 -0.6692542 -0.3172074 0.16358964 -0.13344929 -0.18409485 0.3587406 -0.1486024 0.08394585 -0.041708365 0.18302207 0.15803707 0.13889523 -0.2508468
jinja2 -0.007877078 -0.24549325 0.0021547424 0.017565696 -0.071030594 0.13111006 -0.11801922 0.025024874 -0.22104621 0.04428923 -0.069355726 0.29131335 -0.16963467 0.1795144 0.046013843 -0.04406274 -0.015945995 -0.01962629 -0.19477338 0.007774377 -0.10258046 0.06196594 -0.06642223 0.07408472 0.37694985 0.038214274 -0.22264187 -0.030103708 -0.13821577 -0.096129484 0.11991466 -0.069495715 -0.12549925 0.052322824 -0.098260105 -0.10198682 -0.10817268 -0.5499353 -0.23937389 0.15151519 -0.11171801 -0.117389046 0.29756847 -0.098003805 0.059384633 -0.06775392 0.11316528 0.11966275 0.120194644 -0.177224
tiktoken -0.059315376 -0.4005191 0.0081872605 0.056992617 -0.11419653 0.21308012 -0.16891572 0.09086687 -0.28151536 0.06897793 -0.048885114 0.401098 -0.30351573 0.24276163 0.07241235 0.006141883 -0.058711175 0.0031244268 -0.259909 0.028651524 -0.19072215 0.05814033 -0.07834723 0.13447438 0.47901502 0.08616271 -0.34936625 -0.044992357 -0.21852155 -0.11900388 0.1704417 -0.16791913 -0.17988718 0.07338714 -0.14240022 -0.16876507 -0.17101058 -0.79653054 -0.33552158 0.22689493 -0.1930802 -0.20488636 0.3544873 -0.164157 0.121504106 -0.05097984 0.18222232 0.18567787 0.15058923 -0.3020048
openai -0.042912662 -0.3819222 -0.03939873 0.03989324 -0.10309815 0.21750638 -0.15697606 0.081470475 -0.27405685 0.057484042 -0.028877515 0.37483582 -0.2695724 0.17818174 0.031062234 -0.0053239823 -0.03770785 0.014249402 -0.2445811 -0.0052643297 -0.14064449 -0.005165068 -0.11053683 0.1052862 0.4205956 0.078505136 -0.27738458 -0.017384205 -0.23126686 -0.09149498 0.16110423 -0.16067146 -0.14367922 0.03147172 -0.13553257 -0.114226475 -0.16249199 -0.7088268 -0.28949037 0.20834094 -0.17097285 -0.16121538 0.30222917 -0.15074043 0.12498899 -0.02857591 0.16351281 0.13788697 0.10902013 -0.24140432
datasets -0.015529922 -0.31794828 -0.02817612 0.036901563 -0.11102858 0.15969513 -0.112714715 0.05603947 -0.26669478 0.098516524 -0.07708344 0.35352162 -0.2620768 0.19000587 0.035831753 -0.027671676 -0.019949362 -0.012855929 -0.21594226 0.0075578783 -0.1487399 0.012307335 -0.09103512 0.08957161 0.3907929 0.0405416 -0.26145342 -0.06671205 -0.19404759 -0.07223925 0.14259833 -0.14339016 -0.15956411 0.05873447 -0.11340934 -0.09267978 -0.11006152 -0.6361379 -0.23743255 0.19244029 -0.15393874 -0.16136445 0.27234963 -0.11974065 0.11588534 -0.05016721 0.14964207 0.13883027 0.09599463 -0.21962713
difflib -0.046389624 -0.28715912 0.023425682 0.05058188 -0.07822128 0.13636984 -0.14988461 0.028628334 -0.2470554 0.057102595 -0.072412655 0.28287363 -0.20759921 0.15355451 0.026548525 -0.060576547 -0.062144466 -0.01910521 -0.19707428 0.020055387 -0.14154324 0.02106681 -0.07521159 0.07527451 0.40902725 0.07354115 -0.23925883 -0.057475653 -0.14802098 -0.11473331 0.09840189 -0.07803187 -0.15132111 0.082124606 -0.10809321 -0.114338785 -0.124880366 -0.56413406 -0.2895591 0.15190823 -0.13286547 -0.15242983 0.3011478 -0.08946711 0.0626231 -0.083290964 0.12554432 0.12814309 0.102113955 -0.206179
networkit -0.037218843 -0.18778051 0.029485913 0.035572104 -0.11029265 0.088604905 -0.12240152 0.030050185 -0.17807943 0.01764454 -0.07669368 0.26747075 -0.13658991 0.12584627 0.043841917 -0.06492066 -0.03126135 -0.04653624 -0.20084262 -0.03654424 -0.117175736 0.08746813 -0.09057642 0.06702474 0.32052332 0.04402819 -0.16982375 -0.04876482 -0.06272253 -0.036752567 0.0630891 -0.0725068 -0.08596884 0.053651996 -0.09259095 -0.09466938 -0.038176924 -0.4206934 -0.17616181 0.15838555 -0.116719894 -0.123447 0.2727715 -0.123897016 0.034934018 -0.062196486 0.15133825 0.07913025 0.07196825 -0.17111255
works -0.06396503 -0.20137535 0.03296626 0.040049817 -0.1015735 0.11370459 -0.13414796 0.06148821 -0.17964129 0.016739571 -0.09092574 0.24414656 -0.1425193 0.15044032 0.027721409 -0.044331115 -0.03040766 -0.038554277 -0.2099842 -0.018409219 -0.1087904 0.09264446 -0.092333116 0.092542164 0.31803262 0.027527573 -0.20802343 -0.028671509 -0.06444368 -0.06519559 0.05867442 -0.06618558 -0.12106691 0.049286533 -0.07752492 -0.11773467 -0.050944366 -0.45258027 -0.20589536 0.13066715 -0.12667991 -0.13397135 0.2567209 -0.117963545 0.037411805 -0.04995773 0.14828423 0.089615434 0.10640932 -0.2018106
unicodedata -0.010307164 -0.26745188 0.031636655 0.029313954 -0.10193588 0.13722359 -0.15658349 0.060049076 -0.23826228 0.049186967 -0.16323783 0.34204683 -0.21056159 0.21616192 0.03807606 -0.0630277 -0.060058113 -0.010574223 -0.284443 -0.022026995 -0.101167604 0.09405536 -0.0996632 0.07917025 0.4309023 0.04128453 -0.25514063 -0.034523193 -0.105700254 -0.0877429 0.12535986 -0.094094396 -0.14199604 0.05411614 -0.10353978 -0.15364027 -0.105263926 -0.67759466 -0.30654836 0.21309961 -0.19285153 -0.16229606 0.3996254 -0.14058249 0.056896135 -0.101545304 0.17909525 0.11028607 0.08859952 -0.22990343
rapidfuzz -0.009251014 -0.30058932 0.057335887 0.015521909 -0.12949015 0.11779382 -0.16460763 0.03629893 -0.23567955 0.053071525 -0.1718613 0.36635253 -0.18765202 0.22351287 0.02331994 -0.033308864 -0.043329258 -0.016537942 -0.26968232 0.0040631266 -0.12019005 0.08808325 -0.11112728 0.086901136 0.42790133 0.040235247 -0.25498834 0.0008917822 -0.10607025 -0.06514017 0.14304613 -0.10131883 -0.10819234 0.039267022 -0.08223683 -0.1222824 -0.100573316 -0.6580072 -0.3001752 0.21504457 -0.19398655 -0.12656827 0.40019414 -0.15662326 0.07999443 -0.08889897 0.17435093 0.097858965 0.09704263 -0.259791
tracemalloc -0.036328353 -0.2815225 0.024908511 0.027580926 -0.08895001 0.107144594 -0.16181466 0.075755075 -0.25289887 0.06711357 -0.12695326 0.34614807 -0.20035994 0.1892474 0.036207248 -0.054279722 -0.04007809 -0.0073608328 -0.2812194 0.013030213 -0.11588164 0.13165154 -0.08415047 0.0994734 0.45877793 0.040062036 -0.26653585 -0.016082782 -0.06069267 -0.07947269 0.0921785 -0.09469664 -0.15152028 0.07952987 -0.10660628 -0.16499701 -0.097626835 -0.6473705 -0.3003266 0.20556433 -0.17854305 -0.16557267 0.37600765 -0.14555445 0.04120791 -0.097799405 0.1827763 0.101174116 0.14675227 -0.25724977
tempfile -0.020675173 -0.26928818 0.047041353 0.028559256 -0.09803489 0.1260213 -0.16783798 0.038475353 -0.23186673 0.09269958 -0.108916886 0.3487984 -0.20685579 0.18676154 0.026976814 -0.044944815 -0.036921956 -0.039961115 -0.24746422 0.013820408 -0.10887991 0.09161333 -0.10544005 0.10438314 0.4545362 0.04135884 -0.2167509 -0.054173477 -0.06875178 -0.10150457 0.10590503 -0.08443171 -0.11824359 0.08338153 -0.11713832 -0.171516 -0.10425835 -0.60955405 -0.32662275 0.2299891 -0.16572198 -0.15168373 0.34159878 -0.10886443 0.03329928 -0.1177757 0.17697537 0.09821068 0.1428669 -0.2537281
string -0.022098297 -0.26538306 0.08929267 0.02786687 -0.10712284 0.1283511 -0.22299865 0.043151002 -0.23150435 0.057062343 -0.20120957 0.39677912 -0.2250534 0.22612455 0.023924544 -0.059181303 -0.08131075 0.005072733 -0.3367715 0.009592401 -0.1113269 0.17964482 -0.091117874 0.094488986 0.51116055 0.044724543 -0.2553755 0.016133891 -0.03939225 -0.08034661 0.07702828 -0.112751536 -0.13693216 0.07996787 -0.090677716 -0.19130826 -0.090694286 -0.69606066 -0.3530799 0.26366293 -0.19530967 -0.15760882 0.4536897 -0.15820006 0.05709556 -0.10719872 0.1741868 0.065266766 0.10739799 -0.2933737
statistics -0.0182266 -0.27848887 0.05051915 0.053175524 -0.1337476 0.11687807 -0.18504907 0.04064175 -0.22827677 0.085351616 -0.20485124 0.36164224 -0.1933393 0.21623097 0.03413235 -0.06257232 -0.06702633 -0.0017098073 -0.29925248 -0.031454835 -0.115879215 0.16412933 -0.12018551 0.10225182 0.4996964 0.059445277 -0.29307678 -0.025124097 -0.052062467 -0.072546266 0.13309531 -0.10054193 -0.11740015 0.058016248 -0.09480317 -0.20122412 -0.08053482 -0.710699 -0.35750654 0.22637498 -0.20769997 -0.18625839 0.43083388 -0.13126414 0.03347815 -0.09630976 0.17523757 0.091024384 0.11852929 -0.24919859
sortedcontainers -0.07047598 -0.27984622 0.058423277 0.047800016 -0.09254487 0.12538894 -0.1838589 0.08034062 -0.23398551 0.05815479 -0.17757995 0.3594456 -0.20306921 0.17035927 0.024284843 -0.062374406 -0.07594437 0.004397797 -0.31416753 0.012280733 -0.11601063 0.13409397 -0.11706666 0.122140944 0.4662241 0.030457122 -0.26258424 0.012634809 -0.042288356 -0.098259516 0.07078555 -0.058980633 -0.13333845 0.09731322 -0.07064014 -0.21358994 -0.0796141 -0.66569436 -0.37991703 0.24076976 -0.15226841 -0.17639667 0.4208183 -0.12250339 0.0022484632 -0.07782872 0.21823393 0.06860115 0.14976008 -0.27232093
polars -0.032314353 -0.24506058 0.0984731 0.008820472 -0.12923801 0.11023211 -0.2189049 0.04854612 -0.19768876 0.048718676 -0.20912594 0.35001656 -0.19672017 0.22120957 0.017024921 -0.09110757 -0.068553805 0.007836187 -0.34106892 -0.007319588 -0.10568696 0.20347878 -0.12374267 0.12641539 0.4779059 0.053324055 -0.26779336 0.028748132 0.007556998 -0.0800109 0.092844434 -0.060761437 -0.13708967 0.07510581 -0.08153687 -0.19861971 -0.028211273 -0.6328824 -0.37797356 0.2586996 -0.19461654 -0.14609423 0.45292607 -0.13642809 0.01361651 -0.1022862 0.21085867 0.039802097 0.11293635 -0.2794741
mmap -0.072651535 -0.27115557 0.040970173 0.018956795 -0.11142978 0.08913742 -0.20428562 0.089541905 -0.22079043 0.06264894 -0.19364792 0.39467078 -0.19228597 0.2031926 0.018112743 -0.08796832 -0.07831342 -0.028087629 -0.31159362 -0.024172362 -0.13135831 0.18880866 -0.09437876 0.102982394 0.47375807 0.03820115 -0.26609376 0.019404385 -0.01971161 -0.053897496 0.055369575 -0.093249254 -0.1380715 0.06368497 -0.09432533 -0.22409256 -0.048131347 -0.6868994 -0.38473067 0.22256818 -0.19659507 -0.16364639 0.42388937 -0.11448319 0.008896811 -0.09638518 0.21018882 0.06741779 0.15338175 -0.29302406
rustworkx -0.04202731 -0.18214983 0.036533136 0.046656806 -0.09392214 0.1051122 -0.116607435 0.06550951 -0.19492869 0.02219417 -0.10412433 0.23389335 -0.15629357 0.12453322 0.029555116 -0.05136451 -0.02009262 -0.017520297 -0.1707693 -0.031058405 -0.10448381 0.08803346 -0.09083746 0.072269835 0.3047503 0.00301932 -0.17551172 -0.03349145 -0.092562124 -0.037068214 0.059923537 -0.059577104 -0.120614074 0.05596831 -0.058948565 -0.12113918 -0.041440167 -0.42613316 -0.18529962 0.12999639 -0.105323456 -0.085042916 0.28030494 -0.12276682 0.048575245 -0.08872106 0.13827333 0.07791394 0.086033896 -0.18248217
weaviate -0.08567529 -0.4461709 -0.0013290583 0.062343385 -0.13920172 0.276679 -0.19681726 0.09754641 -0.32657245 0.07512874 -0.025306942 0.44292572 -0.3164731 0.22329253 0.07068843 -0.0016805456 -0.062590495 -0.01635484 -0.30148175 0.023554599 -0.1821276 0.01278236 -0.10864212 0.16530058 0.49882743 0.09102681 -0.3732588 -0.025115162 -0.28388673 -0.13565686 0.1989331 -0.19037977 -0.18875177 0.07795213 -0.1566714 -0.15803196 -0.17576165 -0.84066194 -0.34394667 0.22541882 -0.20420006 -0.21794304 0.37098745 -0.14876996 0.14779535 -0.050538607 0.19620968 0.18413366 0.16007473 -0.29921725
qdrant_client -0.048549835 -0.43093714 -0.012161422 0.08034794 -0.10744285 0.24560227 -0.16206105 0.08987889 -0.30399773 0.08186977 -0.032866042 0.42344165 -0.34875524 0.23863591 0.051255584 -0.0028474887 -0.04147216 -0.010973245 -0.29292938 0.034030218 -0.19013914 0.0012846946 -0.11289423 0.11945246 0.48584953 0.102411896 -0.37311956 -0.02674116 -0.2871546 -0.11333958 0.1958028 -0.17808954 -0.19110757 0.034557655 -0.18125972 -0.13601628 -0.17011607 -0.8283677 -0.3555017 0.19475566 -0.19144599 -0.22285673 0.34781483 -0.15600851 0.1223783 -0.027110916 0.19949217 0.19892694 0.13821673 -0.2761855
pinecone -0.043073777 -0.43584147 -0.012846635 0.053659916 -0.107148774 0.24219072 -0.15319325 0.07352424 -0.30764464 0.0581372 -0.041334104 0.40701345 -0.3242514 0.20458369 0.061396312 -0.0011250552 -0.030409941 0.012217198 -0.3046468 0.0023712954 -0.18226625 0.020219443 -0.115912765 0.1411039 0.4850766 0.10395271 -0.3646936 -0.0253017 -0.27473503 -0.13089679 0.1747372 -0.14936045 -0.19912033 0.044608288 -0.16706464 -0.15666945 -0.19084443 -0.80830455 -0.3521973 0.20474602 -0.1913273 -0.21109623 0.35919857 -0.16150138 0.147915 -0.035626277 0.17348975 0.1711177 0.13404503 -0.29155323
llama_index -0.06329858 -0.42978957 -0.044110816 0.057280935 -0.11167251 0.23221277 -0.14702378 0.08341273 -0.28141746 0.055726882 -0.031186752 0.4223966 -0.3338025 0.23782845 0.04233848 -0.0026283602 -0.038566932 0.008059767 -0.30703527 0.040584892 -0.16894768 0.049566165 -0.104325525 0.13264905 0.47847274 0.110389695 -0.3294692 -0.024030376 -0.25406322 -0.11470937 0.17345756 -0.16472852 -0.1714815 0.036372423 -0.14974119 -0.1775097 -0.16812602 -0.7822298 -0.33642823 0.20363037 -0.18037546 -0.20645864 0.3476298 -0.14663795 0.13955474 -0.04631357 0.18690376 0.19507809 0.17052653 -0.29367715
tqdm -0.03291525 -0.4066949 -0.035219107 0.06776598 -0.15139125 0.22358306 -0.13991758 0.11483252 -0.28999716 0.08652856 -0.06419008 0.420623 -0.31546265 0.21647693 0.03885939 -0.01675976 -0.03496241 -0.032210607 -0.2418207 0.0077583194 -0.15553737 0.06894582 -0.09034882 0.10720308 0.49559215 0.0780431 -0.31070563 -0.05643349 -0.25045002 -0.117156625 0.14649236 -0.1663852 -0.18161698 0.03818474 -0.13884361 -0.12874907 -0.14292721 -0.76248515 -0.3468545 0.23318478 -0.2057811 -0.19912419 0.34146538 -0.16175562 0.12567002 -0.08191334 0.17907096 0.19418672 0.1689482 -0.2969936
zhconv 0.009151607 -0.2792216 0.014323795 0.019645449 -0.12716359 0.13486183 -0.11079746 0.07343102 -0.2529931 0.06146445 -0.063870855 0.3261011 -0.23072171 0.2134069 0.048902705 -0.043237053 -0.062679276 -0.035942733 -0.18280172 -0.026904533 -0.11987273 0.058689535 -0.05905524 0.096920975 0.4277294 0.056431666 -0.23840904 -0.054079708 -0.13945091 -0.051010396 0.13391131 -0.13075836 -0.15034167 0.036874637 -0.104914986 -0.12859719 -0.11688562 -0.6195473 -0.2594115 0.18653002 -0.16917098 -0.18052898 0.32652754 -0.12528026 0.09016939 -0.071438365 0.18773758 0.112797946 0.10043826 -0.24922949
xml -0.048891127 -0.24697678 0.013620288 0.02345801 -0.11799072 0.11855313 -0.17567159 0.037880603 -0.22836892 0.055987805 -0.11058685 0.3166367 -0.18849273 0.19501254 0.039432526 -0.0402178 -0.039204694 -0.0064591747 -0.26200768 0.026659213 -0.13396911 0.08028338 -0.07532447 0.08198097 0.4065531 0.07138218 -0.25360933 -0.040517733 -0.06815615 -0.07544445 0.08043156 -0.08128365 -0.11155803 0.057711557 -0.10374114 -0.13917038 -0.11594929 -0.6033776 -0.30771354 0.18303545 -0.15078342 -0.15014133 0.32625175 -0.11773863 0.027617639 -0.07183301 0.1442253 0.115556575 0.1222662 -0.21794534
hanziconv 0.011109145 -0.2970367 -0.00060846406 0.015208706 -0.12952143 0.10266086 -0.12863621 0.035002645 -0.26087582 0.10081513 -0.075733185 0.31613472 -0.19649552 0.17591643 0.043417186 -0.012627037 -0.028073115 -0.043672852 -0.18614279 -0.052113358 -0.14446361 0.033843808 -0.053220954 0.08222842 0.39711988 0.047286235 -0.23792522 -0.06688574 -0.15832579 -0.03281899 0.120205715 -0.107352145 -0.16567518 0.06954568 -0.12478214 -0.12159283 -0.10676045 -0.6429233 -0.23454091 0.22262028 -0.14950827 -0.16516939 0.2597461 -0.11761885 0.09144124 -0.07397969 0.1773482 0.112446606 0.083634384 -0.22611485
cjklib -0.028741216 -0.15937145 -0.009987757 0.027997019 -0.042829324 0.08138431 -0.11152669 0.04462406 -0.1599658 0.045052838 -0.033081476 0.2175069 -0.15288922 0.13145372 0.011512284 -0.011917449 -0.017256718 -0.025576051 -0.14124064 -0.02463425 -0.058874566 0.028566863 -0.06312134 0.05612844 0.26717862 0.027534751 -0.1504796 -0.018159732 -0.06709064 -0.05318296 0.08617802 -0.05684224 -0.06674198 0.052378364 -0.053912003 -0.090018295 -0.05618165 -0.37632906 -0.17873341 0.1286047 -0.10563657 -0.0905396 0.21155214 -0.09120936 0.040566146 -0.031222403 0.0958123 0.091363914 0.04639864 -0.13301769
secrets -0.0065393304 -0.23925048 0.006936283 0.062789954 -0.087800995 0.120904304 -0.13665807 0.050199367 -0.195827 0.05226811 -0.097794965 0.3292669 -0.20384924 0.14512266 0.032138236 -0.037688565 -0.030018844 0.0105091175 -0.2296379 -0.0149858445 -0.11299883 0.08240326 -0.06549275 0.07944161 0.3828665 0.07730079 -0.225627 -0.002763888 -0.095196776 -0.08468832 0.106189474 -0.086082034 -0.14000477 0.04807677 -0.105540246 -0.12629203 -0.11098212 -0.552952 -0.23763497 0.17863604 -0.11041533 -0.16456999 0.30090782 -0.12758952 0.093126 -0.05062833 0.13111989 0.106416926 0.10877287 -0.20103674
hmac -0.024256751 -0.2753386 0.022721915 0.038810212 -0.07243824 0.14618659 -0.12263517 0.020817628 -0.18993814 0.04661885 -0.08826345 0.32551152 -0.17575818 0.14644659 0.021744493 -0.020828612 -0.033078242 -0.014068075 -0.21894813 0.014765064 -0.12815906 0.08285098 -0.06537112 0.102859534 0.37499434 0.043975756 -0.22280358 -0.01995575 -0.107291885 -0.06864757 0.13020574 -0.10527852 -0.11589692 0.04575399 -0.10010132 -0.15211992 -0.10620791 -0.5404406 -0.26019257 0.17694826 -0.14560182 -0.13857105 0.30426607 -0.105080366 0.087867044 -0.06067177 0.123367846 0.10060427 0.0868766 -0.20487906
pytest -0.07298803 -0.3684078 -0.013472505 0.03627198 -0.13496965 0.24776508 -0.14424925 0.09065465 -0.3162662 0.05280698 -0.0012853208 0.38859755 -0.30733383 0.19353245 0.0334772 0.004951806 -0.06367506 0.015678411 -0.25866568 0.047026645 -0.14550938 0.011968817 -0.071507245 0.09229655 0.4555389 0.07981221 -0.33193538 -0.06651895 -0.24019009 -0.14782828 0.1601466 -0.15704143 -0.20088507 0.08454589 -0.17044227 -0.16616908 -0.1950481 -0.7409272 -0.31915313 0.2017324 -0.15084676 -0.19322895 0.31387207 -0.115216635 0.09230881 -0.050154276 0.15281096 0.18591028 0.13216656 -0.24660063
inspect -0.029798696 -0.23813485 0.03423324 0.040817037 -0.08881733 0.12594272 -0.11528606 0.03687901 -0.2156137 0.050327282 -0.08461921 0.25892535 -0.18415086 0.16841227 0.044185076 -0.04102709 -0.04001189 -0.032215826 -0.18214358 -0.011326343 -0.09589788 0.06200766 -0.058762994 0.060897853 0.36743832 0.05593823 -0.20212649 -0.018080229 -0.09412833 -0.09328108 0.119685926 -0.07484084 -0.1341566 0.045134038 -0.08137331 -0.12107688 -0.10058363 -0.5043303 -0.22771157 0.16786759 -0.1362602 -0.13931754 0.28823602 -0.0947853 0.047889885 -0.07057328 0.11737954 0.09834079 0.08898215 -0.18207438
contextlib -0.039235685 -0.24616602 0.022803996 0.03820247 -0.08337954 0.093680605 -0.17228538 0.06660677 -0.20285125 0.06274331 -0.12810095 0.3275622 -0.18432875 0.15736991 0.045948595 -0.051004432 -0.07329392 -0.013089086 -0.26415494 -0.02870699 -0.09136114 0.102858774 -0.099362426 0.09355836 0.4317931 0.05337151 -0.22594793 -0.024930399 -0.049113356 -0.057925325 0.0911252 -0.0798238 -0.15169246 0.08074888 -0.06655605 -0.15846878 -0.07241973 -0.5926328 -0.3240754 0.2051509 -0.14048709 -0.12747759 0.37516898 -0.11759151 0.059851307 -0.08061646 0.18163095 0.083079115 0.1421949 -0.23115537
React -0.038935926 -0.20621747 0.008549989 0.029486721 -0.062100727 0.095338605 -0.1018916 0.051764045 -0.16385053 0.042207263 -0.059044555 0.21903074 -0.12050011 0.14593488 0.029750941 -0.028777821 -0.026462536 -0.030148817 -0.1588837 -0.018379603 -0.1018159 0.027542321 -0.050738763 0.03583149 0.28626254 0.028061258 -0.17079394 -0.008396503 -0.08250108 -0.046970125 0.08225133 -0.08716668 -0.10950295 0.04569176 -0.0463617 -0.102218114 -0.08827 -0.39135274 -0.16912122 0.11314876 -0.10655083 -0.095791236 0.20508616 -0.08830179 0.04053068 -0.045970295 0.099170595 0.06926199 0.070684455 -0.1468935
sentencepiece -0.03253 -0.26843727 -0.003730145 0.047531027 -0.0688917 0.116691835 -0.13591348 0.045704562 -0.20611182 0.08669309 -0.09064514 0.31271955 -0.17645559 0.15447168 0.04961123 -0.032121915 -0.041394573 -0.03493831 -0.17514935 -0.026014114 -0.10530458 0.051081456 -0.068012886 0.09622131 0.34170833 0.059811004 -0.23294932 -0.031210484 -0.13133177 -0.057475023 0.117837965 -0.09360589 -0.124895245 0.06820688 -0.099650964 -0.11492511 -0.11041015 -0.5581349 -0.22758695 0.19511425 -0.15280005 -0.13770336 0.29503486 -0.11399217 0.06430575 -0.04691984 0.14277844 0.1219784 0.109014645 -0.19586602
pkuseg 0.0046360088 -0.2619637 0.023201844 0.010720542 -0.11366479 0.11630207 -0.110426486 0.023134256 -0.24347965 0.09354779 -0.09352847 0.3030703 -0.19718659 0.18676278 0.04991233 -0.02219567 -0.023038631 -0.01777721 -0.16337043 -0.028493484 -0.13268067 0.021344472 -0.07844689 0.05824676 0.38933226 0.0200601 -0.21790187 -0.030276835 -0.12142665 -0.07304656 0.098043375 -0.13676135 -0.14693965 0.06547169 -0.08192253 -0.08530049 -0.14022768 -0.6233643 -0.2129516 0.18707776 -0.15981662 -0.14922778 0.2669435 -0.10810376 0.113337 -0.085845955 0.16204299 0.09044741 0.0701921 -0.2519597
airflow 0.01623061 -0.25668573 0.018925792 0.004491565 -0.11031047 0.13697067 -0.13030966 0.010925407 -0.20700103 0.07816793 -0.086832576 0.28144112 -0.18063997 0.16315208 0.03904222 -0.04053107 -0.028306864 -0.008011675 -0.17191055 -0.004476643 -0.13029696 0.015421977 -0.07323924 0.058412515 0.37247708 0.05733229 -0.21409096 -0.035976805 -0.12160755 -0.08377563 0.1280948 -0.11606839 -0.11096449 0.059396148 -0.109693475 -0.08380582 -0.12302933 -0.55036294 -0.21407835 0.19136938 -0.11083006 -0.12599227 0.2722512 -0.1175351 0.09841727 -0.07156138 0.1578827 0.09276149 0.1063124 -0.22061191
tensorflow -0.009167779 -0.27203512 -0.024608877 0.024427267 -0.09136885 0.13343617 -0.12187691 0.017713977 -0.20724414 0.05823178 -0.063303895 0.28003296 -0.20877875 0.16246752 0.04862357 -0.0018901303 -0.022120286 -0.0024328837 -0.19008045 -0.001652364 -0.13820812 0.007875771 -0.057896808 0.07750269 0.34527126 0.03778628 -0.19762202 -0.047122862 -0.15358075 -0.090254895 0.118719205 -0.11327091 -0.11386291 0.041036252 -0.11449718 -0.09825177 -0.1131757 -0.5453267 -0.22940803 0.17807625 -0.1187475 -0.10126185 0.2535066 -0.11820304 0.07691195 -0.034370188 0.13478743 0.08132398 0.08103404 -0.17615202
lxml -0.041679066 -0.22512689 0.025384706 0.002568539 -0.083686136 0.14144757 -0.1426644 0.07201048 -0.24723639 0.07986704 -0.10193602 0.3265495 -0.20348819 0.1736772 0.052900814 -0.06618524 -0.0706682 -0.0038240368 -0.24961515 0.017370623 -0.09492114 0.07332278 -0.07782626 0.07151124 0.40603277 0.053841088 -0.22448696 -0.057015307 -0.0835367 -0.0746701 0.11070414 -0.10796321 -0.12987311 0.08921565 -0.11498127 -0.11827375 -0.1034849 -0.5651362 -0.27128693 0.18180728 -0.13110839 -0.15435831 0.3348081 -0.07181607 0.021473266 -0.0737803 0.12204895 0.09670802 0.1423594 -0.22902054
gurobipy -0.030153468 -0.18696839 0.0206526 0.023286365 -0.06824545 0.1047932 -0.1006697 0.04772559 -0.16385864 0.024545515 -0.047916494 0.22653079 -0.13069385 0.11341063 0.013964208 -0.011487844 -0.015937205 -0.023968656 -0.1553193 -0.002578549 -0.08137706 0.07313805 -0.07271854 0.05015254 0.24972744 0.036008563 -0.15191208 -0.0003143327 -0.07172527 -0.0633401 0.066888146 -0.08157977 -0.08071203 0.048875745 -0.050722633 -0.09643008 -0.06716122 -0.40674254 -0.18770012 0.124210715 -0.087725654 -0.08515985 0.20364915 -0.08939169 0.03876221 -0.0575707 0.08695974 0.08280119 0.08576742 -0.15474312
yaml -0.06844841 -0.3374963 -0.033537578 0.05797656 -0.110216536 0.21660705 -0.17336383 0.08652694 -0.28536934 0.038559977 -0.07373844 0.39763746 -0.2600623 0.21267429 0.03302981 -0.03969319 -0.05583263 -0.042643346 -0.27474913 0.012776723 -0.16890721 0.0365415 -0.087157786 0.09973465 0.44412783 0.045674007 -0.3146858 -0.038753103 -0.19683333 -0.10376237 0.15169856 -0.1299166 -0.1712381 0.046732333 -0.12816703 -0.16675323 -0.12650654 -0.6938278 -0.31321552 0.19335489 -0.18276776 -0.17250906 0.3509302 -0.16520947 0.09146056 -0.08423596 0.16995372 0.14922686 0.13671005 -0.2689673
plotly -0.046313357 -0.26031867 0.019379936 0.058430824 -0.12735945 0.12843607 -0.119490854 0.051438306 -0.22183442 0.05447191 -0.10472066 0.2808396 -0.18963486 0.17248195 0.046497468 -0.040560283 -0.018438801 -0.038000356 -0.1966268 -0.03018461 -0.13076557 0.08029994 -0.054665647 0.097778276 0.35707635 0.0027426323 -0.19705306 -0.02543728 -0.13898547 -0.057397306 0.12259075 -0.10267011 -0.10323133 0.06632956 -0.09122358 -0.11018328 -0.10250894 -0.5208854 -0.21714795 0.19507702 -0.1347068 -0.15359557 0.2832589 -0.12262594 0.08355935 -0.06354222 0.13696961 0.09770328 0.12534207 -0.2287418
dash -0.06329305 -0.20882416 -0.011896004 0.017683996 -0.12395719 0.121122785 -0.15274623 0.06523616 -0.19447887 0.029166384 -0.11255945 0.28275117 -0.19860183 0.18966761 0.01985107 -0.03703238 -0.054575313 -0.05205881 -0.21258372 -0.029903075 -0.09392436 0.09045648 -0.04465194 0.06155177 0.35533673 0.026072826 -0.23108615 -0.047371857 -0.11322345 -0.06500253 0.07057502 -0.06273153 -0.09694561 0.049881935 -0.05696511 -0.08915669 -0.05415597 -0.5143425 -0.20564063 0.15966214 -0.1266816 -0.10592187 0.25612125 -0.11908312 0.031744324 -0.07495717 0.12780233 0.12543735 0.120317236 -0.21051499
cdlib -0.039999325 -0.18232232 0.033386998 0.05580266 -0.08996705 0.076101266 -0.08864531 0.030417 -0.17206141 0.007232038 -0.0689075 0.2127236 -0.13924985 0.106008306 0.038787425 -0.026851358 -0.024425838 -0.03569409 -0.15581553 -0.006083187 -0.089417785 0.044304684 -0.063229576 0.058105294 0.26507574 0.016798362 -0.16763172 -0.014613221 -0.082827464 -0.04790695 0.08192072 -0.06924219 -0.111154556 0.06640915 -0.08701552 -0.08904389 -0.0703071 -0.40356115 -0.1972474 0.14026509 -0.1012671 -0.09963219 0.2379203 -0.11258802 0.04260006 -0.056524705 0.114688024 0.05402338 0.09321521 -0.16677193
faiss -0.012978491 -0.26464698 -0.008822093 0.020631693 -0.09978975 0.15402745 -0.10567419 0.057886083 -0.22341524 0.06464894 -0.08160221 0.30101222 -0.21327297 0.18003114 0.050527472 0.0074178586 -0.027776565 -0.019658897 -0.19867255 -0.019350426 -0.14143269 0.030479705 -0.064400196 0.083020955 0.3787022 0.029946927 -0.22907579 -0.031977244 -0.15301073 -0.103473336 0.09710574 -0.08601682 -0.12325556 0.035914212 -0.117862865 -0.12151608 -0.08904191 -0.58837354 -0.22622558 0.16054046 -0.13653015 -0.14037688 0.289166 -0.13615151 0.07291547 -0.0665135 0.13341756 0.09634448 0.11588156 -0.21135947
pygtrie -0.029440114 -0.3027173 0.08511934 0.030601952 -0.12305767 0.13076566 -0.1909368 0.01883736 -0.23673934 0.054351 -0.20139004 0.36254692 -0.22426799 0.23631462 0.04593545 -0.034790713 -0.068031274 0.00018604897 -0.3035911 -0.018265402 -0.10803208 0.13624398 -0.08760866 0.09231688 0.4628905 0.05468437 -0.2914928 -0.0023059659 -0.063150756 -0.058114477 0.121952415 -0.09208542 -0.14678447 0.060683437 -0.11101911 -0.15251693 -0.07858342 -0.6910908 -0.32263932 0.2298079 -0.2236297 -0.13959615 0.41505277 -0.17995079 0.08099482 -0.07288147 0.17569207 0.09876486 0.09022899 -0.28493708
psycopg2 -0.028207574 -0.28730136 0.037902497 0.014651192 -0.10375326 0.14911604 -0.16122049 0.04566965 -0.22400865 0.07512246 -0.17046174 0.38062418 -0.21767241 0.20127691 0.051345006 -0.06129556 -0.03954881 -0.021619286 -0.2511132 -0.04161709 -0.111111775 0.12129795 -0.10150609 0.08483904 0.48538303 0.04435047 -0.2494616 -0.02089518 -0.103215374 -0.051749513 0.11805448 -0.12692535 -0.119185716 0.07587215 -0.07780311 -0.15541336 -0.0815893 -0.69352645 -0.3090373 0.22892703 -0.21121359 -0.1565847 0.39683834 -0.1668033 0.06452396 -0.08810454 0.14800823 0.07856669 0.11751034 -0.2610009
nltk -0.0044724597 -0.28036013 0.044590563 0.02496829 -0.10366581 0.13754521 -0.1306786 0.010874179 -0.2161556 0.10318958 -0.18415125 0.35504532 -0.20295998 0.22706236 0.048424695 -0.025638303 -0.06684736 -0.03834867 -0.21334338 -0.026232028 -0.11100367 0.08680334 -0.10869443 0.09903001 0.43287238 0.04887773 -0.25408044 -0.03582347 -0.10646074 -0.038055178 0.1498254 -0.13970798 -0.12802854 0.05746021 -0.09889925 -0.11931907 -0.1051984 -0.6771956 -0.2959892 0.2258249 -0.19788699 -0.12670802 0.34264416 -0.1680304 0.07693251 -0.08682759 0.15073048 0.08425115 0.07390124 -0.24182019
jellyfish -0.018798124 -0.29691976 0.046634167 0.049732916 -0.118733585 0.15014856 -0.17231236 0.013986179 -0.23745385 0.060428064 -0.17777021 0.34785748 -0.2115149 0.21820779 0.037567742 -0.05109832 -0.054304246 -0.029851 -0.24465312 -0.036656693 -0.099571645 0.13032071 -0.084896766 0.08365075 0.43431342 0.065314576 -0.26223212 -0.018868122 -0.07240191 -0.046966806 0.147202 -0.1263709 -0.10731178 0.03852358 -0.08855135 -0.1176369 -0.08436289 -0.6311894 -0.3025051 0.20918643 -0.19073848 -0.15038781 0.38671035 -0.14925565 0.08114915 -0.090000376 0.14791794 0.07879994 0.09658526 -0.22672354
fuzzywuzzy 0.013484889 -0.29045892 0.026117017 0.034721904 -0.08804135 0.10679733 -0.1322494 -0.010358664 -0.23601218 0.0828262 -0.13881631 0.30667835 -0.19486845 0.19871546 0.03689581 -0.054985512 -0.02656547 0.003313404 -0.1832962 -0.0074246805 -0.12472658 0.072280236 -0.08974059 0.06344998 0.42064968 0.037109196 -0.2032613 -0.03137035 -0.10006029 -0.06417607 0.13257657 -0.12650831 -0.1070871 0.026729045 -0.098641895 -0.11482794 -0.094331026 -0.62981826 -0.24929924 0.19186977 -0.17495799 -0.14724012 0.32867536 -0.146155 0.0793635 -0.062161066 0.13769522 0.10021668 0.07214386 -0.230924
timeit -0.044762414 -0.27799842 0.071499005 0.04620736 -0.14297768 0.12142859 -0.20622154 0.07499651 -0.253752 0.08902132 -0.16515045 0.37283942 -0.23224854 0.22296673 0.053985115 -0.04493242 -0.072399944 -0.03719213 -0.29530406 -0.0032171758 -0.10961579 0.14935808 -0.095160715 0.13188994 0.4876921 0.03656545 -0.29246795 -0.027987065 -0.067019425 -0.08525247 0.06674943 -0.111108795 -0.13169429 0.08989434 -0.11962513 -0.19023393 -0.104997195 -0.6618522 -0.3363634 0.24895239 -0.17845432 -0.1625142 0.42662442 -0.12599947 0.032323875 -0.082244374 0.19729435 0.09950884 0.13885728 -0.25625384
operator -0.09489755 -0.3489779 0.0068759457 0.056900844 -0.113841295 0.15633868 -0.21765013 0.11402011 -0.24590622 0.06613736 -0.108783476 0.39628798 -0.27956071 0.18883453 0.056632686 -0.04409455 -0.056418613 0.004809781 -0.33585456 -0.0029957131 -0.14291273 0.09959844 -0.103115715 0.15056157 0.4836274 0.076822944 -0.33456635 -0.018655827 -0.13722108 -0.113928005 0.09681773 -0.08942724 -0.17546846 0.078610316 -0.11394929 -0.19920528 -0.12231696 -0.72464293 -0.36949697 0.20955136 -0.17522345 -0.21122043 0.38442054 -0.12475614 0.06479776 -0.09229334 0.21521519 0.08545522 0.17204742 -0.27209198
joblib -0.036253616 -0.27732867 0.035108823 0.051137865 -0.14271663 0.121427484 -0.22028136 0.07308437 -0.23642705 0.06752465 -0.1736197 0.38427877 -0.21596035 0.2119138 0.04208843 -0.06555591 -0.072685 -0.0160574 -0.31433722 0.0023831578 -0.13688569 0.16553295 -0.09307935 0.098101676 0.48723626 0.03694524 -0.30982146 -0.022705046 -0.065419465 -0.08973584 0.080079935 -0.10611585 -0.16404173 0.06454895 -0.117982216 -0.18443799 -0.07240772 -0.7064426 -0.36382794 0.2583781 -0.1751394 -0.19658147 0.44567397 -0.15997018 0.019928474 -0.10302979 0.21827772 0.06636973 0.13390847 -0.2980444
gzip -0.06128231 -0.25026888 0.02955525 0.028623698 -0.13515593 0.09519778 -0.21353076 0.07309894 -0.23396266 0.06607277 -0.13208315 0.36183164 -0.22876698 0.18424034 0.028687024 -0.04260278 -0.06904645 -0.033634473 -0.2863537 -0.01850507 -0.14747196 0.14497802 -0.11071257 0.12965944 0.46735394 0.033411115 -0.26573297 -0.005512225 -0.06273631 -0.097730465 0.07586732 -0.102314316 -0.13294847 0.06019242 -0.09227804 -0.17563294 -0.05812204 -0.657981 -0.36543822 0.23355557 -0.19290854 -0.18328334 0.41987482 -0.107177526 0.036449768 -0.077266686 0.17840742 0.054085284 0.1232597 -0.28865725
dask -0.036328804 -0.29957324 0.041019704 0.05491294 -0.11173704 0.10151594 -0.1980841 0.07038715 -0.22418381 0.0636949 -0.15041502 0.3785393 -0.1967237 0.19437234 0.019513814 -0.059388626 -0.042518396 0.0048826216 -0.3020917 -0.028831437 -0.1289802 0.14564344 -0.08149401 0.09094177 0.45204315 0.041166533 -0.2904202 0.0049529243 -0.08986158 -0.07068132 0.109227166 -0.08741109 -0.14016461 0.06593323 -0.08215073 -0.18748385 -0.102599606 -0.6720807 -0.3545777 0.22749844 -0.18762127 -0.17066066 0.39941937 -0.13356821 0.04603296 -0.101271614 0.209618 0.0697918 0.15212207 -0.2760686
cProfile -0.07932636 -0.24943492 0.052729182 0.05758964 -0.12993675 0.10001532 -0.17149453 0.049431495 -0.21064395 0.05094596 -0.10812244 0.33301482 -0.20375642 0.15684095 0.031450327 -0.07521434 -0.04662754 -0.04936984 -0.28044954 -0.040593024 -0.12259775 0.1397527 -0.10419521 0.11867559 0.39138725 0.0073458576 -0.24243826 -0.0018153676 -0.074417345 -0.08161815 0.0878886 -0.06900644 -0.13900505 0.08704676 -0.065469764 -0.17128909 -0.055436675 -0.5838386 -0.3088519 0.19866167 -0.16398735 -0.117729224 0.380433 -0.13363592 0.016321745 -0.1028484 0.17574604 0.050415087 0.115490064 -0.23421106
regex -0.015483237 -0.20865138 0.010279112 0.03844184 -0.07541433 0.11446461 -0.11829393 0.050498832 -0.17886788 0.06308192 -0.10863117 0.24386 -0.15792923 0.14992379 0.04356105 -0.036583044 -0.021517877 -0.02142345 -0.18014415 0.008701049 -0.08953489 0.07516859 -0.051037587 0.08990345 0.32019776 0.032534286 -0.20383802 -0.017490106 -0.06451513 -0.05533802 0.08304364 -0.10059231 -0.105072126 0.03266006 -0.05337954 -0.10122071 -0.0879785 -0.49673262 -0.20387529 0.17386027 -0.11689539 -0.12525272 0.24818707 -0.116468206 0.06076232 -0.049028978 0.13403292 0.059544668 0.06555696 -0.16230075
