97 300
numpy -0.040605918 0.038234897 0.0024349524 -0.15003009 0.010742752 -0.027128862 0.067750216 0.005473101 -0.15424004 0.17788206 -0.023957036 0.08018807 0.047688335 0.06815727 0.05598434 -0.092459306 -0.031047208 -0.12877499 -0.065818734 0.024460485 0.13069566 0.042696126 -0.05782182 0.0656481 0.13280518 0.09046507 -0.123193435 -0.023677375 0.049530786 0.015740303 -0.06902424 -0.058597267 0.005096327 0.026683422 0.11716317 0.030524528 -0.018898789 -0.14624779 -0.05436073 0.06465195 0.029132733 0.0006697333 0.14449295 0.046167128 0.030940235 0.030352328 0.0023006175 -7.741064e-05 0.0970647 0.08630887 -0.121742524 -0.060500808 0.11244216 0.08610167 0.12424268 -0.0033401323 -0.008614639 0.07930348 0.056507148 0.035048902 -0.06536716 -0.0086027915 -0.06689056 -0.08415519 0.07189054 0.10734435 -0.04414922 0.06835061 -0.036430303 0.07087571 -0.069153674 -0.0558208 -0.05251723 -0.006569116 -0.15904124 0.044079598 -0.11087829 0.06305929 -0.016227217 -0.021032736 -0.01568792 -0.037260327 -0.007683062 0.023406552 -0.058086373 -0.010427385 -0.02331614 -0.10483959 0.040144645 -0.07879033 -0.09318763 0.04041956 -0.09049052 -0.08553819 -0.004271192 -0.12051623 -0.0019655656 0.05211619 0.074494034 -0.070423864 0.05874562 0.036704153 -0.09792693 0.015368489 -0.05175047 0.046845637 -0.00374709 0.03387528 -0.015313744 -0.00049073686 -0.086051956 0.06739049 -0.08520955 0.10795116 -0.10438881 0.060893886 0.08458348 0.008943022 -0.1439412 -0.09415233 0.009582009 0.058513924 0.10583934 0.009416056 -0.04278894 -0.13354479 -0.010725332 0.0165805 -0.025783136 -0.11296182 0.0071105943 -0.0363104 0.13594604 0.048175924 -0.05497904 0.052542765 0.0990824 -0.11432246 0.12681364 0.10013134 0.0027568159 0.011150292 0.09712835 -0.10598626 0.014945195 0.05793162 -0.072127275 -0.058934536 0.017262012 -0.13614826 0.15796666 -0.16098312 0.0723293 0.039174385 -0.0737614 0.05755394 -0.09355205 0.018031871 0.03148405 0.0106515605 -0.053279 -0.042667206 0.029366182 -0.016155252 0.041785356 -0.033711724 0.1058769 -0.08596773 -0.030654877 -0.10330453 -0.09787629 0.07714982 0.0047858423 0.08506867 0.07010613 -0.014303658 -0.0434984 -0.016725374 0.015164063 0.13626353 0.052130897 -0.06987538 -0.05035177 0.05037934 -0.04609789 0.06396551 0.025994122 -0.005588035 0.007718641 0.057017766 -0.050312508 -0.029867275 0.060932603 -0.008767428 0.06673098 -0.091098145 -0.10387817 0.0048894957 -0.12730335 -0.044639725 0.038510468 -0.0098112 -0.08250884 0.14750488 0.09579527 0.10775916 0.010764652 0.044846985 -0.04774961 0.035229575 -0.13035452 -0.07751296 -0.0036168064 0.012778625 0.016734583 -0.043416515 -0.014624765 -0.083183534 0.10531574 0.021714441 -0.07644064 -0.043876857 0.029749885 -0.07328378 0.01911897 0.017303042 -0.019808086 0.07571346 -0.029917313 -0.07468363 -0.07009927 0.07943538 -0.025500432 -0.03914327 -0.045810074 0.0664956 0.101608485 0.047375172 0.0012645143 0.009186966 -0.007669044 -0.012454665 0.07762271 -0.047135144 0.06353163 -0.03856505 0.062357385 0.049405154 -0.0016184372 -0.07351247 -0.12731205 -0.015973223 -0.025798948 -0.019991148 -0.09585106 -0.06303913 -0.030439047 0.10103476 -0.07282542 0.13842537 0.0806939 -0.0414748 0.0132841645 0.04817497 0.20109402 -0.028154438 0.038123205 -0.095576 -0.015592648 0.073307246 -0.032365754 0.00046279808 0.034271616 -0.11965683 -0.01099089 -0.032325003 0.045180693 -0.084577575 -0.034959093 -0.1529198 -0.05455338 -0.018566526 -0.08929856 -0.045159392 -0.13369945 0.082761005 0.024044491 -0.054607097 -0.1388617 -0.034161203 -0.0849748 0.036713216 0.054557893 0.008714026 0.039644063 0.043554086 0.12339264 0.0028202476 -0.0708287 -0.0056023346
pandas -0.036942523 0.03825279 -0.0028314842 -0.14378639 0.015382091 -0.026068227 0.066499636 0.0075212615 -0.15211815 0.17740567 -0.021944698 0.07616934 0.03855491 0.06020482 0.05193575 -0.09425188 -0.026337875 -0.11925018 -0.06075672 0.03431551 0.12981848 0.03891151 -0.056288 0.061709434 0.13665934 0.086272895 -0.12051777 -0.024653602 0.04947978 0.012865077 -0.06672696 -0.057390682 0.007079932 0.028975893 0.114045605 0.040310353 -0.018776799 -0.14718248 -0.05780499 0.063563675 0.03282642 0.0009430435 0.13869356 0.04516625 0.035715636 0.032142263 0.0069140345 -0.000112213325 0.09005656 0.082340084 -0.11413477 -0.058814295 0.11380206 0.081096806 0.12528381 0.005653833 -0.009574001 0.09027182 0.04761531 0.03384665 -0.062310383 -0.003762703 -0.06986183 -0.07951387 0.06504028 0.10847082 -0.04598515 0.06602273 -0.03193251 0.07111344 -0.066714235 -0.053860694 -0.05273411 -0.0038253285 -0.15506083 0.041808795 -0.104612306 0.06558481 -0.01573619 -0.024217298 -0.024646645 -0.030114233 -0.0005543105 0.014982834 -0.067630485 -0.015191327 -0.026906896 -0.096566886 0.042414382 -0.080720335 -0.08435132 0.037323166 -0.09068507 -0.080616206 0.00060146826 -0.11457662 -0.007257569 0.043176435 0.06325276 -0.06703944 0.06331166 0.0394164 -0.10307136 0.018979002 -0.048843056 0.042769585 -0.0015579055 0.028811112 -0.008282873 -0.0068245134 -0.08268264 0.06152445 -0.091868035 0.10411984 -0.10751674 0.061620988 0.0907108 0.007863181 -0.1386702 -0.087731816 0.012622098 0.05564534 0.099499464 0.011899423 -0.045176104 -0.1335164 -0.0021529826 0.01782887 -0.024423461 -0.110166095 0.0058764624 -0.034085393 0.13507695 0.043181583 -0.058007885 0.05223123 0.09996086 -0.107531704 0.12554114 0.093420565 0.00413845 0.011255557 0.08936268 -0.10082358 0.013416261 0.061662227 -0.062411316 -0.05249634 0.016202841 -0.13440932 0.15727876 -0.15534449 0.07413744 0.033683527 -0.06932032 0.057438403 -0.08973788 0.02358348 0.03307855 0.009089554 -0.060978048 -0.04927098 0.029099703 -0.019292118 0.036681894 -0.037053477 0.1040727 -0.086184405 -0.034089115 -0.09165572 -0.092265524 0.08431505 0.0038278014 0.08312991 0.06964087 -0.012845337 -0.038619887 -0.015469369 0.009612453 0.12845494 0.044347063 -0.06463838 -0.048794523 0.055009723 -0.042939607 0.061196778 0.02928173 -0.0027938548 0.015269741 0.062364228 -0.043209657 -0.026265496 0.06184463 -0.0042708064 0.058340114 -0.08571779 -0.10308637 0.004521654 -0.116957664 -0.0489788 0.039859444 -0.012347016 -0.07613104 0.14882351 0.09919147 0.10712834 0.012128294 0.037173457 -0.04733209 0.031329688 -0.12076481 -0.07417239 -0.0033115563 0.01599677 0.018356053 -0.044106178 -0.010213479 -0.08257334 0.10016572 0.019010076 -0.068398945 -0.04651903 0.022492168 -0.06575305 0.01959615 0.017169803 -0.016275123 0.06916043 -0.022694517 -0.06462153 -0.071233355 0.07455711 -0.024737265 -0.041173466 -0.049678683 0.058958117 0.09641499 0.044306938 0.0005327539 0.00046385743 -0.0037091426 -0.017200205 0.07281206 -0.047867198 0.064936556 -0.039500013 0.058222454 0.05386179 -0.008353222 -0.06818209 -0.11983828 -0.0140196765 -0.01775014 -0.019816605 -0.09146858 -0.06035528 -0.03029774 0.1056676 -0.06550842 0.13390927 0.07876959 -0.046087865 0.013852467 0.04105552 0.19451895 -0.027825875 0.038967516 -0.0977338 -0.013352937 0.07095948 -0.029015021 0.0016282246 0.035118137 -0.12031814 -0.01654439 -0.035234652 0.04698519 -0.08434781 -0.024956709 -0.14691949 -0.060043655 -0.016507931 -0.09263149 -0.04941371 -0.13593578 0.082813725 0.02863429 -0.057070803 -0.13885388 -0.029023096 -0.08270459 0.04170798 0.042960487 0.0141216 0.040841665 0.042545643 0.12102467 0.006295175 -0.06629111 -0.003564866
fastapi -0.03706057 0.037035324 0.0049651004 -0.15487212 0.009153558 -0.034144815 0.0716555 0.0010979992 -0.14774558 0.18566988 -0.022751369 0.07647041 0.050320998 0.07167269 0.0572062 -0.09278105 -0.03795233 -0.1342271 -0.07675262 0.014866813 0.12908015 0.04445567 -0.05864104 0.06547796 0.12959802 0.09021463 -0.1278047 -0.028894754 0.04644989 0.021586217 -0.069329165 -0.058377963 0.004805756 0.022901846 0.112514496 0.030485524 -0.022904305 -0.15280761 -0.048711967 0.07436232 0.032403708 -0.0014694685 0.14764778 0.050393682 0.037070777 0.017995 0.0022496707 -0.005123893 0.1024227 0.08859531 -0.13325694 -0.058801588 0.11118582 0.09335494 0.12619066 -0.0016750008 -0.008628215 0.07731673 0.055339724 0.032437902 -0.07533987 -0.013991124 -0.06518862 -0.09262013 0.07703452 0.11035425 -0.048572477 0.076982 -0.035422236 0.06910386 -0.07381186 -0.05184708 -0.052990373 -0.0071697277 -0.1631991 0.04562189 -0.11212065 0.06294226 -0.019727595 -0.018832596 -0.014909731 -0.039618503 -0.0048405463 0.026116801 -0.054375384 -0.010974804 -0.017711442 -0.10986984 0.03689056 -0.08454754 -0.09451327 0.039419107 -0.092259705 -0.086811066 -0.016341008 -0.12350964 0.005931071 0.055029362 0.07935457 -0.069333635 0.05442414 0.040926654 -0.10141026 0.021605408 -0.06369941 0.046312448 -0.012491587 0.032317672 -0.019615637 9.556471e-06 -0.08813193 0.07019179 -0.080630824 0.11422794 -0.099967256 0.06262029 0.08792181 0.013861322 -0.14879957 -0.09091857 0.006320603 0.06392243 0.11493587 0.008473002 -0.045068447 -0.13976912 -0.00903645 0.008597785 -0.02934717 -0.11650748 0.009065684 -0.038222335 0.14900105 0.05204191 -0.058400255 0.055201195 0.09911352 -0.11303241 0.12920061 0.112390034 0.00042798455 0.01660423 0.107688 -0.112723246 0.011070333 0.04837568 -0.07776362 -0.058470752 0.013219278 -0.13720162 0.16343568 -0.16416301 0.06214749 0.0499911 -0.07428432 0.055728287 -0.09451596 0.011650925 0.029627377 0.0065974854 -0.051541463 -0.040221494 0.03841048 -0.008418242 0.044764724 -0.027935274 0.109131575 -0.07960527 -0.029403724 -0.10810816 -0.09439663 0.08209596 -0.002167397 0.08378782 0.07130911 -0.009626237 -0.04925957 -0.01864022 0.013280028 0.14341676 0.054144066 -0.06671398 -0.05503927 0.041065928 -0.048811004 0.06535326 0.026265614 -0.0030813892 0.0074455724 0.05186172 -0.06107197 -0.03242709 0.06272416 -0.005996337 0.06878253 -0.09462127 -0.10305097 0.011253826 -0.1314431 -0.045396466 0.031656716 -0.012533228 -0.08761919 0.14879376 0.09625484 0.11323131 0.005843678 0.04292778 -0.046435367 0.036184136 -0.13422185 -0.08064275 -0.002893942 0.012155386 0.016105648 -0.040530004 -0.013104647 -0.08178054 0.114491604 0.021957885 -0.08453331 -0.042392 0.027810065 -0.07062312 0.019054236 0.014080187 -0.022561256 0.08248808 -0.02994319 -0.08166657 -0.07130093 0.07551053 -0.024118267 -0.043623634 -0.04095313 0.06797294 0.10789116 0.0482077 1.02342e-05 0.015401515 -0.0062164837 -0.008949234 0.0923665 -0.05382648 0.060701393 -0.037198614 0.059684362 0.044185683 0.0016204659 -0.07011968 -0.1271131 -0.017230693 -0.022001376 -0.021652307 -0.10217639 -0.060368508 -0.03413352 0.103691414 -0.07351655 0.14541778 0.08408569 -0.031516016 0.01381337 0.049437173 0.20467807 -0.028498404 0.03738 -0.09131845 -0.019039754 0.07160342 -0.031037582 0.003417241 0.03307426 -0.12929185 -0.007382623 -0.027608408 0.046611443 -0.08492208 -0.035116915 -0.15638821 -0.04884139 -0.012957559 -0.09297713 -0.043527912 -0.1289132 0.08316885 0.023987554 -0.05625638 -0.14077303 -0.04081962 -0.09252141 0.040525004 0.058219653 0.012712547 0.038770005 0.04715398 0.11929067 -0.0015922314 -0.07469217 0.0008455703
hashlib -0.038907062 0.03021382 0.0021538804 -0.1443343 0.0072275707 -0.029643461 0.0718206 -0.0019985512 -0.15038638 0.17755464 -0.021360297 0.07277369 0.04385773 0.07222887 0.05700396 -0.09331387 -0.035790842 -0.12561122 -0.07444319 0.01953275 0.12919134 0.04319149 -0.054743566 0.05958861 0.1256105 0.0940389 -0.1234203 -0.025860466 0.04660658 0.020369472 -0.0684112 -0.054462608 0.0046626767 0.024768557 0.111825526 0.030347409 -0.026497677 -0.15150568 -0.048923586 0.06852868 0.032326043 -0.0061184727 0.1451784 0.04737437 0.03280538 0.020099025 0.007012778 -0.00823043 0.09869422 0.080887645 -0.13433349 -0.059206683 0.1116481 0.086757496 0.1261806 0.00035228216 -0.011085302 0.078595504 0.058148228 0.0328677 -0.07295665 -0.015174849 -0.057773482 -0.08862811 0.07521886 0.10671418 -0.04465534 0.06833406 -0.030391175 0.06614281 -0.077101305 -0.053149886 -0.05368453 -0.0031491888 -0.16319203 0.04201418 -0.10983322 0.06314352 -0.018994512 -0.02028755 -0.015962882 -0.032981645 -0.005427052 0.022520805 -0.05192949 -0.011566974 -0.014811631 -0.1089108 0.03329518 -0.082585335 -0.09368027 0.04041924 -0.09303723 -0.086833544 -0.01228702 -0.11722742 0.003337541 0.050935555 0.08212584 -0.062294815 0.055076208 0.04061929 -0.09692717 0.026519597 -0.0608169 0.047078487 -0.00557884 0.03159608 -0.016722536 0.00025389766 -0.08937457 0.06858499 -0.08343314 0.1084804 -0.09916954 0.061428897 0.08359342 0.012728596 -0.14661714 -0.09134587 0.0045663086 0.05668136 0.11203091 0.013098799 -0.041610476 -0.13745205 -0.013478236 0.007603461 -0.024647508 -0.117466465 0.0097166095 -0.039762445 0.14145137 0.047336034 -0.060597576 0.053003322 0.098745234 -0.11293559 0.12445113 0.10827355 0.0010262992 0.015400506 0.10206858 -0.10728952 0.011632189 0.046670463 -0.07625974 -0.05476762 0.015523392 -0.13324727 0.15552427 -0.1607925 0.06397422 0.049156807 -0.07448322 0.05798872 -0.09206761 0.01502372 0.03220745 0.0054327785 -0.048740912 -0.039431926 0.031897306 -0.010631579 0.048476793 -0.030228345 0.10976464 -0.076746255 -0.02715578 -0.1078182 -0.08970789 0.074051015 0.0031344432 0.08021612 0.066994965 -0.014793806 -0.044484727 -0.01769175 0.011536534 0.1392437 0.05455769 -0.06368355 -0.048993107 0.043752737 -0.04771959 0.066188596 0.030260617 8.99123e-05 0.00885749 0.051991384 -0.052331775 -0.031607833 0.06122002 -0.008615072 0.06457725 -0.09381411 -0.098962 0.011326722 -0.1320737 -0.046291273 0.035028473 -0.010766327 -0.083309576 0.13930504 0.09128902 0.106563896 0.004158059 0.047795787 -0.04273457 0.028511185 -0.12741528 -0.0833748 -0.007533409 0.0130708795 0.010147468 -0.042168114 -0.006176006 -0.076821305 0.11005193 0.018378083 -0.08207559 -0.045073833 0.028595204 -0.07048944 0.020024294 0.019469997 -0.020286959 0.07930671 -0.030262878 -0.074394144 -0.06987361 0.07594794 -0.019550854 -0.038774703 -0.04231563 0.06050422 0.10411575 0.047304433 0.005757005 0.0111009665 -0.0029293194 -0.010588837 0.091882855 -0.04676502 0.059657216 -0.033652145 0.061523236 0.049825326 0.0005879549 -0.06741175 -0.12750596 -0.019114085 -0.026228063 -0.0137058105 -0.09866603 -0.061057508 -0.032195065 0.10721752 -0.074642256 0.13785814 0.079778194 -0.034984656 0.017109662 0.046475608 0.1968356 -0.032646284 0.03360662 -0.09430668 -0.012867692 0.07340363 -0.026711315 0.0062383795 0.033739842 -0.12623465 -0.009916542 -0.029741995 0.042438388 -0.087215595 -0.03708108 -0.15390792 -0.04534854 -0.013854042 -0.08990491 -0.042741865 -0.13023585 0.077307165 0.024805374 -0.05185836 -0.1364812 -0.040695515 -0.0889944 0.039301153 0.052907083 0.011286423 0.035057727 0.046522934 0.11851793 0.0054713725 -0.06558992 0.0028025429
multiprocessing -0.032400373 0.037359092 0.006352565 -0.1506281 0.016435606 -0.02321647 0.07290049 0.007483072 -0.15988217 0.19002712 -0.02203379 0.081792556 0.042380136 0.06696734 0.054364517 -0.1039461 -0.03012261 -0.122260265 -0.06318223 0.030626476 0.13675857 0.045125447 -0.055298023 0.0606995 0.13671367 0.09636092 -0.12549368 -0.018672174 0.053413685 0.012714418 -0.0680778 -0.05570845 0.01480066 0.027467426 0.120006405 0.03596752 -0.027650585 -0.15367611 -0.057431262 0.059283517 0.032105032 0.0027701417 0.14776541 0.0459837 0.03771618 0.039045215 0.0045131086 -0.0050598853 0.09536664 0.08767348 -0.1244212 -0.05862254 0.116682194 0.08596402 0.12778008 -0.0014956514 -0.010170171 0.09084994 0.053398497 0.035761405 -0.068893 -0.0033922803 -0.06857867 -0.08627423 0.06806688 0.10917797 -0.050797787 0.06997419 -0.026140649 0.069426246 -0.070467226 -0.0582468 -0.050767463 -0.0007029168 -0.16425803 0.04834417 -0.108233556 0.067933485 -0.017603174 -0.018391076 -0.01989992 -0.032977294 -0.0049415925 0.019580508 -0.06688458 -0.016070632 -0.019438555 -0.1060657 0.038524598 -0.08178313 -0.093487054 0.045889214 -0.09246201 -0.08744606 0.00038226522 -0.120220564 -0.0049525443 0.04823547 0.06729891 -0.07102205 0.0602953 0.03742011 -0.10465788 0.01961277 -0.050212897 0.04640964 -0.0026385263 0.03136573 -0.014236629 -0.00024131058 -0.08346653 0.06607859 -0.090003036 0.11327993 -0.10269628 0.05973447 0.09027488 0.011543652 -0.14282988 -0.09246563 0.0063691805 0.054578505 0.103769556 0.014156803 -0.04003878 -0.13964641 -0.0022379311 0.010363297 -0.02162316 -0.115669236 0.01019964 -0.038022242 0.13544725 0.049591254 -0.06064591 0.05877343 0.10361523 -0.11507135 0.13587998 0.09720253 -0.0010595102 0.010559772 0.09343695 -0.10462317 0.012322241 0.065202035 -0.060172975 -0.056390114 0.01771892 -0.13550498 0.15626013 -0.16732839 0.076527 0.043218043 -0.07477012 0.05904721 -0.08950118 0.019978432 0.028112449 0.012198272 -0.06694703 -0.052385617 0.027151892 -0.020494603 0.045409184 -0.04332276 0.10828015 -0.08878321 -0.028598847 -0.09857038 -0.09286889 0.080995284 0.00327583 0.08561508 0.07253604 -0.011884893 -0.041773196 -0.009965668 0.0054938584 0.13739447 0.05254989 -0.07209827 -0.049268626 0.057135273 -0.042307764 0.064084895 0.032427862 -0.0043788524 0.016306713 0.067214765 -0.0475852 -0.029401997 0.064173535 -0.0048045116 0.059829913 -0.087853916 -0.10025732 0.0070897555 -0.13047658 -0.053009532 0.04769545 -0.014349947 -0.08554846 0.1482314 0.10264216 0.109480835 0.010560972 0.04254289 -0.05152549 0.031639572 -0.13406178 -0.08240581 -0.0070204395 0.017777963 0.0147728985 -0.039482214 -0.014532749 -0.083725885 0.10715783 0.017454555 -0.06724019 -0.04049557 0.028360447 -0.070767075 0.018323964 0.021612026 -0.021043407 0.07925116 -0.027215222 -0.069212414 -0.073705085 0.07789409 -0.023819 -0.040794704 -0.052403897 0.06330133 0.10133668 0.050467644 -0.0005540162 0.009825146 -0.0036619364 -0.013975864 0.08473379 -0.046991818 0.061661776 -0.038699314 0.06341361 0.05898683 -0.0067369887 -0.074404255 -0.1280811 -0.017079238 -0.025363117 -0.020907138 -0.09734157 -0.067010686 -0.028308468 0.10637787 -0.074827194 0.13556994 0.08404007 -0.044641595 0.0121641485 0.04176557 0.20224202 -0.030192103 0.044564903 -0.10099965 -0.0129011 0.070119105 -0.02917877 0.0038391254 0.036953222 -0.12565392 -0.008586406 -0.037592243 0.045503594 -0.08952855 -0.031352993 -0.14876398 -0.060285073 -0.023821937 -0.09472407 -0.053254724 -0.14143716 0.08561641 0.025228176 -0.058091715 -0.14894748 -0.03350532 -0.09065265 0.03997465 0.04520964 0.009286412 0.040989574 0.042378567 0.12465601 0.006275026 -0.06981789 -0.00075432303
transformers -0.037040725 0.032139145 0.0006823865 -0.15036948 0.010735295 -0.03478073 0.07612997 0.0016965976 -0.15016684 0.18415762 -0.02554191 0.0752886 0.04936797 0.06821781 0.054092545 -0.092226274 -0.035672065 -0.13219827 -0.07122944 0.018413017 0.13424505 0.045384437 -0.056306936 0.061683707 0.13087997 0.089466505 -0.1265686 -0.03125385 0.045357153 0.022987723 -0.074869506 -0.063312724 0.011357558 0.02311884 0.11840282 0.025915528 -0.027652092 -0.15336984 -0.049196776 0.06847437 0.03056485 -0.0069850385 0.14306171 0.048309803 0.033818893 0.024718197 0.006098718 -0.0026564763 0.09426671 0.078875214 -0.13214484 -0.05577258 0.11129026 0.088263504 0.12667175 -0.004992703 -0.009072524 0.08314205 0.06177435 0.038716707 -0.0687336 -0.015087705 -0.06583141 -0.08620382 0.074616626 0.107032225 -0.043327317 0.07064509 -0.033958413 0.076729454 -0.08054083 -0.055859063 -0.051080834 -0.0011950106 -0.16370936 0.044064455 -0.108820125 0.06905584 -0.023844864 -0.02136949 -0.018234288 -0.03994143 -0.0067599495 0.021971855 -0.053251598 -0.014149229 -0.014927256 -0.11046242 0.04088643 -0.09002944 -0.09454479 0.037155062 -0.09547939 -0.092781894 -0.0075573586 -0.12397114 0.0026612934 0.05494873 0.081506 -0.06607589 0.052483115 0.040586922 -0.095720105 0.023141019 -0.060854264 0.046763018 -0.009758032 0.034355424 -0.021703111 -0.004150632 -0.08673089 0.064990915 -0.08024394 0.112048425 -0.10670092 0.05739397 0.08966221 0.0120511865 -0.14898562 -0.08961659 0.008074509 0.05609451 0.1148548 0.0037731952 -0.04595944 -0.13227245 -0.008628797 0.013554789 -0.02860108 -0.12170412 0.0083555365 -0.033428505 0.13980696 0.0525051 -0.058310222 0.05196923 0.09305699 -0.10926259 0.124871396 0.10399076 0.0016884895 0.007619798 0.10217116 -0.10713497 0.0068163425 0.050791882 -0.07331702 -0.053697728 0.018787282 -0.1301718 0.15398812 -0.16662914 0.06288068 0.044921562 -0.07579231 0.053259667 -0.090266354 0.019359581 0.036627565 0.003232106 -0.050804816 -0.041818336 0.03204887 -0.012841814 0.044091165 -0.03284251 0.11088398 -0.078650765 -0.027734613 -0.10219484 -0.09100512 0.07892083 -0.0009405166 0.08473008 0.07030922 -0.010144329 -0.049590092 -0.0152608715 0.017422987 0.13920619 0.053150967 -0.07237107 -0.055609394 0.047397718 -0.0486093 0.065056816 0.02794822 -0.005443777 0.012044285 0.05315743 -0.051230613 -0.029711146 0.06040646 -0.009599949 0.062326584 -0.091100566 -0.10339229 0.0057265856 -0.13250662 -0.04372971 0.03530766 -0.013603688 -0.08526691 0.14301997 0.09831396 0.115236774 0.01072518 0.045786746 -0.04979988 0.028752653 -0.1333884 -0.08380179 -0.0014542128 0.015508258 0.015764838 -0.03755183 -0.008924261 -0.08286553 0.10775587 0.018158888 -0.08225625 -0.040588737 0.032594584 -0.06988144 0.016784191 0.020972693 -0.020971017 0.07693647 -0.03236953 -0.079723656 -0.06497127 0.078568734 -0.02146758 -0.037580706 -0.04009621 0.06828243 0.10229334 0.044724684 0.0023299248 0.009381466 -0.006396771 -0.009876854 0.08701454 -0.05346045 0.060849693 -0.031864367 0.06540758 0.04934713 0.0027118293 -0.070234574 -0.12515068 -0.016749036 -0.027525224 -0.018965585 -0.09685154 -0.06437212 -0.031331707 0.10662169 -0.07451183 0.14364873 0.079285994 -0.038341254 0.009031916 0.048275903 0.20086789 -0.02698401 0.038773373 -0.095296495 -0.02310714 0.07119251 -0.030715184 0.0032336493 0.034121282 -0.12851314 -0.005316989 -0.03543502 0.043728504 -0.090553775 -0.03643807 -0.15296261 -0.050365396 -0.021359084 -0.09705886 -0.04203684 -0.13202703 0.07902179 0.023485016 -0.06047361 -0.1379505 -0.03338152 -0.08907433 0.043254387 0.057773057 0.008213287 0.03565763 0.042010486 0.12606649 -0.0005902161 -0.069576524 0.0028589237
torch -0.040120784 0.032605316 0.0025693884 -0.14861877 0.0057135257 -0.036767744 0.0681283 0.0008329392 -0.15234318 0.18248951 -0.026119215 0.07656537 0.04868181 0.06982168 0.05778997 -0.09529248 -0.037526354 -0.13027604 -0.07327626 0.015142483 0.12674247 0.044593472 -0.055165436 0.067633055 0.12807778 0.0938664 -0.12647524 -0.025018971 0.04698916 0.024529515 -0.07103771 -0.05362893 0.0062226034 0.02109314 0.112188004 0.024113644 -0.020093411 -0.14887682 -0.051140267 0.06914301 0.029620945 -0.0072438396 0.14468557 0.050186906 0.03725616 0.021928953 0.0032959532 -0.0046080546 0.09469652 0.0799316 -0.13257723 -0.059370115 0.10900486 0.084938236 0.12083161 -0.0014072383 -0.013162187 0.07756406 0.05657351 0.035558145 -0.06675045 -0.014753801 -0.059295733 -0.08865136 0.0760028 0.10393942 -0.049215037 0.07224063 -0.040583756 0.07328567 -0.07982475 -0.054911327 -0.05161307 -0.00063235126 -0.1591489 0.041209336 -0.110445864 0.06712428 -0.017914044 -0.0231842 -0.016871113 -0.03821148 -0.009119016 0.025176369 -0.04984773 -0.014894532 -0.014961118 -0.1065996 0.033539947 -0.08534326 -0.09803817 0.03548095 -0.08931238 -0.08599398 -0.013069453 -0.11550502 0.0040167705 0.055711098 0.08086613 -0.06580404 0.053173464 0.039281145 -0.09413051 0.023417508 -0.0603038 0.04208828 -0.008605049 0.030285088 -0.023170335 0.0026256999 -0.09090518 0.070143454 -0.081977 0.110690996 -0.102094345 0.058538817 0.08390114 0.012733168 -0.14388941 -0.090826 0.008315786 0.05911933 0.112775385 0.007967091 -0.046550695 -0.13566118 -0.011010905 0.009648137 -0.030019466 -0.11250823 0.0047063683 -0.036390472 0.1444082 0.052386712 -0.057680003 0.04864803 0.09251018 -0.10835272 0.12780982 0.10428242 -0.0036543668 0.011289679 0.10538548 -0.11120054 0.008744689 0.047016025 -0.07644948 -0.05109479 0.011340348 -0.13210347 0.15669158 -0.15914714 0.060949884 0.043061603 -0.06901117 0.054054517 -0.0924578 0.014622097 0.033103764 0.0017448567 -0.046576884 -0.037019957 0.032109834 -0.008953876 0.045532472 -0.027746119 0.105055764 -0.07773043 -0.023903124 -0.10637626 -0.089461885 0.07846904 0.0022342862 0.07976082 0.06766795 -0.015889032 -0.043693677 -0.015996778 0.012310324 0.13858925 0.051324487 -0.06655263 -0.056183323 0.044718005 -0.047462784 0.066046216 0.030389188 -0.006721564 0.0053152004 0.05700524 -0.05513681 -0.03202167 0.05720734 -0.0085025 0.067344084 -0.094534844 -0.10292461 0.013596472 -0.13051882 -0.04614088 0.03735133 -0.01337294 -0.08579695 0.14129427 0.094095774 0.108065404 0.005998985 0.04007814 -0.044624843 0.031245822 -0.1296584 -0.08248111 -0.0059624724 0.015754703 0.015162955 -0.041105364 -0.01087695 -0.077459954 0.11123753 0.017653055 -0.080632366 -0.04061797 0.032827847 -0.06997529 0.0130746225 0.016956745 -0.022974562 0.080108754 -0.031169055 -0.077585615 -0.06494393 0.07240459 -0.026200484 -0.037288923 -0.03817119 0.06728645 0.10200021 0.044864457 0.008525962 0.012468925 -0.00752861 -0.0074374536 0.08840964 -0.04755295 0.0604195 -0.030000694 0.059535563 0.047672294 0.0023811287 -0.06963482 -0.12866095 -0.020916568 -0.02786895 -0.016208515 -0.094220206 -0.06282509 -0.028566442 0.10674778 -0.075295106 0.13993521 0.08176005 -0.034834575 0.011881457 0.04903898 0.19796215 -0.029312273 0.03746921 -0.0898523 -0.02010368 0.07204214 -0.030881787 0.005369575 0.033623483 -0.12604837 -0.0063854866 -0.03075461 0.044725385 -0.085480735 -0.03703494 -0.1550889 -0.042136446 -0.020824315 -0.09209596 -0.042034104 -0.13151214 0.08069441 0.027315913 -0.053911142 -0.13607559 -0.03934968 -0.086206965 0.037614953 0.06131743 0.008261705 0.03229242 0.045879703 0.121580146 0.0039910544 -0.068281226 0.0012893794
redis -0.039048646 0.044935066 0.0012628052 -0.17885382 0.016980145 -0.031384673 0.08122264 0.0039932984 -0.17568852 0.20950788 -0.027054159 0.08926209 0.051845696 0.07797519 0.064290635 -0.11284373 -0.028740512 -0.14272314 -0.07574828 0.037547305 0.15610099 0.051958732 -0.067790486 0.07026612 0.15478835 0.103839904 -0.14036211 -0.024074333 0.05594816 0.015940009 -0.07772537 -0.057207394 0.012442704 0.027896892 0.13429537 0.045375157 -0.023200288 -0.17265967 -0.06551629 0.07163561 0.03893444 0.0062670917 0.16174105 0.057833966 0.036598105 0.036060866 -0.00071411673 -0.0023292059 0.11155773 0.10070329 -0.1372631 -0.06563689 0.13956733 0.09733676 0.14140968 0.003193133 -0.009314877 0.09909096 0.06502019 0.035282668 -0.077547684 -0.010663789 -0.077424295 -0.09774365 0.086247966 0.13012356 -0.058088895 0.08679623 -0.030707035 0.08466139 -0.08030047 -0.060467187 -0.05670875 0.0007206934 -0.18964341 0.0566724 -0.12866992 0.073447585 -0.017049782 -0.023654537 -0.021417039 -0.04077024 -0.0051018726 0.020778004 -0.07250982 -0.017153693 -0.026134275 -0.12217521 0.04671624 -0.09203196 -0.105247706 0.04513191 -0.10808745 -0.09747671 -0.0035971804 -0.13469139 -0.0043578604 0.055077504 0.077401675 -0.08146408 0.067105584 0.04144431 -0.12532127 0.018234467 -0.058349814 0.05337338 -0.005384927 0.038463127 -0.017613458 -0.0038707734 -0.093016386 0.07871551 -0.103455074 0.12373226 -0.12287395 0.070598066 0.10315487 0.01875075 -0.16286352 -0.1025112 0.012246524 0.062094893 0.11242807 0.015273955 -0.05224827 -0.15299499 -0.0038227171 0.018013531 -0.030155517 -0.12696081 0.010224484 -0.048432544 0.15796635 0.050990306 -0.068500765 0.069040164 0.113416664 -0.13033296 0.15031658 0.11598022 -0.005934977 0.016360952 0.10833875 -0.12281864 0.015929814 0.0687831 -0.074368514 -0.06830845 0.015761234 -0.15441518 0.18253034 -0.18324009 0.08314282 0.04886629 -0.08680654 0.06947085 -0.09972782 0.022987846 0.031016435 0.017600536 -0.073263496 -0.049182832 0.028552162 -0.02017782 0.04723668 -0.049674407 0.12716448 -0.09572728 -0.038725257 -0.11027317 -0.11028272 0.094306774 0.0036865291 0.09584975 0.07612926 -0.016013185 -0.055121247 -0.01814832 0.0047026975 0.15578893 0.058268055 -0.08098163 -0.05585309 0.06327344 -0.047065396 0.077627756 0.042106636 0.00044214676 0.01850064 0.073153235 -0.058089435 -0.034079097 0.0703134 -0.0036842593 0.07408152 -0.096636645 -0.12267153 0.007926086 -0.14283215 -0.052429534 0.047770932 -0.0175664 -0.095444605 0.17188278 0.120368 0.12258461 0.009319274 0.04504345 -0.051703118 0.03793385 -0.14790097 -0.09521099 -0.006212491 0.013035273 0.0151187675 -0.050927095 -0.018903581 -0.09057949 0.12442546 0.023136666 -0.084383205 -0.053726897 0.028154979 -0.08043751 0.025520988 0.023752466 -0.024420895 0.08449393 -0.034581173 -0.08241996 -0.08834029 0.09492086 -0.02750134 -0.045446917 -0.059197944 0.07524381 0.11620879 0.05911195 -0.005822117 0.0060679996 -0.005775065 -0.017769372 0.09159321 -0.04946822 0.076858856 -0.040729143 0.06812865 0.06259629 -0.014272044 -0.08067834 -0.14371079 -0.013032045 -0.021229446 -0.024814595 -0.11537868 -0.07240779 -0.039615422 0.11932057 -0.08030213 0.15154059 0.09248617 -0.04418341 0.022133986 0.049064875 0.22680834 -0.031969782 0.04638921 -0.11334885 -0.021018837 0.080092005 -0.040832184 0.0077451034 0.039463054 -0.13766208 -0.015568202 -0.032305095 0.053303286 -0.10283027 -0.030527089 -0.16908923 -0.068774134 -0.018963588 -0.10087827 -0.053327207 -0.15838073 0.09487857 0.033771813 -0.05635171 -0.15954238 -0.03924065 -0.09937104 0.04106002 0.052645672 0.0057720547 0.04864965 0.049284134 0.14083506 0.0023787208 -0.082557075 -0.004890019
matplotlib -0.03626554 0.030504057 0.0021389564 -0.12580341 0.01120779 -0.020593442 0.05885776 0.0070311106 -0.13004178 0.14967187 -0.020036561 0.0604972 0.04007463 0.05600063 0.043724388 -0.08155141 -0.02367902 -0.10764853 -0.05837049 0.02424586 0.10936098 0.039272673 -0.051774867 0.054682802 0.11199473 0.07595011 -0.105732664 -0.021280125 0.044432007 0.010859349 -0.06167834 -0.04924721 0.0027982383 0.021267036 0.09893712 0.03187684 -0.017668763 -0.12475499 -0.043085434 0.050896775 0.0260962 -0.002255619 0.115644135 0.037188545 0.028952384 0.028428363 0.0061603365 -0.00077247375 0.082595505 0.06991844 -0.09792735 -0.046337128 0.09460261 0.07222593 0.107674345 0.0010727731 -0.004868134 0.07522001 0.044474676 0.026330968 -0.057771835 -0.00821 -0.057290915 -0.0702414 0.059755087 0.09097621 -0.04108062 0.058561362 -0.030131245 0.056788325 -0.054432012 -0.049672563 -0.04566823 -0.00601159 -0.13926242 0.037157018 -0.09204112 0.052269313 -0.016696392 -0.022411551 -0.016275894 -0.027230978 -0.0060205623 0.013820472 -0.053910077 -0.011422306 -0.020742476 -0.08941255 0.035129867 -0.070540965 -0.077689394 0.031066015 -0.07420252 -0.07016789 -0.0029705067 -0.1048867 0.00078296335 0.043216802 0.056411475 -0.05307373 0.052931104 0.029988986 -0.0837179 0.012681706 -0.04792657 0.034217793 -0.0024524166 0.028300848 -0.011840705 -0.0051597003 -0.07273896 0.05733232 -0.07202887 0.09338689 -0.09281965 0.054298487 0.076679856 0.008487647 -0.12218085 -0.073006265 0.008012313 0.043150503 0.08309343 0.009208032 -0.043020375 -0.115040354 -0.0048321607 0.017366627 -0.022717275 -0.095477805 0.010337308 -0.028108131 0.12003092 0.037889186 -0.045834385 0.050574493 0.0820222 -0.09435405 0.111245155 0.082400784 -0.0006809064 0.0155111225 0.084855065 -0.08798236 0.012816282 0.048957936 -0.053005286 -0.04685683 0.01275503 -0.118133724 0.13554439 -0.13759461 0.060819358 0.03002746 -0.05657023 0.045615364 -0.07512143 0.02158336 0.022204233 0.0077861445 -0.050825678 -0.040088736 0.025455056 -0.015525606 0.033561684 -0.03351062 0.09316774 -0.07250805 -0.028102178 -0.07950747 -0.07885599 0.072911516 0.004138524 0.07085827 0.06146424 -0.014353909 -0.038665432 -0.010974339 0.012382267 0.11435694 0.039428923 -0.05633464 -0.043428425 0.045086626 -0.039562922 0.054972675 0.023880405 -0.005453635 0.013534204 0.049808092 -0.045562703 -0.025830995 0.051813588 -0.008953894 0.05223336 -0.075934276 -0.0868815 0.0073975986 -0.1014414 -0.04128534 0.037920382 -0.012205857 -0.067257725 0.124869294 0.0867429 0.09491775 0.009102014 0.031240894 -0.038677987 0.030601319 -0.10374699 -0.061240975 -0.006667105 0.012946054 0.011359548 -0.03436596 -0.005899387 -0.07285139 0.08846737 0.018728659 -0.057094093 -0.039406035 0.018621344 -0.056361355 0.020083874 0.01635655 -0.013835078 0.05867008 -0.022445885 -0.062467802 -0.05653518 0.066812046 -0.016066581 -0.03302903 -0.044802453 0.04943311 0.08239775 0.042176455 -0.0034271106 0.0074269534 -0.0061323238 -0.011244119 0.06316274 -0.040143095 0.054300062 -0.035307873 0.051627632 0.046524573 -0.0014891332 -0.061245676 -0.10247584 -0.010279638 -0.015852459 -0.017578313 -0.07865588 -0.050250754 -0.030353395 0.08741264 -0.05694816 0.11166859 0.06736907 -0.034339484 0.00931973 0.03782213 0.16367508 -0.023183376 0.030364025 -0.077826485 -0.015863223 0.065005735 -0.02508493 0.0051633334 0.034607053 -0.10572258 -0.00729322 -0.027867496 0.04150496 -0.06960916 -0.02512757 -0.12693599 -0.05103897 -0.017715747 -0.07963783 -0.03664025 -0.11447788 0.068288974 0.021651285 -0.04680387 -0.120153196 -0.02404186 -0.072469 0.03529114 0.043575626 0.009409797 0.04065127 0.03483274 0.100446746 0.0039236075 -0.060484834 -0.006305412
asyncio -0.033991907 0.039896373 0.001958109 -0.15424336 0.007903405 -0.03033596 0.076439776 0.002632013 -0.15690242 0.19591382 -0.028732156 0.07622072 0.050138503 0.06897489 0.05993818 -0.10109417 -0.035604447 -0.13081926 -0.072936885 0.023234043 0.1382679 0.04525854 -0.062002357 0.06276086 0.14074886 0.09659216 -0.13032883 -0.02602567 0.05398284 0.0164498 -0.06873689 -0.05875547 0.012087684 0.024797743 0.12060351 0.031686466 -0.024404423 -0.15960506 -0.056536093 0.06684907 0.031547733 -0.0060349493 0.15017532 0.05288185 0.03415754 0.029194986 0.00080339756 -0.004332156 0.09960663 0.09319922 -0.1341124 -0.06347167 0.12142804 0.0909591 0.13437173 0.0029633315 -0.005420604 0.087913334 0.056662172 0.033911698 -0.07515857 -0.0139864115 -0.06776003 -0.09492826 0.07350565 0.11315948 -0.05011608 0.07868353 -0.033193804 0.0778268 -0.07540715 -0.060454708 -0.058423936 -0.00094317517 -0.16892539 0.04632738 -0.113230966 0.07114044 -0.019597126 -0.025787108 -0.02034488 -0.032785755 -0.005116915 0.023428379 -0.05903157 -0.017621513 -0.022423467 -0.11461332 0.03545462 -0.0849033 -0.09171209 0.041172925 -0.09585752 -0.089658864 -0.011243517 -0.12204488 0.0030657467 0.052974626 0.078267105 -0.06962012 0.06024795 0.040880106 -0.104181774 0.016702121 -0.058278706 0.048808116 -0.007835678 0.03196186 -0.015273361 -0.0034554426 -0.09070779 0.06739697 -0.094024554 0.119740345 -0.10996528 0.06045129 0.09273461 0.015931208 -0.15216532 -0.09148714 0.009897974 0.06478273 0.10812767 0.014166177 -0.04588182 -0.13990703 -0.009172771 0.013376065 -0.024524396 -0.12549298 0.012702134 -0.03633876 0.14373013 0.05161576 -0.063659824 0.056237906 0.108247444 -0.113633715 0.13275029 0.11107164 -0.0014355537 0.012968928 0.107252054 -0.11092421 0.011037904 0.05680924 -0.07064502 -0.060756166 0.014374392 -0.14078556 0.16290326 -0.17021403 0.069024995 0.04398907 -0.07468722 0.05502625 -0.09540845 0.01969615 0.036964886 0.011059619 -0.06191019 -0.04264554 0.03673336 -0.014284063 0.045152012 -0.03990927 0.1130729 -0.08871563 -0.02718855 -0.11043828 -0.09923984 0.088035874 0.0049125096 0.0845181 0.07141048 -0.013973494 -0.046219803 -0.011706413 0.012705038 0.14737618 0.04904326 -0.073899135 -0.05305888 0.046623528 -0.04721587 0.06512277 0.03395624 -0.0052925814 0.008101299 0.0594195 -0.055230215 -0.03201374 0.063061826 -0.0020279677 0.06507581 -0.09502664 -0.1059977 0.009257441 -0.1299023 -0.05388422 0.0405756 -0.011074197 -0.08673234 0.15527272 0.104877 0.11766625 0.00916801 0.0486688 -0.051207237 0.034297895 -0.137313 -0.08833578 -0.006555524 0.012778161 0.01378628 -0.04558538 -0.010939255 -0.07851091 0.11484369 0.018560024 -0.08045684 -0.04269722 0.027450267 -0.07216827 0.020035366 0.016709741 -0.022308884 0.07891743 -0.032143973 -0.0766268 -0.07785344 0.08166951 -0.025214486 -0.045492854 -0.046242267 0.06530875 0.109597936 0.05150562 0.0065409555 0.0054080314 -0.0042878967 -0.009038408 0.09187566 -0.0531231 0.068943225 -0.039546367 0.065723024 0.05171482 -0.005841735 -0.07392388 -0.13589062 -0.01755171 -0.021603491 -0.018662756 -0.10536691 -0.061805096 -0.036311585 0.10937799 -0.07584321 0.14539754 0.08692006 -0.040927205 0.017719911 0.044668477 0.20845295 -0.029824713 0.041676957 -0.10277312 -0.01461347 0.0752599 -0.03217984 0.00033236746 0.03804587 -0.12452152 -0.01427339 -0.03341602 0.045834072 -0.08827455 -0.035890635 -0.15636963 -0.05138183 -0.022981452 -0.09245908 -0.04393938 -0.14045359 0.08468926 0.030990653 -0.05454045 -0.14429691 -0.03745158 -0.09187011 0.043122876 0.051661886 0.01192674 0.04097826 0.046832256 0.12391168 -0.00036332168 -0.07175349 0.0009954278
psutil -0.03556316 0.04644053 0.0075341547 -0.16685085 0.020303292 -0.019195072 0.07587807 0.009341096 -0.1702316 0.21591322 -0.026517423 0.086113125 0.03881722 0.06370463 0.06535476 -0.11380408 -0.029172227 -0.13375005 -0.06929746 0.04785946 0.1517661 0.04130242 -0.07019923 0.057147365 0.15797822 0.10381677 -0.13444504 -0.010095911 0.066159695 0.011296771 -0.07141931 -0.05992385 0.017383512 0.029812824 0.1317783 0.05257254 -0.024324715 -0.16922663 -0.07438981 0.0606175 0.03717296 0.0038771085 0.15393732 0.052514758 0.035829604 0.05297449 0.0028620586 -0.0046888175 0.100545935 0.09926158 -0.12436551 -0.064274125 0.14090435 0.08581991 0.14094292 0.007082795 -0.0013737981 0.105891876 0.054710276 0.032374788 -0.07553584 -0.008626155 -0.077121705 -0.09889956 0.07613511 0.12511091 -0.050583202 0.081348665 -0.0248648 0.076404 -0.07239673 -0.063632555 -0.06323265 0.003472622 -0.18348803 0.05530818 -0.12034521 0.07612604 -0.015201514 -0.023517441 -0.02680749 -0.032298006 -0.006021143 0.012540339 -0.08611697 -0.018565312 -0.03303648 -0.11577489 0.042639222 -0.087456316 -0.09144661 0.052784357 -0.09971818 -0.089259095 0.005493797 -0.12959489 -0.0133105125 0.04474332 0.059039205 -0.07816118 0.069396496 0.039695084 -0.13044691 0.0065686507 -0.042176224 0.043915644 0.0047347047 0.03338334 -0.008146251 -0.0062974766 -0.08923945 0.07197303 -0.11837359 0.12741578 -0.120375164 0.071153566 0.10183287 0.013854304 -0.15695499 -0.09177605 0.008699523 0.06462583 0.10446968 0.016849846 -0.046822242 -0.14768253 0.00081929896 0.012827901 -0.019289274 -0.12546068 0.012310733 -0.044819225 0.1435383 0.04773656 -0.07497421 0.06145037 0.122023724 -0.12967734 0.15088093 0.10142269 -0.0027178663 0.009025513 0.09883134 -0.11189723 0.020633956 0.0745602 -0.061127737 -0.06335556 0.023919623 -0.1534094 0.18012975 -0.18447892 0.08831312 0.04806933 -0.0826456 0.06945351 -0.09347234 0.02998399 0.038327858 0.0282355 -0.08505418 -0.05325718 0.025324337 -0.025462195 0.0482821 -0.054400884 0.12821795 -0.10442214 -0.034853753 -0.107750215 -0.104715616 0.10169306 0.0068425615 0.09429971 0.0812123 -0.01688796 -0.045884244 -0.013803776 -0.0062091444 0.1463377 0.050910562 -0.08308744 -0.04970706 0.06371127 -0.03759055 0.07701559 0.038920794 0.0021964882 0.013906081 0.079446144 -0.046357192 -0.032277353 0.0706037 -0.0011664592 0.065627314 -0.10004269 -0.11366467 0.0054615433 -0.13002235 -0.06544145 0.059194 -0.013597227 -0.08858024 0.1685983 0.123581484 0.121853486 0.017884444 0.04711294 -0.05057367 0.03850639 -0.13714397 -0.09089698 -0.011654203 0.019657463 0.015626116 -0.05180229 -0.022133842 -0.08670109 0.116789326 0.022008857 -0.07137741 -0.05185035 0.027907385 -0.073649935 0.029358886 0.025431402 -0.01951917 0.07981981 -0.022667179 -0.07080462 -0.08831673 0.087037995 -0.019695561 -0.053898692 -0.06410694 0.072478265 0.110740036 0.05529991 0.0027209197 -0.003514223 -0.007404616 -0.019468812 0.08817086 -0.048751496 0.07405884 -0.037975434 0.07000213 0.05961218 -0.023230575 -0.081426725 -0.14054516 -0.007986538 -0.021751523 -0.019825164 -0.11243954 -0.072285704 -0.040045064 0.11426294 -0.0754076 0.14378592 0.09006916 -0.05163253 0.016957626 0.0513636 0.21696912 -0.024845853 0.06035294 -0.11089714 -0.01476052 0.08066359 -0.042463157 0.00080275163 0.044739082 -0.12871964 -0.019587193 -0.037117153 0.04438584 -0.101890154 -0.026127165 -0.15277049 -0.07334388 -0.023047395 -0.09549465 -0.05774536 -0.16329882 0.087543756 0.030327633 -0.059044838 -0.16993913 -0.039291058 -0.09441839 0.042694326 0.04050115 0.0044676266 0.045472797 0.048289996 0.13551676 0.005620494 -0.07435714 -0.0053005447
spacy -0.03492364 0.03178828 0.0026033826 -0.14458565 0.007369929 -0.030057583 0.065788075 6.4896805e-05 -0.14739269 0.17633724 -0.022976877 0.07256996 0.04708531 0.06260882 0.05194338 -0.0873326 -0.03049572 -0.12228276 -0.068094976 0.018450065 0.121494584 0.038846288 -0.05117213 0.060772594 0.12348975 0.089331165 -0.11921026 -0.026374537 0.046069328 0.019889405 -0.06574492 -0.05152022 0.0047951723 0.026650835 0.10672561 0.028843736 -0.021410072 -0.14527982 -0.047444247 0.065575026 0.030427322 -0.0034005928 0.13266195 0.046934824 0.03313979 0.025795767 0.003299832 -0.0076986654 0.087791234 0.081861086 -0.1226094 -0.05201344 0.105647266 0.08367839 0.12148789 -0.00085244945 -0.013390462 0.07995095 0.05023045 0.03266663 -0.0609184 -0.009279394 -0.06378776 -0.08068634 0.06765028 0.105617456 -0.044170592 0.06597372 -0.033535786 0.06574169 -0.06677411 -0.053204224 -0.051253248 -0.0037538232 -0.1518429 0.04322392 -0.103563085 0.062760934 -0.01484528 -0.020963484 -0.0146789085 -0.03304835 -0.002027647 0.022888927 -0.05209685 -0.014115876 -0.016415797 -0.098700725 0.035208914 -0.07823162 -0.09088086 0.037264626 -0.087013006 -0.08487936 -0.0091693485 -0.11201336 -0.00021069955 0.05235536 0.06784706 -0.062303044 0.05570972 0.039948255 -0.09837442 0.02380288 -0.05339709 0.04085129 -0.006677336 0.03207862 -0.015422195 -0.0008498092 -0.085292496 0.067343615 -0.08306177 0.10176344 -0.09792238 0.05715689 0.08405879 0.0147574 -0.138846 -0.088299625 0.008506694 0.057810664 0.10273966 0.008836425 -0.042662352 -0.12515908 -0.008655187 0.015253661 -0.022967784 -0.11259754 0.0054768375 -0.033587076 0.13181454 0.045232188 -0.056173757 0.052414488 0.09085033 -0.10511843 0.12415144 0.10056618 0.002212369 0.008936959 0.09500078 -0.10389432 0.01297261 0.05275462 -0.06835536 -0.05282352 0.014797333 -0.1268932 0.14945957 -0.15574004 0.06513901 0.04042602 -0.0669102 0.056916807 -0.0856683 0.011835649 0.032800894 0.006062332 -0.052868184 -0.03743949 0.03334023 -0.016863285 0.039741717 -0.0305501 0.10304189 -0.079961464 -0.02727581 -0.09511282 -0.09113191 0.07717922 0.0041385763 0.081316076 0.06335308 -0.015260641 -0.043282736 -0.013920539 0.011257915 0.13329111 0.0494045 -0.06576865 -0.046581354 0.04299088 -0.044891138 0.058653183 0.027570482 0.00015905904 0.009187372 0.056182105 -0.05304228 -0.029364977 0.056688003 -0.005367439 0.064333305 -0.08590299 -0.10113366 0.008322337 -0.123703755 -0.044720124 0.03332251 -0.010173211 -0.08246698 0.13678235 0.08828407 0.108131394 0.009068648 0.042139344 -0.04641165 0.02939158 -0.119998395 -0.07703757 -0.007906909 0.009948422 0.011670821 -0.036105786 -0.013049645 -0.073335506 0.10362206 0.02076514 -0.07113381 -0.04276007 0.029865855 -0.06952779 0.016193923 0.014525793 -0.024070043 0.069391325 -0.0313692 -0.073459886 -0.06732334 0.06920005 -0.024847744 -0.03519545 -0.04610589 0.059209924 0.09357173 0.042792518 0.0035626562 0.0120659 -0.003026556 -0.011297092 0.076817505 -0.044058546 0.057214655 -0.03308321 0.056577705 0.05121207 -0.0047610216 -0.066393994 -0.12118605 -0.016437547 -0.02052898 -0.01629328 -0.09407179 -0.06001573 -0.02849781 0.099136144 -0.07145399 0.1329942 0.07281167 -0.03857947 0.0131807905 0.046499908 0.19035457 -0.028644558 0.035900574 -0.092625566 -0.01506006 0.06748287 -0.027178992 0.0074919364 0.035311535 -0.11944938 -0.0057192813 -0.028227534 0.044158906 -0.079589985 -0.029087022 -0.14751086 -0.04462737 -0.015817197 -0.0894437 -0.043548107 -0.12551282 0.07365138 0.024789488 -0.05096314 -0.13064152 -0.031001098 -0.08605684 0.03534031 0.054806177 0.008839366 0.034295358 0.040272843 0.11300935 0.0028396784 -0.06889615 4.3313958e-05
elasticsearch -0.037201602 0.03470626 -0.00030103273 -0.14695439 0.014777688 -0.031932812 0.06949332 0.003941611 -0.15019056 0.18462825 -0.024527885 0.07756047 0.047260348 0.063151985 0.058653243 -0.09430028 -0.03843782 -0.12793635 -0.0726358 0.018167777 0.13246706 0.0399187 -0.05598568 0.062445804 0.13314538 0.09292419 -0.12071607 -0.026328031 0.052846808 0.019669695 -0.07190948 -0.059026428 0.0022368098 0.028238798 0.11996492 0.030724613 -0.024403572 -0.15047638 -0.05340117 0.06708835 0.033499822 -0.0028233272 0.1478647 0.0464409 0.03865716 0.026465006 0.005851965 -0.0064503136 0.09815906 0.085771605 -0.13135287 -0.0627611 0.110432535 0.08669351 0.12768452 -0.0008259053 -0.009832193 0.08503945 0.054163955 0.035494488 -0.06666902 -0.014074249 -0.06006926 -0.08310112 0.072457075 0.107099794 -0.045752108 0.06688036 -0.035903096 0.07036968 -0.07786906 -0.056692827 -0.05326071 -0.0084157875 -0.15967475 0.04434497 -0.10832862 0.06814419 -0.01958975 -0.020123469 -0.016543189 -0.03939381 -0.009114877 0.021271482 -0.052517068 -0.016459484 -0.022545286 -0.10247863 0.040561408 -0.08820408 -0.09297266 0.041428242 -0.096105814 -0.088790305 -0.009035095 -0.11941755 -0.000966564 0.052243687 0.07390822 -0.06301296 0.05319815 0.037580613 -0.10140827 0.02402143 -0.052740615 0.042026885 -0.010559974 0.035646845 -0.017337764 0.0020309966 -0.08923172 0.06912334 -0.08274546 0.108202465 -0.10211054 0.058046795 0.08508288 0.010497503 -0.14176355 -0.0931813 0.010592532 0.06032117 0.10950075 0.011509416 -0.04881177 -0.13154946 -0.011150918 0.011674004 -0.026697798 -0.11744557 0.010426236 -0.031510063 0.14100477 0.053267136 -0.05944027 0.04927032 0.09598013 -0.10994854 0.12916476 0.10608843 -0.0022258759 0.008929504 0.10546414 -0.10697822 0.007967073 0.056253776 -0.07183364 -0.05190138 0.017855482 -0.13110094 0.15855648 -0.15969469 0.07110443 0.042102393 -0.07390404 0.052117154 -0.093019 0.016976628 0.0326696 0.008350248 -0.057557117 -0.043203317 0.03597039 -0.012728939 0.042269133 -0.033374887 0.109764755 -0.08024669 -0.025245538 -0.10462771 -0.09245221 0.0781607 0.0018368599 0.0791738 0.06898402 -0.017359577 -0.044437848 -0.013023872 0.016634688 0.13880941 0.046541944 -0.06921179 -0.05582143 0.04720988 -0.041915152 0.06360754 0.024816012 -0.0075069717 0.011578279 0.054287218 -0.053141166 -0.034861535 0.058336105 -0.006377874 0.065688536 -0.09403755 -0.10010198 0.0053337435 -0.13215761 -0.052512955 0.039723173 -0.010732797 -0.08264836 0.1429516 0.09372956 0.11410181 0.0036120373 0.04053768 -0.04685599 0.034121867 -0.1313446 -0.0822972 -0.0054811174 0.014119202 0.014040244 -0.04576909 -0.010812149 -0.07686426 0.108758 0.022491772 -0.08016943 -0.046683367 0.03043679 -0.071705095 0.019713765 0.02156095 -0.024670891 0.07500357 -0.028854199 -0.078641295 -0.06557763 0.0717182 -0.018666778 -0.040677577 -0.04651118 0.065068446 0.100676 0.047176827 0.010231612 0.011492416 -0.003828032 -0.0105496505 0.086964786 -0.05247161 0.06669954 -0.036240805 0.06430039 0.047116823 0.00012277368 -0.073156185 -0.12637769 -0.021957628 -0.030435774 -0.016934799 -0.09743117 -0.05988011 -0.03100228 0.10107427 -0.07398887 0.14115687 0.07950338 -0.038553283 0.010180202 0.047979224 0.1989618 -0.028871706 0.04021267 -0.09253288 -0.020165576 0.07394515 -0.03430846 -0.0011860768 0.03859441 -0.12542708 -0.0064204256 -0.03182749 0.046838604 -0.08873664 -0.03705086 -0.1546445 -0.044348538 -0.02290999 -0.09188267 -0.04386888 -0.1375446 0.07792332 0.023676094 -0.059055954 -0.14161865 -0.0309236 -0.08706425 0.04400429 0.055584155 0.007962656 0.036752112 0.047648724 0.11998179 -0.003553322 -0.06985656 0.0038193173
dataclasses -0.035891023 0.04649261 0.004028029 -0.17083769 0.021629687 -0.018042143 0.07562053 0.014226005 -0.1709437 0.21024428 -0.02634341 0.08783306 0.039856717 0.06336867 0.06575782 -0.11436954 -0.031890042 -0.12604453 -0.07181713 0.043385215 0.15340383 0.044979382 -0.06700457 0.057946127 0.15390834 0.10116409 -0.12853035 -0.017807767 0.066102535 0.011469343 -0.07156055 -0.060940392 0.019421227 0.03192338 0.1282326 0.049907334 -0.025533654 -0.16146636 -0.06650545 0.061236035 0.036597274 0.00370863 0.15472691 0.05515507 0.032646965 0.04960982 -0.003207606 -0.006345227 0.10662736 0.09165285 -0.1246308 -0.06395176 0.13638677 0.08529067 0.13594498 0.009693367 -0.004038849 0.106661454 0.052044265 0.031157164 -0.06997431 -0.003369789 -0.07519834 -0.09665571 0.070854984 0.124178156 -0.050409686 0.07585439 -0.023424845 0.07786013 -0.06952706 -0.058442328 -0.062472623 -0.00044777672 -0.18218215 0.05438372 -0.11509599 0.074687 -0.013294246 -0.026265968 -0.025943598 -0.038064346 -0.0036852986 0.017178953 -0.077643074 -0.018009577 -0.030130472 -0.1151555 0.044704877 -0.084789075 -0.08864819 0.051936332 -0.10124192 -0.08683117 0.0017844039 -0.13052517 -0.011139483 0.0471285 0.064310715 -0.0748823 0.06591355 0.044174846 -0.12734154 0.0091562625 -0.042964768 0.049621075 -0.00046157622 0.035326242 -0.013046167 -0.0073347553 -0.088723674 0.07194896 -0.10679794 0.1212292 -0.11711256 0.0658952 0.09626387 0.008792475 -0.15271322 -0.09052221 0.006213017 0.055890646 0.10435584 0.012895825 -0.04511439 -0.1500724 -0.0038814384 0.009413374 -0.018348327 -0.12418662 0.012513714 -0.043170076 0.13659641 0.04820607 -0.07356987 0.059603855 0.11807073 -0.12389426 0.14675188 0.09794362 -0.004136455 0.012073867 0.09986854 -0.11359977 0.016692067 0.067426555 -0.06195817 -0.06541517 0.016889945 -0.14733796 0.17084445 -0.1783244 0.090601094 0.046981826 -0.08290037 0.06384961 -0.088798046 0.026991233 0.031943258 0.024215322 -0.079634964 -0.05971271 0.027099958 -0.022334296 0.05247376 -0.052902225 0.12484572 -0.09943888 -0.03382422 -0.10894017 -0.10751006 0.09712486 0.009282075 0.096660614 0.074756734 -0.02189091 -0.043175254 -0.009820495 -0.0041874116 0.14779817 0.055234823 -0.081380114 -0.047403406 0.06612979 -0.03909314 0.0726843 0.035583794 0.0036392454 0.021074899 0.0796364 -0.04284349 -0.034174304 0.0673008 -0.0011964793 0.0664887 -0.09361953 -0.108587734 0.0005799834 -0.12912215 -0.06223323 0.05197574 -0.012922203 -0.09075785 0.16187169 0.11829868 0.11783534 0.012121711 0.047011018 -0.049126603 0.037820388 -0.14068475 -0.08780959 -0.012089693 0.021024982 0.013616656 -0.047687694 -0.021443322 -0.087802574 0.10765802 0.016796032 -0.06861332 -0.04433256 0.03059921 -0.07694489 0.029315297 0.022456292 -0.024279542 0.07800129 -0.02488933 -0.07274147 -0.09036881 0.09254662 -0.0186229 -0.048197057 -0.058018725 0.07382906 0.11274036 0.049544714 0.001967182 0.001311829 -0.0040678787 -0.014226426 0.08083763 -0.047087327 0.06820491 -0.03977893 0.06637928 0.06335656 -0.015041479 -0.0781152 -0.13739574 -0.009962297 -0.016301932 -0.0155266775 -0.10963331 -0.07034891 -0.03626101 0.112129524 -0.07695313 0.13706821 0.08733207 -0.05149802 0.016363213 0.045035683 0.21288364 -0.025142115 0.0535967 -0.11252325 -0.013333041 0.07662578 -0.040272947 -0.0016094393 0.04298965 -0.12648329 -0.018071137 -0.04073916 0.045474883 -0.095953874 -0.030682005 -0.15362601 -0.06764488 -0.024272958 -0.10106868 -0.050393354 -0.1598824 0.086168356 0.028233016 -0.059386864 -0.16671416 -0.032476682 -0.09276458 0.041284204 0.044531416 0.0029562013 0.04760884 0.04429232 0.13380626 -0.00010195689 -0.06871094 -0.010091456
abc -0.034745455 0.039893012 0.0029291527 -0.15799178 0.0106761465 -0.027157754 0.075856 0.008082086 -0.15874788 0.18916588 -0.025507925 0.08158165 0.043542854 0.06887701 0.05855066 -0.09655203 -0.031630147 -0.12923263 -0.06827679 0.0252354 0.13213466 0.04442677 -0.05672407 0.06276478 0.13820875 0.09152915 -0.12593116 -0.022218345 0.052265156 0.013163887 -0.074547544 -0.05361535 0.011945429 0.02414112 0.11711069 0.0318342 -0.018846102 -0.15554063 -0.053919837 0.06333605 0.030807635 -0.0020241542 0.1477431 0.045663863 0.03368006 0.029731387 -0.0007077415 -0.007564348 0.1017435 0.08535991 -0.12733532 -0.060167823 0.12352729 0.08616994 0.12603082 -0.00053818384 -0.009274068 0.083909035 0.056812204 0.029377272 -0.07351686 -0.011621205 -0.068570636 -0.089817345 0.07388194 0.11573625 -0.050461423 0.0774198 -0.03592529 0.07330075 -0.07000232 -0.054386 -0.05093783 -0.0031292357 -0.17089225 0.048733503 -0.114809595 0.06851891 -0.013791199 -0.01879654 -0.019929502 -0.03206723 -0.008490332 0.018625457 -0.06577762 -0.012191703 -0.019296596 -0.10628055 0.042226117 -0.08606745 -0.098277606 0.044989005 -0.09434642 -0.08961265 -0.003611102 -0.118583485 -0.0006463647 0.050963342 0.06828835 -0.07183936 0.055788297 0.040835474 -0.10918131 0.0145221995 -0.052415505 0.04830503 -0.0026766828 0.035075165 -0.013613588 -0.0006211206 -0.08557959 0.07147616 -0.09212726 0.11003069 -0.104311734 0.059863638 0.093690135 0.0115499785 -0.14283122 -0.09479458 0.010126655 0.05816526 0.10596254 0.010557805 -0.040736385 -0.14015767 -0.0031314287 0.0109068835 -0.029047295 -0.113625064 0.0073796613 -0.04189083 0.14178675 0.051277757 -0.05804829 0.055446208 0.10469292 -0.11482129 0.13552913 0.10222608 -0.0057888753 0.012559225 0.10030343 -0.11030476 0.011757312 0.05827325 -0.071687534 -0.061198 0.017625574 -0.13799071 0.16252598 -0.1659968 0.07411718 0.04353047 -0.0759004 0.06168487 -0.08845763 0.016688704 0.033672098 0.015963454 -0.064227074 -0.045489337 0.02997638 -0.013105092 0.04751285 -0.03571125 0.10882558 -0.088350005 -0.027066305 -0.10313557 -0.09637913 0.07987703 0.0011471645 0.08781969 0.0686179 -0.013024961 -0.04903941 -0.014952485 0.0047784387 0.14314866 0.053198688 -0.07479421 -0.05106296 0.052610427 -0.043993153 0.06733673 0.030845499 -0.006981749 0.010174092 0.063883536 -0.052462444 -0.02811306 0.058440197 -0.009721731 0.065193586 -0.09077349 -0.10617428 0.005487241 -0.13219328 -0.049344443 0.042523444 -0.015744116 -0.086802594 0.15309124 0.101483904 0.115271464 0.00814602 0.04040557 -0.049461074 0.03296364 -0.13540833 -0.08363537 -0.0069765034 0.017496094 0.014392332 -0.04324761 -0.015050332 -0.08349975 0.11062465 0.015154671 -0.07232608 -0.0398274 0.030401751 -0.07363795 0.01825762 0.02185483 -0.025033718 0.07952327 -0.02593817 -0.070494406 -0.070928216 0.07849704 -0.019387063 -0.045853417 -0.049629595 0.07093132 0.106430784 0.054164093 -0.00093805004 0.007331589 -0.006213308 -0.0145308925 0.08690299 -0.048463155 0.067669526 -0.034754526 0.061133437 0.050280564 -0.0071235215 -0.06940743 -0.12710145 -0.017564684 -0.023328742 -0.018546576 -0.100417346 -0.067333095 -0.032216225 0.103498444 -0.07667168 0.14053929 0.0796667 -0.041679703 0.01601177 0.047631085 0.20252371 -0.031012455 0.04456442 -0.096122295 -0.014022295 0.0753949 -0.033242047 0.005982935 0.037083287 -0.12744805 -0.008608663 -0.033981975 0.049512208 -0.09036121 -0.029783767 -0.15166543 -0.055707674 -0.020244375 -0.091064684 -0.050520975 -0.13936457 0.08198086 0.027448136 -0.05590403 -0.14384986 -0.0369701 -0.091849834 0.03787239 0.05180864 0.0069760736 0.03952568 0.046666954 0.1221529 0.0020311442 -0.07333158 -0.0041565374
pydantic -0.04123148 0.03489733 0.006373125 -0.15902537 0.00043944066 -0.044524632 0.076959744 -0.0019758425 -0.16188474 0.19192493 -0.027662808 0.0824246 0.051641364 0.08752459 0.05960397 -0.09395987 -0.04031583 -0.14815234 -0.07795715 0.010063056 0.13995908 0.050478153 -0.05686361 0.079032004 0.13324265 0.09787363 -0.14079772 -0.041241862 0.042215623 0.029833833 -0.08113947 -0.06482303 0.0056032925 0.025396533 0.11584096 0.024248218 -0.024046792 -0.15704075 -0.045655373 0.08175923 0.032319166 -0.005237424 0.15775853 0.05513292 0.036092084 0.013463925 0.0034965815 -0.0014555898 0.10542264 0.09055463 -0.14970483 -0.0672446 0.11174793 0.10053941 0.13329102 -0.007386613 -0.018271767 0.07623725 0.06738335 0.03796805 -0.078123085 -0.016304487 -0.068319745 -0.09925044 0.08783413 0.112610936 -0.050121482 0.07958556 -0.04784352 0.0745186 -0.0848969 -0.058718197 -0.05487989 -0.002517126 -0.1699748 0.048662852 -0.12449867 0.06672255 -0.024337672 -0.024138656 -0.017142143 -0.038843084 -0.010716144 0.029683081 -0.04490821 -0.010744752 -0.015201935 -0.11991944 0.039654467 -0.09486722 -0.11041376 0.03086056 -0.10527908 -0.09738165 -0.018104373 -0.13323902 0.012822625 0.05793405 0.09991468 -0.069914095 0.057482354 0.046572156 -0.100382194 0.03594015 -0.07361549 0.052261453 -0.013453496 0.035032462 -0.02190319 0.0019149206 -0.09909641 0.07558803 -0.07474108 0.117387846 -0.10767914 0.06172027 0.09060892 0.015254945 -0.15718873 -0.09756982 0.01070966 0.068767674 0.12762104 0.006430059 -0.052837167 -0.14548829 -0.018546488 0.012550756 -0.03293056 -0.12681411 0.002361577 -0.042196978 0.15745494 0.052584603 -0.0569563 0.05804061 0.09915713 -0.115584396 0.131426 0.12327369 0.00031268 0.014154836 0.119429685 -0.12421901 0.0032358533 0.045087602 -0.08669697 -0.061791904 0.01381757 -0.14257208 0.16594635 -0.16617298 0.06264831 0.04803185 -0.084711544 0.0567519 -0.10494862 0.0107445195 0.03179764 -0.0030938971 -0.04103749 -0.039455984 0.035544705 -0.010408324 0.045192745 -0.024453538 0.11080641 -0.08175842 -0.024654483 -0.11551516 -0.10366965 0.078501806 -0.0022127824 0.08854363 0.07349645 -0.012899391 -0.053864032 -0.018044101 0.023543382 0.14739482 0.055261802 -0.07349719 -0.056486584 0.03829234 -0.057256665 0.07051667 0.035670202 -0.0097446125 0.0014528182 0.055650875 -0.07205756 -0.038457673 0.06853968 -0.011412839 0.078656666 -0.09532195 -0.11830185 0.009810951 -0.14452381 -0.04575824 0.035872318 -0.012958027 -0.09450552 0.15135013 0.09297919 0.117827825 0.0027975668 0.048476886 -0.046474922 0.030327395 -0.144296 -0.08696023 0.0009422304 0.013420911 0.012048889 -0.04232859 -0.0066750753 -0.08203782 0.12175255 0.01652675 -0.090645455 -0.042143904 0.039949946 -0.082913555 0.012376382 0.01674576 -0.030402513 0.08950297 -0.04238632 -0.08437846 -0.06397931 0.08372481 -0.025427986 -0.04276022 -0.037850272 0.07159252 0.108856805 0.053629793 0.0027578045 0.020197293 -0.0067900037 -0.011080091 0.09630552 -0.0558226 0.06862241 -0.03637285 0.06719894 0.046631444 0.008960959 -0.07577484 -0.14131339 -0.026498836 -0.028035099 -0.020692015 -0.10786886 -0.06639354 -0.03220664 0.1105601 -0.08284933 0.15713212 0.08826988 -0.029685827 0.014384702 0.050510533 0.21568668 -0.03551953 0.03093315 -0.10101563 -0.0260169 0.076007016 -0.030247366 0.010704672 0.032466102 -0.13426717 -0.008339179 -0.030722719 0.04888434 -0.08895662 -0.044436693 -0.17588373 -0.041583713 -0.013407057 -0.10089743 -0.040964823 -0.12918788 0.08541343 0.025525073 -0.06303163 -0.14140266 -0.04238248 -0.10008317 0.044605102 0.0707432 0.008092646 0.036371257 0.047878403 0.12517014 0.0005486017 -0.08006148 0.003222485
sqlite3 -0.038467396 0.04634574 0.001958973 -0.17167647 0.022077242 -0.018730992 0.07816281 0.012708184 -0.17798944 0.22135054 -0.028583286 0.08778688 0.045292452 0.066375874 0.06869043 -0.11613511 -0.029983675 -0.13975014 -0.07415641 0.04849616 0.15592211 0.0475105 -0.0654138 0.06747958 0.16112103 0.10494189 -0.13744225 -0.013782137 0.07139881 0.008458813 -0.07952649 -0.06448799 0.014075598 0.030144418 0.14419506 0.050677527 -0.030693557 -0.17522532 -0.06774923 0.06995382 0.04163785 0.00026505478 0.15653606 0.052364092 0.040848818 0.05095174 0.0056922357 -0.0113660125 0.10341954 0.10444029 -0.12788117 -0.06590096 0.13835973 0.08761173 0.14139605 0.008636348 -0.004144392 0.110781625 0.056608535 0.040308516 -0.07996499 -0.006780623 -0.07575441 -0.09551895 0.08080391 0.1302425 -0.054584578 0.07955911 -0.02332219 0.08395657 -0.07688507 -0.060149558 -0.06741037 -0.00028874644 -0.19115649 0.057554837 -0.12224112 0.07355051 -0.015549251 -0.021800924 -0.027370552 -0.031307723 -0.004660778 0.013590108 -0.087201625 -0.021019658 -0.028299125 -0.11782136 0.046803825 -0.09295425 -0.09242801 0.055177703 -0.11020603 -0.09615846 0.0009412737 -0.13813362 -0.007723937 0.05010915 0.0696609 -0.07639637 0.07137245 0.04619189 -0.12860027 0.013897248 -0.051259533 0.047472358 -0.0025973795 0.03942906 -0.009727296 -0.0026362045 -0.09108132 0.072915785 -0.119889244 0.12893485 -0.12080556 0.0695855 0.10040632 0.0114198085 -0.15724756 -0.097957395 0.013453824 0.0681658 0.110476136 0.01722608 -0.050759282 -0.15922916 -0.0028600432 0.011569491 -0.025066294 -0.13407698 0.009473411 -0.042216152 0.15326491 0.055847965 -0.07711426 0.06782172 0.12596656 -0.13211088 0.15510285 0.10664926 1.827814e-05 0.009218293 0.10828344 -0.112435825 0.013153931 0.07654402 -0.06807847 -0.066615835 0.017372591 -0.1578513 0.18431184 -0.19099148 0.09458848 0.04518275 -0.082645446 0.06484742 -0.10471439 0.026740765 0.042489585 0.027432982 -0.08345106 -0.056992225 0.03537296 -0.027178112 0.054624267 -0.055870824 0.12632103 -0.105942905 -0.041589387 -0.10963902 -0.10578724 0.099981084 0.008778724 0.098867275 0.08224053 -0.016516479 -0.046949178 -0.016678257 0.0023569146 0.15675546 0.057870474 -0.076850206 -0.05596505 0.06602402 -0.04379996 0.071984455 0.04075311 0.0044739665 0.021318447 0.08083123 -0.045946248 -0.034207795 0.07600374 0.00057896745 0.06793918 -0.10306308 -0.11417424 0.00759606 -0.13792478 -0.06316685 0.052972034 -0.021078411 -0.093740985 0.17771469 0.1296354 0.12844588 0.012670591 0.050142124 -0.050369326 0.03990566 -0.14117238 -0.09481447 -0.0092515815 0.020845303 0.016948199 -0.04788518 -0.02008841 -0.08938447 0.119011685 0.024752013 -0.073246606 -0.052276462 0.02819943 -0.07834845 0.03177399 0.021121113 -0.023905834 0.080978334 -0.025816774 -0.07906176 -0.09272935 0.09317384 -0.023569861 -0.054561846 -0.06911686 0.06938563 0.1184896 0.053077612 0.0037639874 -0.0010087563 -0.0068626963 -0.020724338 0.08812196 -0.05103115 0.08027345 -0.044738896 0.0737638 0.065649964 -0.019809397 -0.079158105 -0.14611095 -0.016740626 -0.018672626 -0.014934442 -0.117962964 -0.06927807 -0.034599677 0.12296592 -0.08029901 0.15226458 0.09293514 -0.052661043 0.017273044 0.05103283 0.22403276 -0.028385947 0.056884617 -0.11893269 -0.018574197 0.08407945 -0.03693232 0.0032064663 0.041866336 -0.13273653 -0.019268962 -0.04198421 0.0483233 -0.10594255 -0.030280009 -0.16406645 -0.07271693 -0.024898505 -0.108449556 -0.055997342 -0.16747202 0.08945135 0.037060566 -0.06256215 -0.17342913 -0.03677808 -0.09318133 0.044967096 0.043243036 0.011315232 0.048664935 0.045007482 0.14153986 0.0003506542 -0.072330385 -0.0094444165
flask -0.0320948 0.033228315 0.0019682962 -0.13583331 0.007073338 -0.026815752 0.0678787 0.0055483025 -0.14105114 0.16538072 -0.020147929 0.072596535 0.044995032 0.059348494 0.04998371 -0.08956444 -0.033673625 -0.1169885 -0.061241355 0.01731942 0.121308394 0.04022989 -0.05050752 0.059196685 0.11658312 0.08652135 -0.11547951 -0.022812132 0.0461966 0.017748494 -0.06542406 -0.05205082 0.0069582895 0.018783225 0.106851205 0.025271311 -0.02125296 -0.13569446 -0.050101057 0.06535936 0.0279916 -0.006043155 0.13361883 0.044350415 0.033986013 0.026487662 0.0026833676 -0.003215685 0.08671756 0.077203095 -0.11993828 -0.05331076 0.10123183 0.08065419 0.11740257 0.001784571 -0.006710952 0.07120188 0.047719087 0.034372285 -0.06368297 -0.014623251 -0.059794415 -0.07841707 0.065066144 0.0953365 -0.041730154 0.06280623 -0.031936947 0.06136822 -0.0659173 -0.04928187 -0.04532397 -0.0044905706 -0.15034957 0.038113322 -0.102640696 0.057588127 -0.019390954 -0.0186597 -0.012347631 -0.029711863 -0.0044037574 0.022911672 -0.049527552 -0.010524906 -0.014120689 -0.10015912 0.036732454 -0.07880483 -0.08387598 0.040749293 -0.08430347 -0.081372164 -0.008812529 -0.10929312 0.0045638597 0.050389163 0.0689282 -0.055909347 0.0500629 0.035791744 -0.08802234 0.021435222 -0.051424656 0.039881717 -0.0047144922 0.031927984 -0.01534323 -0.0036955485 -0.08186538 0.058183555 -0.07689164 0.10095902 -0.0905284 0.051869795 0.081405975 0.013152854 -0.13466433 -0.08496495 0.0050784303 0.056855533 0.102931246 0.012333313 -0.039559804 -0.124146424 -0.008874401 0.012680009 -0.027352724 -0.10644584 0.0050006886 -0.03439061 0.12737198 0.041338492 -0.054038577 0.05104527 0.08896553 -0.09861734 0.12099649 0.09889831 -0.0027103592 0.014406678 0.095744886 -0.09369381 0.009171794 0.046859775 -0.06339185 -0.047632806 0.016333938 -0.121324085 0.14107668 -0.1488237 0.06362774 0.039833684 -0.06743257 0.050030947 -0.0878729 0.014089447 0.031072361 0.0056556114 -0.046509422 -0.042880267 0.030263515 -0.01320966 0.043098614 -0.026759565 0.09880597 -0.072955504 -0.024069108 -0.09397149 -0.08704329 0.071574576 -0.00082593714 0.07504187 0.06350231 -0.0146330865 -0.0436124 -0.010657231 0.008150473 0.12325805 0.048074875 -0.06053632 -0.044108544 0.04513454 -0.036960848 0.05949428 0.025288014 -0.00084350334 0.007091681 0.05115866 -0.04453753 -0.025124433 0.053533725 -0.0049222163 0.061711147 -0.08008747 -0.09660613 0.009623939 -0.12086181 -0.040212024 0.03181625 -0.006870506 -0.08146197 0.13164435 0.08640861 0.10373017 0.0057347585 0.03991662 -0.046561223 0.028993463 -0.1166008 -0.071651846 -0.0066411886 0.011975335 0.012235121 -0.036764156 -0.010453539 -0.07671567 0.10038332 0.014577988 -0.07113167 -0.036262237 0.028029427 -0.06500817 0.019718075 0.01582857 -0.020449352 0.06942619 -0.028882403 -0.068764515 -0.06249107 0.07195868 -0.02232198 -0.033933815 -0.03974277 0.055844877 0.095405035 0.044770665 0.0012473027 0.0093574105 -0.0070464006 -0.009947589 0.08035219 -0.045287132 0.056473028 -0.03273574 0.05614036 0.045665167 -0.0034977621 -0.06433036 -0.11835661 -0.016769296 -0.025858385 -0.016692048 -0.088128105 -0.055009805 -0.026611986 0.098192886 -0.07063351 0.12581418 0.07526584 -0.031927854 0.014050527 0.045395214 0.17956977 -0.030747594 0.032953717 -0.08642893 -0.015047735 0.06450691 -0.024722511 0.0063475384 0.030194232 -0.11585681 -0.0061746268 -0.028345257 0.03791029 -0.080694936 -0.030367529 -0.13806063 -0.04832987 -0.012557358 -0.08428482 -0.043647833 -0.12605655 0.0780074 0.022185214 -0.045958735 -0.12733659 -0.029953593 -0.083643846 0.03436124 0.05201914 0.011932207 0.03444993 0.036867708 0.113288075 0.0010832521 -0.060169782 0.003165645
prometheus_client -0.038179655 0.037224818 0.0041660625 -0.15809977 0.0031145986 -0.039495498 0.07835219 0.002203236 -0.1573851 0.18795119 -0.028813612 0.080645874 0.051827636 0.082518004 0.053901047 -0.098607495 -0.03796214 -0.14170606 -0.07631014 0.017379023 0.13638109 0.051606197 -0.061529417 0.06925232 0.12920934 0.093840994 -0.130764 -0.037143078 0.040683564 0.0293571 -0.07097551 -0.06148351 0.004649656 0.02348893 0.118274376 0.031411193 -0.020684209 -0.16012211 -0.05079114 0.076520994 0.032454796 -0.003251223 0.15344849 0.05479424 0.03376305 0.014701181 0.004432393 -0.0052748607 0.102991626 0.0839582 -0.1406967 -0.05797366 0.11805998 0.09877996 0.1278952 -0.0057220375 -0.015982717 0.07558673 0.061769877 0.038394496 -0.072766654 -0.017525008 -0.06326138 -0.096148506 0.07855985 0.11386148 -0.054253656 0.07632997 -0.04200198 0.07277271 -0.079342484 -0.054856855 -0.051724155 -0.007570265 -0.17334369 0.04653392 -0.12001345 0.06852418 -0.023184938 -0.021221086 -0.012438093 -0.042275272 -0.00862127 0.028049463 -0.050013483 -0.014086323 -0.017073242 -0.11292006 0.04260571 -0.09130753 -0.10631389 0.037746895 -0.10131305 -0.09660599 -0.012977058 -0.12949808 0.009187527 0.057470053 0.0924069 -0.0733458 0.058125976 0.0396312 -0.10314463 0.03220956 -0.06751815 0.053037878 -0.011984139 0.03042007 -0.021029368 0.003568331 -0.09282114 0.0770669 -0.07752927 0.11742358 -0.106161244 0.06358692 0.09219292 0.0150389075 -0.15342335 -0.096297845 0.007746971 0.063229404 0.12096301 0.014600353 -0.04895135 -0.1453022 -0.011142439 0.013917733 -0.03603501 -0.12542279 0.007508749 -0.036746405 0.15384164 0.051883448 -0.05731111 0.058265984 0.09368974 -0.111519895 0.13356037 0.11867847 -0.0038844326 0.01625314 0.109068245 -0.113728486 0.0069131963 0.05221023 -0.0853784 -0.061636977 0.013215144 -0.13829572 0.16542643 -0.16890116 0.06747126 0.04897938 -0.078514315 0.059644096 -0.10138772 0.010647344 0.031432856 -0.002433548 -0.04815751 -0.044351522 0.038729142 -0.014123868 0.043653317 -0.028592207 0.10915577 -0.08129571 -0.02941064 -0.112681985 -0.096912056 0.08009504 -0.0015177382 0.08673828 0.07201777 -0.0108490875 -0.05169625 -0.013656189 0.01785829 0.14517143 0.054114416 -0.066682175 -0.053246472 0.040946193 -0.05413521 0.069141105 0.029539915 -0.0021447632 0.0104948105 0.058635943 -0.067227535 -0.032216147 0.06380707 -0.010615749 0.07665062 -0.095399 -0.111015685 0.014515452 -0.13564406 -0.04039097 0.033881683 -0.006400149 -0.09690338 0.1479396 0.09465211 0.11463908 0.0044510975 0.046418577 -0.047942787 0.02836409 -0.13912281 -0.08833597 -0.0011693201 0.012930053 0.016205624 -0.040122107 -0.008232403 -0.08777714 0.12113638 0.015202924 -0.08955275 -0.048013456 0.030091759 -0.074333444 0.013918899 0.017694924 -0.025681261 0.07984265 -0.035053078 -0.08590775 -0.06937676 0.082433514 -0.027289847 -0.042433005 -0.041073587 0.07057625 0.10700743 0.05301757 -0.0016758948 0.020225994 -0.0018021092 -0.013601844 0.09360737 -0.05010912 0.06790193 -0.038469493 0.06590481 0.053847417 0.005197953 -0.06952734 -0.13107063 -0.018914795 -0.029741062 -0.023930747 -0.10553311 -0.06768319 -0.031062227 0.11475048 -0.07934876 0.1514701 0.08107675 -0.03518933 0.020659084 0.049070913 0.21114814 -0.03179151 0.030316932 -0.094989166 -0.018577076 0.07923925 -0.029550971 0.008855289 0.03900893 -0.13313675 -0.009278797 -0.0295663 0.049160697 -0.08923617 -0.03671697 -0.16910578 -0.050054036 -0.0114283245 -0.098481424 -0.044797666 -0.13187803 0.0860268 0.02890606 -0.05798045 -0.13734196 -0.04403005 -0.09581313 0.040625677 0.06402517 0.008948248 0.040560696 0.044198863 0.12082521 0.005793984 -0.07465367 -0.00044619312
onnxruntime -0.032711867 0.029124808 0.0006754602 -0.13145784 0.005884832 -0.025510093 0.061695077 0.00033620614 -0.13445917 0.1629369 -0.02392862 0.07193867 0.0415678 0.0637244 0.052819986 -0.08286901 -0.034311924 -0.11262758 -0.06677666 0.015997777 0.1184821 0.038189862 -0.047162972 0.0579699 0.111934334 0.078791656 -0.11030018 -0.027690334 0.041263442 0.017391268 -0.059231944 -0.054799907 0.0077823247 0.021702683 0.10191534 0.02613688 -0.022159558 -0.12905937 -0.04615276 0.057471227 0.029223066 -0.003149914 0.1316411 0.04287944 0.026769541 0.015905492 0.002541521 -0.005074362 0.08791906 0.07125853 -0.11124118 -0.054623846 0.0944002 0.0756643 0.108849995 -0.0024550129 -0.0120970085 0.07147603 0.048921186 0.02713274 -0.06367876 -0.014464792 -0.058799744 -0.08066323 0.063013084 0.09475902 -0.042224675 0.05992425 -0.032511067 0.06320665 -0.06833979 -0.0498391 -0.04770513 -0.008272655 -0.14136095 0.042473372 -0.0978959 0.054133084 -0.015546748 -0.022919629 -0.017251084 -0.03525413 -0.002312444 0.025013924 -0.046372283 -0.010806871 -0.014914421 -0.093318686 0.03364675 -0.07106411 -0.081664674 0.030813156 -0.083899215 -0.074454665 -0.009227705 -0.10866262 0.0053436905 0.047847215 0.07149082 -0.05898468 0.046376806 0.03390315 -0.08694034 0.025214382 -0.053314965 0.036832698 -0.007524446 0.03299645 -0.016667768 -0.0025507053 -0.07723301 0.061198447 -0.07351155 0.09995735 -0.09009953 0.04985249 0.07547255 0.014566693 -0.12961897 -0.08050454 0.008878716 0.05465142 0.101579286 0.004391899 -0.04035485 -0.11852934 -0.012176454 0.012452886 -0.026720967 -0.10397996 0.0057263332 -0.034733392 0.12861471 0.041668203 -0.051891502 0.048399605 0.08734688 -0.10141076 0.10984795 0.095284015 0.0026566433 0.014976306 0.091696344 -0.09963891 0.011280595 0.043003686 -0.069632724 -0.047878385 0.014021034 -0.12208521 0.1353889 -0.14189163 0.056740716 0.039410196 -0.06522031 0.049437378 -0.08267216 0.012493166 0.027639834 0.0071198377 -0.044522826 -0.036426716 0.031152053 -0.014013643 0.04104176 -0.02695568 0.096094765 -0.068708636 -0.02086421 -0.091077246 -0.08125738 0.06882078 0.004217027 0.07168131 0.062122304 -0.016627477 -0.036730006 -0.015616536 0.014155359 0.118499614 0.042516112 -0.055703145 -0.04368766 0.037007865 -0.04604199 0.059782524 0.028458208 -0.0061663017 0.008352791 0.047061756 -0.04627437 -0.029689688 0.05001173 -0.008508004 0.060075596 -0.07838194 -0.095336504 0.011964429 -0.11339828 -0.037566956 0.034974698 -0.012341182 -0.079046085 0.13022372 0.0803839 0.09499778 0.0054765283 0.04257606 -0.03916255 0.02796728 -0.11783474 -0.07269748 -0.0025937138 0.008623025 0.012250529 -0.040068276 -0.010385824 -0.07390991 0.09737818 0.020158978 -0.073167674 -0.036419667 0.028955158 -0.05944051 0.01919565 0.012518432 -0.018615905 0.0678903 -0.03204155 -0.07020485 -0.056949243 0.06751098 -0.021502001 -0.03660391 -0.034879837 0.055421133 0.08770386 0.04256513 0.007826218 0.007028049 -0.0069360035 -0.009118272 0.07412097 -0.04289308 0.052798476 -0.03515586 0.052579965 0.04601584 0.0044396855 -0.06223647 -0.11355557 -0.0143637825 -0.025894351 -0.01467997 -0.084940895 -0.05311543 -0.029116446 0.09469904 -0.063783035 0.12829044 0.06824236 -0.03131857 0.015223788 0.04016243 0.17851977 -0.030053101 0.033818673 -0.08268234 -0.018805211 0.060578812 -0.023928927 0.0019597881 0.030431928 -0.11399142 -0.002745025 -0.02814238 0.043852992 -0.078922145 -0.034855396 -0.13550045 -0.04042598 -0.013112773 -0.07846264 -0.035706095 -0.11912053 0.06894779 0.026817119 -0.04938982 -0.118960425 -0.030970277 -0.08260485 0.03477244 0.05420783 0.009776706 0.028904162 0.03653991 0.109130144 0.006236131 -0.059235543 -0.0025244774
celery -0.033665583 0.035462685 0.004144311 -0.14027874 0.008260526 -0.032325774 0.06739496 0.003549915 -0.14722481 0.1686956 -0.02309474 0.07566346 0.04600262 0.06651868 0.053298157 -0.09342686 -0.034282368 -0.12455178 -0.064733155 0.020885825 0.12142566 0.04056597 -0.053256627 0.06402423 0.12199971 0.08981457 -0.11826965 -0.023659023 0.045340095 0.016350478 -0.06399513 -0.05175125 0.00937568 0.026080992 0.106503144 0.023639586 -0.021025455 -0.14357401 -0.048273847 0.061506294 0.028474644 -0.0041217143 0.13591602 0.047285937 0.03426105 0.02316754 0.00034872978 -0.004740209 0.08862915 0.077793844 -0.123920925 -0.057595633 0.104787834 0.08152601 0.121365085 0.00033772655 -0.013565801 0.075657904 0.055134304 0.031446323 -0.0657998 -0.009924027 -0.059980247 -0.08770828 0.06851369 0.0994784 -0.045418575 0.06603334 -0.035628323 0.07113647 -0.07402979 -0.049693838 -0.047313295 -0.002024879 -0.15024674 0.038553737 -0.105917096 0.059010174 -0.01724238 -0.018424952 -0.011949289 -0.03486805 -0.008518307 0.024026444 -0.04998463 -0.010125353 -0.01567319 -0.101662084 0.034657955 -0.078299195 -0.09172208 0.040636465 -0.09051972 -0.08261679 -0.010749739 -0.111745626 0.0036799903 0.053242996 0.0757344 -0.06385772 0.048396397 0.040390138 -0.09218996 0.019206068 -0.051637903 0.043325458 -0.010817582 0.03335847 -0.017024815 0.00022162349 -0.07899998 0.063629866 -0.07795958 0.10471156 -0.0984571 0.05249077 0.085056126 0.010593398 -0.13639547 -0.08915858 0.0051434035 0.057168923 0.10666832 0.00928284 -0.044060692 -0.13006869 -0.011138088 0.014590111 -0.027657406 -0.111002035 0.004153948 -0.035152234 0.13756496 0.04542748 -0.052236855 0.04767317 0.08791327 -0.10174278 0.117526814 0.09986623 -0.0031632916 0.008729936 0.09691679 -0.0973504 0.0062027373 0.051569853 -0.06780841 -0.050938584 0.010062645 -0.12201097 0.14409547 -0.15000072 0.06415346 0.040681906 -0.072748564 0.053435046 -0.09013464 0.015482714 0.032346368 0.0038783627 -0.05175798 -0.042248055 0.029374659 -0.014976234 0.040639274 -0.028750801 0.10075858 -0.073642656 -0.023362113 -0.096148185 -0.08740424 0.071901 0.004100031 0.0764422 0.06404692 -0.012407928 -0.04305092 -0.012770344 0.013588721 0.13481522 0.04799715 -0.06224179 -0.051549003 0.04637909 -0.046176378 0.0636302 0.026773594 -0.00029704848 0.0064944103 0.05300848 -0.04775305 -0.032232475 0.054512776 -0.010708487 0.059939384 -0.08531145 -0.09621475 0.0070943814 -0.12599334 -0.04588079 0.03817008 -0.0075167697 -0.08426212 0.13429688 0.08610879 0.108978085 0.0079687 0.04262014 -0.046553757 0.030871313 -0.12823488 -0.076803595 -0.0036488876 0.011321364 0.014945154 -0.03749806 -0.010657438 -0.078273684 0.09918979 0.020105783 -0.07591139 -0.040368322 0.029822275 -0.06909617 0.014854865 0.018385412 -0.021436537 0.075007506 -0.032585666 -0.07260165 -0.06552357 0.073374495 -0.025282158 -0.040142488 -0.03841385 0.06363302 0.09901933 0.044769943 0.0064807166 0.008652364 -0.004178864 -0.012981013 0.08572957 -0.047595866 0.061316125 -0.03330128 0.06005951 0.04690159 -0.0040494855 -0.06953064 -0.11899613 -0.020267213 -0.026553547 -0.016780425 -0.09483847 -0.06259163 -0.028300235 0.100982085 -0.06835222 0.13600072 0.07332789 -0.034967612 0.011736254 0.0472256 0.1880654 -0.03203577 0.03710488 -0.09328109 -0.019323155 0.07077183 -0.027188411 0.0066987514 0.033140782 -0.116139054 -0.0082231015 -0.033267796 0.03905193 -0.08013061 -0.03572033 -0.14492252 -0.04920954 -0.0195283 -0.086005375 -0.045149967 -0.12583764 0.08110243 0.021411039 -0.055147886 -0.13187791 -0.032073762 -0.08549733 0.038746063 0.050004914 0.011716311 0.031839307 0.0434786 0.11130966 0.004594322 -0.06785971 -0.0011918717
networkx -0.031009996 0.024574006 -0.0040175845 -0.1155028 0.011161546 -0.021608632 0.05868986 0.0035309312 -0.12149876 0.13868631 -0.017926902 0.05781189 0.030084327 0.045920927 0.044796005 -0.08054964 -0.019036295 -0.093463 -0.05171658 0.023500461 0.10521828 0.037585218 -0.046825856 0.050597124 0.10903391 0.06717097 -0.09694611 -0.01629109 0.037513513 0.010039265 -0.057100143 -0.044432748 0.0042648017 0.018048644 0.08809699 0.027718762 -0.018118428 -0.12058202 -0.04065619 0.047822576 0.022918973 0.00612238 0.111718096 0.035665832 0.024073955 0.027905304 0.0043365913 0.0025162532 0.074517444 0.068993956 -0.09219705 -0.04807184 0.08834271 0.06906317 0.09976602 0.00016553435 -0.0033979656 0.06489223 0.03666947 0.027084796 -0.050693303 -0.0011711493 -0.051756408 -0.06608688 0.05656708 0.08534 -0.032085884 0.050595906 -0.025982743 0.051090743 -0.047906514 -0.046837643 -0.03715766 -0.0011228581 -0.12800036 0.037091646 -0.08750877 0.04855019 -0.011615011 -0.020749718 -0.018708406 -0.029871024 -0.002341004 0.009647036 -0.05251284 -0.008925135 -0.018907763 -0.07587394 0.030433793 -0.061255522 -0.067413114 0.030030947 -0.07313001 -0.06440705 5.8931662e-05 -0.09696582 -0.0020185485 0.03357442 0.05355761 -0.048291173 0.04837278 0.031164795 -0.08055608 0.015264011 -0.037154354 0.037848055 0.0004625152 0.026689257 -0.008912994 -0.00091833924 -0.06194596 0.047894005 -0.07379942 0.080716416 -0.084425814 0.044509087 0.067048654 0.0040345388 -0.10645691 -0.07479988 0.010695658 0.040915355 0.07476464 0.009929331 -0.031504467 -0.10243204 -0.001019837 0.01404195 -0.014680046 -0.09102728 0.01005079 -0.025883649 0.105147906 0.03558843 -0.043751016 0.039783306 0.08122072 -0.089291014 0.099189594 0.07224157 0.004938281 0.00893954 0.07431995 -0.076179914 0.006961812 0.05075881 -0.049431585 -0.04233771 0.009416214 -0.10899772 0.1249185 -0.123434074 0.06294318 0.030232796 -0.055730022 0.041538283 -0.07110161 0.021304883 0.022567002 0.006985438 -0.051803738 -0.038234726 0.019960802 -0.017681863 0.028873408 -0.031810664 0.08329549 -0.0724446 -0.026009295 -0.07765012 -0.079901464 0.063083455 0.0026239716 0.069982484 0.05348787 -0.014176126 -0.035364624 -0.009184007 0.011303885 0.10298165 0.037496682 -0.049055785 -0.0354073 0.042762745 -0.03392964 0.052267533 0.024920765 -0.0063574007 0.008742459 0.04504081 -0.034124568 -0.020548556 0.04578566 -0.0056914724 0.045725103 -0.06456179 -0.078317486 0.0072245696 -0.096961744 -0.03857797 0.029797638 -0.006742956 -0.06307416 0.11639446 0.07858455 0.08395384 0.0148426695 0.029887438 -0.035380244 0.02458174 -0.1005846 -0.056142952 -0.0073312456 0.00810463 0.015926193 -0.03376932 -0.010275216 -0.06425016 0.07623381 0.01065735 -0.05666397 -0.038716603 0.016670512 -0.053300444 0.0142947165 0.011367612 -0.019375969 0.058001265 -0.018073672 -0.054519404 -0.060452204 0.05792509 -0.017538808 -0.03287022 -0.03654941 0.050088543 0.074623585 0.04144112 -0.0014577908 0.00021267134 -0.0020373452 -0.0069028875 0.057701398 -0.036173027 0.047615748 -0.027480492 0.04888497 0.044151425 -0.004030734 -0.05392414 -0.09603748 -0.009778706 -0.020651547 -0.0147874355 -0.0744739 -0.046113458 -0.028991692 0.079759 -0.0493 0.10173303 0.06407874 -0.034427885 0.010789547 0.030085158 0.1489455 -0.023592021 0.027957976 -0.079808965 -0.013092565 0.053892832 -0.02356527 0.0016965979 0.026840907 -0.09336042 -0.01213852 -0.027603421 0.032268107 -0.07089381 -0.02523166 -0.11516217 -0.04692766 -0.016578116 -0.0703644 -0.03484985 -0.10494559 0.064722754 0.02230369 -0.0433391 -0.1150875 -0.023448398 -0.07210728 0.037161354 0.035301283 0.012112547 0.039667465 0.032625023 0.09883818 0.0038835937 -0.054947767 -0.0064664595
requests -0.03431253 0.034657523 0.0027504365 -0.13138427 0.009834546 -0.024998898 0.06466753 0.0072253416 -0.13574158 0.16170564 -0.022160852 0.06361606 0.040077914 0.052931365 0.046907537 -0.08769603 -0.027477974 -0.10770336 -0.06040106 0.020831967 0.111522436 0.03999032 -0.048053786 0.055033185 0.11669917 0.07998809 -0.10480016 -0.018334644 0.0456558 0.0116598625 -0.060931176 -0.05269997 0.005082466 0.02456513 0.10417095 0.026426772 -0.024005285 -0.1324547 -0.04600529 0.054649934 0.026484834 -0.0048567746 0.12731588 0.039430175 0.03242829 0.027837047 0.0012816801 -0.0033252132 0.08238678 0.074192196 -0.11004061 -0.04614099 0.10485102 0.07321306 0.10584945 0.0025897827 -0.0044342475 0.074316934 0.04792756 0.026605872 -0.061818108 -0.005569323 -0.05582791 -0.077129416 0.063276865 0.091552585 -0.04376913 0.05965464 -0.02713012 0.060715757 -0.06453716 -0.05030499 -0.0486216 -0.0019065051 -0.14087647 0.042704474 -0.09112823 0.055740923 -0.010551738 -0.01882143 -0.019257348 -0.030020775 -0.0019197749 0.01787318 -0.05477758 -0.013741424 -0.019859644 -0.094027445 0.035393663 -0.07251963 -0.0792214 0.036749855 -0.07730577 -0.07133273 -0.0077324756 -0.10409682 0.0013066538 0.043512885 0.059999228 -0.05846399 0.052319307 0.030813541 -0.08932055 0.013292279 -0.042194813 0.03369855 -0.0056380047 0.026427297 -0.015980098 -0.001346172 -0.07569699 0.05592163 -0.077719726 0.096812665 -0.08774647 0.052598894 0.07703558 0.0117452415 -0.12579621 -0.076859854 0.010818415 0.049997296 0.08798434 0.008372038 -0.04072903 -0.11796978 -0.0037590428 0.011103782 -0.021881046 -0.10320717 0.009875854 -0.033661813 0.11964159 0.043979168 -0.052544 0.048620876 0.08709607 -0.0999314 0.11136872 0.08637318 -0.0029791344 0.013580578 0.085696496 -0.094607875 0.013452784 0.05226908 -0.06141032 -0.052301016 0.012679637 -0.11700346 0.14046936 -0.14231524 0.062608734 0.033891857 -0.06175105 0.052648872 -0.078459024 0.015850836 0.027322033 0.012442978 -0.05475469 -0.041071113 0.025003694 -0.011883795 0.03894223 -0.02817081 0.095869765 -0.07370788 -0.026261108 -0.090206064 -0.080789834 0.07161359 0.0060526216 0.073109634 0.06323911 -0.008680017 -0.038832393 -0.011590061 0.004521534 0.11632031 0.0442336 -0.06247021 -0.04462022 0.044277016 -0.039668497 0.059147067 0.027704347 -0.00592128 0.007676332 0.05348662 -0.039961454 -0.02448586 0.054753564 -0.007957673 0.057086244 -0.08090934 -0.09246214 0.006585609 -0.10913352 -0.042843398 0.038653295 -0.013565176 -0.07356125 0.13071369 0.08596346 0.09615422 0.0075089177 0.037742946 -0.04292265 0.031123344 -0.10984233 -0.068643354 -0.0057011126 0.012895412 0.010962533 -0.039133914 -0.0076799663 -0.06817507 0.09302056 0.013289256 -0.061599076 -0.036292836 0.027230088 -0.06326812 0.017086724 0.015384785 -0.01888911 0.06309842 -0.023768304 -0.06348535 -0.061932847 0.065017074 -0.019459845 -0.035867516 -0.045469657 0.057860155 0.08905619 0.03885779 -0.0012336668 0.008193435 -0.006233507 -0.008792914 0.072570466 -0.04249439 0.05350605 -0.029698677 0.049981616 0.044214904 -0.0071505117 -0.06459274 -0.11084244 -0.013800569 -0.019738086 -0.018703217 -0.08320528 -0.051428005 -0.025835408 0.09402614 -0.06335569 0.12210918 0.07139835 -0.034582704 0.008760665 0.040241227 0.17481703 -0.020076638 0.03664462 -0.08630851 -0.0110288905 0.060023766 -0.029594248 0.0033575806 0.034763563 -0.10800581 -0.010080509 -0.029527323 0.038385846 -0.078494325 -0.026978415 -0.12757649 -0.046046548 -0.019351125 -0.077697165 -0.041930806 -0.12185916 0.06697287 0.026866378 -0.047155462 -0.12567295 -0.027724154 -0.07887514 0.03419641 0.04012607 0.0092218565 0.035864018 0.040585995 0.103692874 0.0020336811 -0.056763597 0.001816659
streamlit -0.048066832 0.04114675 0.0044546006 -0.17111258 0.01223954 -0.0426083 0.078651115 -0.0005091959 -0.17475976 0.20446546 -0.026002299 0.08946522 0.050040953 0.085082196 0.056541517 -0.10276894 -0.038268514 -0.15056768 -0.08204778 0.027950542 0.14409268 0.051879164 -0.065250844 0.076917805 0.14370115 0.09923377 -0.1432608 -0.03637141 0.053442404 0.026776327 -0.08516872 -0.06288883 0.0012942466 0.026973883 0.12906504 0.033782143 -0.022531698 -0.16925344 -0.053568166 0.082937635 0.037652977 -0.0023664865 0.15937793 0.05472351 0.040135838 0.022786155 0.004718057 -0.007667527 0.10909995 0.0952839 -0.14313664 -0.064903446 0.13219933 0.10598822 0.13743219 0.0019093169 -0.01587767 0.0893269 0.064181216 0.03723795 -0.081151076 -0.01092787 -0.07269544 -0.09700111 0.08294429 0.12762068 -0.053440627 0.08286487 -0.043000445 0.08067606 -0.08381401 -0.059438124 -0.061396766 -0.0035530836 -0.18673837 0.054028124 -0.124035195 0.07043579 -0.017809963 -0.023472644 -0.021562044 -0.038191635 -0.0012332792 0.01919727 -0.057476636 -0.009165186 -0.019338258 -0.12019165 0.04466258 -0.10034514 -0.111683585 0.041452207 -0.10745864 -0.09743292 -0.011544626 -0.136607 0.0028163677 0.057171106 0.08836609 -0.07283579 0.06583031 0.044814333 -0.108000286 0.028845957 -0.07026293 0.048185688 -0.005618004 0.03755282 -0.01584745 0.0048087435 -0.099876344 0.08037146 -0.09090215 0.12382944 -0.11841594 0.06915629 0.10189107 0.016127853 -0.16281667 -0.10505352 0.010954786 0.069862954 0.12199222 0.01643722 -0.058305632 -0.15008366 -0.011844406 0.022149874 -0.032629002 -0.12796442 0.01107926 -0.0408293 0.16567047 0.057365812 -0.054941237 0.062746115 0.1048364 -0.12334178 0.14615828 0.12081241 -0.0011770449 0.021844072 0.11638066 -0.1203628 0.012863479 0.05596491 -0.08084109 -0.0645646 0.017952606 -0.15258816 0.18705201 -0.18111596 0.07766002 0.0466437 -0.081060685 0.063160196 -0.1075305 0.019796303 0.035628 0.0017665522 -0.059042778 -0.05185903 0.039952084 -0.021157764 0.04424607 -0.035110142 0.11625208 -0.09462627 -0.033249512 -0.112590924 -0.108481295 0.089525945 0.0020539586 0.09122455 0.07969289 -0.01260051 -0.052656736 -0.019407365 0.014529092 0.15254794 0.05333771 -0.070955314 -0.056142364 0.05286841 -0.0547152 0.074787274 0.03642751 -0.009044429 0.007991311 0.063087426 -0.06474246 -0.034617454 0.06897159 -0.012279821 0.08108092 -0.09605205 -0.123642765 0.007563061 -0.14668167 -0.045452684 0.041310895 -0.008524098 -0.09788365 0.16228288 0.1030944 0.12597568 0.0033480206 0.044605583 -0.0518393 0.031392407 -0.14962307 -0.090086356 0.00015588882 0.01750386 0.017706221 -0.043196704 -0.012336432 -0.088996515 0.12301515 0.019571122 -0.0861129 -0.0475511 0.03219594 -0.083154425 0.014328148 0.021575551 -0.02390402 0.08541436 -0.035475675 -0.07988936 -0.077079006 0.090615116 -0.026766835 -0.04255005 -0.055377506 0.07336637 0.11601617 0.061031412 -0.0044281473 0.013609679 -0.006710976 -0.012809246 0.09957028 -0.056779373 0.071659535 -0.039730046 0.07031431 0.057068195 -0.0042988174 -0.08006054 -0.1427223 -0.021087792 -0.030131524 -0.023064144 -0.11344066 -0.072083645 -0.033864386 0.12291295 -0.08640094 0.15519403 0.08661891 -0.039313696 0.018534617 0.05501512 0.22658427 -0.032067955 0.03743152 -0.105498485 -0.021489566 0.08894856 -0.02976893 0.009559171 0.043591794 -0.14344335 -0.016382432 -0.031243447 0.054565273 -0.09253372 -0.036156744 -0.17702527 -0.05640274 -0.013964521 -0.11017278 -0.04978288 -0.14776793 0.097490616 0.028307587 -0.06349084 -0.15577237 -0.04584525 -0.10220498 0.048251096 0.06006362 0.014281941 0.04962004 0.05515886 0.13152777 0.009826343 -0.08506491 -0.0034895195
base64 -0.03012704 0.031094214 0.0019227198 -0.13757509 0.0050090747 -0.025300553 0.06773238 0.00019354679 -0.13594727 0.16838415 -0.019145986 0.06357796 0.039501306 0.05672413 0.048685215 -0.08897337 -0.027695298 -0.116613284 -0.065161586 0.021903133 0.116428524 0.039287496 -0.05344935 0.053203683 0.12000472 0.083055556 -0.11533036 -0.016173493 0.04850537 0.015855853 -0.06087198 -0.04790429 0.006964577 0.022283131 0.10272022 0.026931698 -0.017901057 -0.13696028 -0.052317496 0.06275846 0.028878355 0.0013336325 0.12550546 0.04051607 0.032861907 0.025764452 0.00046203102 -0.00267518 0.085662 0.078338034 -0.113818355 -0.04950221 0.10675828 0.08041657 0.10965342 0.0021065557 -0.0032102542 0.075132795 0.04691389 0.026543109 -0.06498352 -0.012858985 -0.054481395 -0.07468826 0.06483194 0.09821301 -0.03944218 0.06482881 -0.027096039 0.063242555 -0.066237964 -0.052823886 -0.04784199 0.0014792357 -0.15010747 0.037681453 -0.099742234 0.060027786 -0.01381267 -0.019064602 -0.015990501 -0.032661717 -0.0031722737 0.012997588 -0.05686455 -0.010635191 -0.016045395 -0.09806552 0.03384392 -0.07797551 -0.08049302 0.03927961 -0.08406302 -0.077930175 -0.008158754 -0.10823403 -0.001077211 0.04163894 0.06454735 -0.05567583 0.05304583 0.034286585 -0.08864268 0.014810141 -0.043891765 0.03836322 -0.0029964289 0.025672995 -0.012730871 -0.002834168 -0.0735611 0.056091554 -0.081044264 0.09720175 -0.08968835 0.053946882 0.08147984 0.014201803 -0.12842897 -0.08297983 0.005009351 0.049483966 0.09731028 0.014607639 -0.04040474 -0.11899434 -0.009342778 0.011226709 -0.021304987 -0.10659418 0.006140638 -0.035040602 0.12307278 0.040302183 -0.055293232 0.046588764 0.09366261 -0.101671405 0.11238294 0.09205312 0.0028509512 0.010431134 0.09167183 -0.09385729 0.012722553 0.048116665 -0.06626345 -0.052537307 0.017414518 -0.118354745 0.14489047 -0.1425397 0.061968226 0.03802099 -0.06255703 0.052394867 -0.08299298 0.0138883 0.032870986 0.005628157 -0.055115722 -0.036911264 0.024266928 -0.0155171985 0.045387838 -0.032662112 0.10028052 -0.075122654 -0.030205037 -0.09520157 -0.0827534 0.069699764 0.0035408833 0.07335016 0.06035008 -0.0071389894 -0.040490158 -0.011844775 0.006369935 0.121433586 0.04619106 -0.06541127 -0.047569513 0.04444827 -0.039228994 0.055487268 0.030783333 -0.0005498936 0.007896549 0.05510934 -0.041219022 -0.02822912 0.053467777 -0.0056204624 0.059009258 -0.08418149 -0.093101084 0.0037621905 -0.11589838 -0.043648988 0.037865996 -0.008250247 -0.08020621 0.12993862 0.088420644 0.09984902 0.012445218 0.039544016 -0.040960353 0.027147688 -0.117818125 -0.0744894 -0.0038325668 0.011095369 0.01150736 -0.03772309 -0.0077695437 -0.07075084 0.09933039 0.018208185 -0.065651596 -0.036228318 0.022023443 -0.060237925 0.021851493 0.0194309 -0.017876824 0.07198137 -0.021905899 -0.06251217 -0.06326029 0.072646916 -0.02191333 -0.03578316 -0.044393633 0.060692314 0.09355401 0.04730224 0.0019007663 0.006443133 -0.0063772886 -0.010410856 0.07643879 -0.04279746 0.058239125 -0.028160766 0.05213287 0.045179967 -0.004769493 -0.061369877 -0.11112356 -0.012243322 -0.01707579 -0.013711403 -0.08804946 -0.057780214 -0.0297212 0.09671217 -0.06802674 0.12601319 0.07243425 -0.030553948 0.010393293 0.04439846 0.17683661 -0.02367055 0.0380938 -0.086568214 -0.010063538 0.061198674 -0.026424518 0.007913551 0.030443281 -0.11138161 -0.011010245 -0.02523432 0.04186152 -0.075638324 -0.026393399 -0.13337734 -0.046309426 -0.017921261 -0.081192926 -0.04198567 -0.12454457 0.07540441 0.027890384 -0.04627659 -0.13031225 -0.036057174 -0.08213981 0.037851714 0.041468322 0.006352594 0.038248636 0.043188337 0.11035639 0.00047853868 -0.062378667 -0.0028634565
stanza -0.030050147 0.027287979 0.004951321 -0.12897447 0.011619603 -0.026450524 0.05988626 0.0046868087 -0.13164626 0.15976296 -0.022396596 0.06693597 0.039226424 0.056836143 0.048137575 -0.08404074 -0.033249225 -0.10706499 -0.06208016 0.01615662 0.11131905 0.040870056 -0.04850869 0.052221708 0.11357333 0.07710776 -0.10869029 -0.023816524 0.04644822 0.012616677 -0.061576817 -0.048760515 0.009562117 0.022635583 0.09848439 0.02618905 -0.023767013 -0.12852716 -0.046468727 0.05832984 0.028199162 -0.0008784547 0.12507962 0.044850882 0.029908152 0.023430549 0.005058994 -0.0021559228 0.082104415 0.07476238 -0.112745695 -0.05064776 0.098089434 0.07627062 0.110911205 -0.004439481 -0.0069778855 0.07407052 0.04520684 0.03397461 -0.0580506 -0.014287609 -0.055552624 -0.07466959 0.061442886 0.09648851 -0.041700996 0.058293805 -0.03118742 0.0629166 -0.063582495 -0.044691395 -0.049093753 -0.00052663113 -0.13960707 0.03692643 -0.090516195 0.05614858 -0.014819983 -0.017350331 -0.01931462 -0.033015754 -0.003466103 0.017582268 -0.05301838 -0.01449741 -0.014080238 -0.09458035 0.029234182 -0.073491216 -0.08442312 0.035687085 -0.08089083 -0.074681826 -0.007777749 -0.10232596 0.0014735344 0.044009175 0.06263134 -0.059529584 0.044871565 0.030491298 -0.08865981 0.016547691 -0.05204657 0.03622153 -0.00520513 0.026477667 -0.017331628 -0.0044295047 -0.080166034 0.055386633 -0.07369792 0.097398356 -0.08814915 0.053514507 0.07600558 0.01375126 -0.12728895 -0.077089794 0.011396443 0.052722074 0.09715862 0.0045273695 -0.036823463 -0.11643149 -0.009421502 0.006696808 -0.02024184 -0.10265628 0.0063244635 -0.033059213 0.12512988 0.043130443 -0.053268537 0.043852624 0.08299365 -0.09559104 0.11324028 0.09250148 0.00092899683 0.0126021495 0.088023596 -0.09248563 0.006327427 0.04754021 -0.060848225 -0.052551433 0.01322785 -0.11471271 0.13582313 -0.1417394 0.05696505 0.03625496 -0.06556445 0.0468068 -0.07783711 0.01737218 0.029719153 0.008250093 -0.04664578 -0.037528537 0.028579459 -0.011692715 0.04045621 -0.029541263 0.09454864 -0.07142695 -0.025791612 -0.090824306 -0.08440059 0.06869292 0.0033135116 0.07347392 0.0641129 -0.0162071 -0.037950605 -0.010202658 0.010167092 0.11761927 0.041967325 -0.058275618 -0.043142322 0.04097269 -0.039467726 0.056913074 0.021230618 -0.003131603 0.0039962255 0.05275162 -0.042211253 -0.028162422 0.050783575 -0.004965697 0.05733233 -0.07817664 -0.0890106 0.005456573 -0.11546034 -0.044524588 0.033647604 -0.01088386 -0.07389076 0.1257733 0.08716716 0.096036494 0.009129847 0.035897005 -0.040929254 0.02868756 -0.1148962 -0.07388698 -0.00580058 0.014295174 0.008675015 -0.03705705 -0.008777047 -0.06811364 0.09267072 0.013565634 -0.07064557 -0.038327664 0.028465461 -0.06541848 0.017840976 0.017385913 -0.023898613 0.065207936 -0.028409816 -0.062200494 -0.059465837 0.064012274 -0.020259181 -0.035282113 -0.042463593 0.054638185 0.08657992 0.041634347 0.0055992706 0.008118307 -0.007787331 -0.010363206 0.077834725 -0.045205045 0.052116428 -0.03352251 0.055976648 0.039537076 -0.00061187294 -0.057630584 -0.11047625 -0.015849765 -0.025272548 -0.019105483 -0.087723024 -0.050106306 -0.028415732 0.08752106 -0.06185198 0.1224771 0.0686352 -0.032238554 0.011454683 0.043444898 0.17369448 -0.023634188 0.037827887 -0.08345837 -0.016621318 0.06617179 -0.028260743 -0.00060324295 0.031355415 -0.10494889 -0.00912318 -0.026069045 0.041263685 -0.07266127 -0.030965056 -0.13272977 -0.041461203 -0.020257138 -0.077661514 -0.037624475 -0.11640774 0.069347106 0.02502038 -0.047897488 -0.11886906 -0.027578844 -0.073138736 0.03599591 0.04987106 0.006107252 0.028082611 0.037600193 0.10803138 -0.0009959626 -0.059421405 -0.0011759908
hanlp -0.033701424 0.027624924 0.00568216 -0.12952231 0.011734895 -0.026009573 0.0625047 0.0015624568 -0.14025013 0.16322549 -0.021591598 0.07212554 0.03854454 0.0632245 0.05134824 -0.08252817 -0.03176652 -0.11302777 -0.061390307 0.019291017 0.113887355 0.039185595 -0.052877095 0.05557387 0.119665176 0.08624681 -0.11274563 -0.024377638 0.04588159 0.015750764 -0.066331826 -0.05528635 0.0053010536 0.023331054 0.10669761 0.025545532 -0.024277365 -0.13278317 -0.042566318 0.059105586 0.02766416 -0.008022129 0.13501294 0.044266555 0.03023052 0.021587769 0.002752811 -0.0021061793 0.081290625 0.07260901 -0.119509816 -0.05159567 0.097399816 0.07751737 0.11613989 -0.000110441375 -0.012767684 0.070921384 0.04644995 0.03527762 -0.057827782 -0.011115696 -0.05348231 -0.078289 0.06275924 0.0960067 -0.04022627 0.058292393 -0.030865394 0.064179994 -0.072308905 -0.05250731 -0.04814437 -0.005768813 -0.1444783 0.041655827 -0.09647169 0.05918351 -0.013900261 -0.02191367 -0.016245633 -0.035465505 -0.0014812403 0.017476989 -0.04745585 -0.014158356 -0.0172268 -0.09376951 0.03484776 -0.07906068 -0.08629387 0.039222162 -0.08458903 -0.08070795 -0.007725827 -0.11022961 0.0035559614 0.04997135 0.07198753 -0.06110337 0.044572048 0.034255866 -0.089114785 0.024716241 -0.049977455 0.04124987 -0.0045640683 0.031375445 -0.020301962 -0.0039107576 -0.08317041 0.06067863 -0.07655587 0.10232667 -0.09436909 0.05647994 0.0779352 0.008321788 -0.13246618 -0.08434298 0.0072603594 0.054066222 0.0998128 0.003477168 -0.042548187 -0.119544834 -0.0048412965 0.008436489 -0.018883325 -0.10788268 0.006886806 -0.035118703 0.12629092 0.045579724 -0.0495694 0.04281788 0.08376941 -0.09914011 0.1097209 0.091297284 0.0013667727 0.013557411 0.09270706 -0.099058494 0.01288515 0.048419885 -0.06231354 -0.05262843 0.013540803 -0.12281724 0.14197057 -0.14899941 0.062201336 0.035621986 -0.06327715 0.04630396 -0.080529936 0.0141733205 0.033986818 0.0069653667 -0.0485836 -0.0414637 0.032117777 -0.01287613 0.036306698 -0.02666649 0.0946119 -0.07563916 -0.028527224 -0.09375013 -0.084606126 0.066273 0.0011882692 0.07197206 0.05917051 -0.013209378 -0.04417306 -0.009294077 0.011573071 0.12779434 0.047388297 -0.05784638 -0.047096238 0.038704075 -0.039582513 0.05414248 0.027504474 -0.0059108958 0.0037919001 0.047259714 -0.048585687 -0.033557024 0.05438729 -0.010527658 0.06074456 -0.083306864 -0.08911735 0.006372368 -0.11999071 -0.04675947 0.034478135 -0.00866797 -0.07913686 0.12958546 0.088171214 0.10351265 0.0052576084 0.035237197 -0.04404768 0.028503735 -0.11767599 -0.07775744 -0.008447006 0.01205491 0.013779783 -0.040037446 -0.010516853 -0.07457797 0.093601376 0.018624904 -0.072309926 -0.040378958 0.03140801 -0.06567364 0.0121679045 0.019248938 -0.020790914 0.065170795 -0.027425272 -0.068905674 -0.06219114 0.06560054 -0.01914472 -0.038431454 -0.03610957 0.058206357 0.09466822 0.039464995 0.0045380928 0.01097308 -0.003145285 -0.012330361 0.08418116 -0.047707252 0.05419468 -0.03401873 0.05455847 0.04712584 0.0023677514 -0.060971078 -0.115762115 -0.013364873 -0.025966031 -0.014202983 -0.086830735 -0.05437169 -0.025303803 0.09288713 -0.065458596 0.13160609 0.07144348 -0.033998806 0.00788892 0.041488964 0.1813688 -0.025579814 0.03404751 -0.08509134 -0.01412119 0.06174101 -0.029391464 0.0018987029 0.0316207 -0.11456351 -0.0032260285 -0.027441725 0.041153904 -0.07874967 -0.03494454 -0.13301769 -0.037281763 -0.019961502 -0.08249983 -0.039555527 -0.11892485 0.06938882 0.02506882 -0.04721505 -0.12166659 -0.031135665 -0.0797972 0.035052814 0.052846644 0.0063800607 0.02981792 0.038705863 0.10674359 0.0011752761 -0.06574183 0.0046500596
